{
    "layerSizes": [
        784,
        64,
        64,
        4
    ],
    "layers": [
        {
            "_numNodeIn": 784,
            "_numNodeOut": 64,
            "ActivationIndex": 3,
            "weights": {
                "_height": 64,
                "_width": 784,
                "_values": [
                    0.0002516185845139284,
                    -0.0016527587203662897,
                    -0.0019504929942487434,
                    -0.001613897239016789,
                    0.004366941594843303,
                    0.0020321568195177457,
                    0.0008852434011130695,
                    0.003162173227652817,
                    -0.0005959715998189587,
                    0.0008594077716917816,
                    0.009344555534935658,
                    0.022843632850500677,
                    0.009217165954378539,
                    0.021784559880980354,
                    0.013348279503747425,
                    0.0008703366819093143,
                    -0.005193832922810865,
                    0.010021033345682926,
                    -0.0026792914936782346,
                    0.013274621499683387,
                    0.003366141005115096,
                    0.015696381175139524,
                    0.0069305629487167838,
                    0.011540440005492379,
                    0.012491381354424914,
                    -0.0003384093451687585,
                    -0.002683916905088547,
                    -0.0004465985436039173,
                    0.0014049525482328456,
                    0.00123236821419154,
                    0.004603657410103884,
                    0.0002537417880029783,
                    -0.0029733985381703187,
                    -0.003396724095910446,
                    0.0023300077352789475,
                    -0.005603042764139483,
                    -0.010251537134373939,
                    0.002505477532731721,
                    0.0275637010427372,
                    0.020533115778377139,
                    0.011488330666848616,
                    -0.00118419544553316,
                    0.01131155026489164,
                    0.0141411783114377,
                    0.015255347798389236,
                    0.00012626952581822816,
                    0.019078372638987454,
                    0.014081600576562584,
                    0.006723137716191874,
                    -0.011677401865586799,
                    0.023348291721021407,
                    0.009971006163283274,
                    0.013202943579089358,
                    0.005778353134112954,
                    0.0010144650974362182,
                    0.00029903016532763346,
                    0.0040211673727822689,
                    0.0004069278906149917,
                    -0.006672307273595956,
                    0.0006020629665299067,
                    0.00042300661732334687,
                    0.004856847821454566,
                    -0.004054220989366678,
                    -0.007612674912463096,
                    -0.0003475816314544333,
                    0.026057021957413847,
                    0.02400498822120882,
                    0.011849686575166614,
                    -0.0010086369244902852,
                    -0.006964237752768673,
                    -0.03203146218334042,
                    -0.012020161484238434,
                    -0.0008241195246233507,
                    0.009123955015389407,
                    0.02487343829382235,
                    0.017508527374630404,
                    0.03655381189418631,
                    -0.006196726331287987,
                    0.008009984787120374,
                    -0.0031260525128258955,
                    0.00671154850181998,
                    0.011939886605037526,
                    -0.004713265968145774,
                    0.0002159666037174034,
                    0.0001375816781346095,
                    0.0014770349277062865,
                    0.0011232332631031749,
                    -0.0030825589806390484,
                    -0.002535134392698618,
                    0.0037348721457930277,
                    -0.0030756181621890107,
                    0.006789797317815407,
                    0.0057617603681634579,
                    0.025232642696308026,
                    0.0049008253719849599,
                    0.00038988837247194897,
                    -0.006536771475837028,
                    0.002605987385202316,
                    -0.027923658426315363,
                    -0.04907587638005658,
                    -0.03114979522271837,
                    -0.016635459745097417,
                    -0.012577127996095492,
                    -0.01593011459520733,
                    0.007984465141754967,
                    0.03052048161960294,
                    0.009089089437692938,
                    -0.007115180552500374,
                    -0.007240614099029915,
                    -0.0049216995224316589,
                    0.009391482438496147,
                    0.00032482784812755736,
                    0.0011829187622028164,
                    -0.001842835669336578,
                    -0.0006261549448321979,
                    0.009830403279850093,
                    0.004156639971586412,
                    -0.002395194695012661,
                    -0.009816429897776758,
                    -0.0026961809391185104,
                    0.007849835726741063,
                    -0.003741549294349173,
                    -0.02230102466085961,
                    -0.033422422438618027,
                    -0.060123692701426059,
                    -0.03706834060931676,
                    -0.057488962235971979,
                    -0.05695829391514495,
                    -0.034895521094462127,
                    -0.035053708525132388,
                    -0.0404213461978475,
                    0.004006407706079675,
                    0.02430690190340503,
                    0.05603959740762115,
                    0.060161722413787459,
                    0.008192607362628443,
                    0.02462067009080496,
                    0.005816691870170158,
                    0.00479501444964417,
                    -0.004867921349370256,
                    0.0024993472075783647,
                    0.00019398934858649462,
                    0.00661431625712505,
                    -0.003058634374757496,
                    -0.006973517077969815,
                    -0.014557425262407378,
                    -0.014763809229036482,
                    -0.0443072327317612,
                    -0.055511513028859867,
                    -0.03222423353994028,
                    -0.03838474551903789,
                    -0.05615724048528879,
                    -0.08019970071114806,
                    -0.03736085586993441,
                    -0.04700121290538124,
                    0.0031987360851937457,
                    -0.014814157230083785,
                    -0.034301164148465148,
                    -0.03973342395409342,
                    0.0028653089760436129,
                    0.007364965216903483,
                    0.03489501769229483,
                    0.0687380337604112,
                    0.019559900888165065,
                    0.02253061788268173,
                    0.005817508673686815,
                    0.012583135673888689,
                    0.002273056688901286,
                    0.0035262817219126167,
                    0.0032137026885078916,
                    -0.003763603603834693,
                    -0.011982692401240196,
                    -0.034468476582347088,
                    -0.06309897416854077,
                    -0.05827906125364052,
                    -0.022394592583954495,
                    -0.004920016504421043,
                    0.03263522532233941,
                    0.04062456224229513,
                    -0.0025367888163483505,
                    -0.01700746240472758,
                    -0.019279452100391248,
                    0.01123168611776875,
                    -0.008223144980156503,
                    -0.002422636108729093,
                    -0.009917245801210726,
                    -0.03807697560515714,
                    -0.058416910596203418,
                    -0.1111088576802764,
                    -0.03300744948073829,
                    0.035111596088297909,
                    0.05304422588902887,
                    0.0033053704210956964,
                    0.001310711101211813,
                    0.021012482137854,
                    0.014798033536440969,
                    0.0011278547385539635,
                    -0.002298862858777094,
                    -0.0070171252069753269,
                    -0.029886679525265269,
                    -0.07850563493279353,
                    -0.03924705017653501,
                    -0.006397806145585059,
                    0.05070375234178446,
                    0.031102466499311585,
                    0.035328853516369208,
                    -0.032226592002764068,
                    0.0316425483469474,
                    0.021683088036492487,
                    0.056258751666946,
                    0.0013152850372086484,
                    -0.05570460942193653,
                    -0.019156961899088468,
                    0.01216239026530429,
                    -0.0017463604053988144,
                    0.042585513677074169,
                    0.03918896469155957,
                    -0.08292432197829204,
                    -0.017372609737507658,
                    0.06414461620133162,
                    0.026196305256148499,
                    -0.017445210043079474,
                    0.01848885045910233,
                    0.03313116923889498,
                    0.0039503837519615629,
                    -0.007573256965956701,
                    -0.027005149100535438,
                    -0.07916223790746951,
                    -0.05460943496639339,
                    0.018528802124445695,
                    0.0326283016611504,
                    0.06535331376095127,
                    0.04201870555060598,
                    -0.019183542075220475,
                    0.008256107796836884,
                    0.0565584028089226,
                    0.0026489824085609936,
                    -0.001425391129370297,
                    0.03255661767542756,
                    -0.05649385650764551,
                    -0.10253100056093172,
                    -0.09368709456175158,
                    -0.054216691604009468,
                    0.029022238355692868,
                    0.03564444235293404,
                    -0.018843025504512446,
                    -0.06574236364715891,
                    -0.0013631432602697924,
                    0.041140906921042639,
                    0.0019019696361163104,
                    -0.0019951951811411395,
                    0.012998000375018963,
                    0.00019183424497699734,
                    -0.029979946747363829,
                    -0.06357686708001857,
                    -0.06024421853773063,
                    -0.014022107356294016,
                    0.07257480250374134,
                    0.08236806399963463,
                    0.04280088972330058,
                    0.01784472256476521,
                    -0.05637194691982492,
                    0.08008247140051302,
                    0.025992554159715288,
                    -0.00951703629135934,
                    0.0055213872196763,
                    -0.0032267384862470287,
                    0.0473020080360622,
                    -0.017191836238407915,
                    -0.026046836579363434,
                    -0.0922373262515176,
                    -0.10797962062444289,
                    -0.058737280321571768,
                    0.05345288313954165,
                    0.04218244991532374,
                    -0.05667862823154447,
                    0.00492949397837436,
                    -0.004110963312686422,
                    -0.005460254819141475,
                    0.036188940664567469,
                    -0.007234344747138187,
                    -0.048898189290143539,
                    -0.03137331836872382,
                    -0.01014690426592019,
                    0.0687147288963365,
                    0.06941026739023032,
                    0.01324255548187743,
                    0.0070771405946977558,
                    -0.13493514623651593,
                    -0.0776456159924727,
                    -0.007341096604567871,
                    -0.056470434751867398,
                    -0.025647008220329997,
                    -0.005828893726787984,
                    -0.03104212404467822,
                    0.03088187579134873,
                    -0.007066577373891039,
                    -0.10215500149321946,
                    -0.06802392159608654,
                    -0.003075770332194488,
                    -0.05341352506628323,
                    -0.05180909409855432,
                    0.02282706614175826,
                    0.006911214234260826,
                    -0.0472111205915888,
                    -0.03532500546454577,
                    0.0025557841882315657,
                    -0.00011621328178669637,
                    -0.01927142284898147,
                    -0.056133615535095399,
                    -0.01852307950174203,
                    0.04865776666234746,
                    0.061359633092331378,
                    0.02150884879253437,
                    -0.10726013639725023,
                    -0.06701557336468755,
                    -0.06384522312987884,
                    0.013023814377111224,
                    -0.030344500018111638,
                    -0.009186490045458535,
                    -0.06355379011400379,
                    0.015436998582999046,
                    -0.0035538178654701678,
                    -0.010439010116235567,
                    0.04710293877448566,
                    0.019901180599725466,
                    -0.05505786254204267,
                    -0.04908984315826147,
                    -0.048286510599174509,
                    -0.08372600951250911,
                    -0.0007290932642013033,
                    0.008031611613420307,
                    -0.037714537368815897,
                    -0.061746950813826678,
                    -0.03800401421028837,
                    0.009893765836044157,
                    -0.002022216142343819,
                    -0.017048100238959926,
                    -0.0248077520771022,
                    0.04767009859740824,
                    0.09039965206449068,
                    -0.05305635693474706,
                    -0.07920815829350975,
                    -0.020534348020858838,
                    -0.05979171035682148,
                    0.05149099276996831,
                    0.018399819895222957,
                    0.003253878979153754,
                    0.021004272932957713,
                    0.004433083256138661,
                    -0.0017064457042254666,
                    -0.02535400862774524,
                    0.040806418251957039,
                    0.00026439264839363345,
                    -0.04064398365471449,
                    -0.08393292880047101,
                    -0.03292955167060899,
                    -0.03131107612046245,
                    0.005409615433468273,
                    0.017955013281564036,
                    -0.0006264697927163093,
                    -0.05167782304725057,
                    -0.044875291224301328,
                    -0.008457736136131456,
                    -0.022204452375274139,
                    -0.011076354726085857,
                    -0.05125131958385026,
                    0.054048957339621398,
                    -0.005271680259072307,
                    -0.09149388211720684,
                    -0.05357049030422555,
                    -0.07199634641707092,
                    -0.05312695642059236,
                    0.059121446923736029,
                    0.06357846069476869,
                    -0.021597953736429484,
                    -0.03717518224930042,
                    -0.0462233912989745,
                    -0.026416779063265368,
                    -0.015110780818956527,
                    0.017953823475242989,
                    0.04432009864223933,
                    -0.05623930852958688,
                    -0.03655259790822199,
                    -0.04992286267639187,
                    -0.05432702840742297,
                    -0.041144485468405687,
                    0.005618841295480133,
                    0.027212966095579089,
                    -0.05544805168640118,
                    -0.046166892749393329,
                    -0.018949958878345553,
                    -0.011548510196586376,
                    -0.002154803934946758,
                    0.015031772443305745,
                    0.06822873772136566,
                    0.0009438147301296825,
                    -0.05817429751908124,
                    -0.08371069037932771,
                    -0.04813227882490611,
                    -0.07250024993399743,
                    0.007975710415705377,
                    0.04095340925515932,
                    0.04875181275732666,
                    -0.04411247122671694,
                    -0.04479409713958305,
                    -0.015505527180053313,
                    -0.04612385711295153,
                    -0.054395266900653767,
                    -0.05362509692005886,
                    -0.055872597849315749,
                    0.05223956680218021,
                    -0.015832538542299609,
                    -0.06849934612240605,
                    0.0131721303002798,
                    0.02618581058111961,
                    0.0010909537555591353,
                    -0.004417139143326424,
                    -0.0029719871030288349,
                    -0.023008519498697818,
                    -0.010166188670494845,
                    -0.012141719260436279,
                    0.05501947396291486,
                    0.014978489097930079,
                    0.05618534505465977,
                    -0.07050656598264474,
                    -0.08230975685761341,
                    -0.054469315206640066,
                    -0.0709791966369988,
                    0.039236392339468437,
                    0.09621879821193444,
                    0.06289559434505636,
                    -0.065347070978111,
                    -0.0399173641905724,
                    -0.016527362911892438,
                    -0.006565137598527806,
                    -0.03424107322717072,
                    -0.017629321019262988,
                    -0.06701849885286857,
                    0.008416029011976049,
                    0.03499805657439324,
                    -0.05526763035448816,
                    0.02259476121151915,
                    0.00627354366413705,
                    0.013607228295718517,
                    -0.02124953804366093,
                    -0.039200587572404358,
                    0.009705307522124923,
                    -0.002909385027100297,
                    -0.007648060644699924,
                    0.053633009416504878,
                    0.03016231781603396,
                    0.014925828193991038,
                    -0.004966619781898465,
                    -0.04788430842825435,
                    -0.06605275891373241,
                    -0.07249369157572064,
                    0.0018247492703825665,
                    -0.004666464695547232,
                    0.03872727725876464,
                    0.042398335941756726,
                    -0.04356947689682242,
                    -0.03493451089820478,
                    -0.044210451982125958,
                    0.05666945292049146,
                    -0.01021233942742498,
                    -0.08075483195809548,
                    -0.0347529823113899,
                    -0.04223691255313732,
                    -0.010635384502147225,
                    0.05517398265748892,
                    -0.025160224126921345,
                    0.017597139726384913,
                    -0.05686567167690891,
                    -0.027160078186409567,
                    0.0445882980897592,
                    -0.010525531800334675,
                    0.005050357764934701,
                    0.00722576112743344,
                    0.013097838879696813,
                    0.03143357839314724,
                    -0.03854543701300765,
                    -0.034194310022393068,
                    -0.0150560347359597,
                    0.02434799337862535,
                    -0.057796048834704658,
                    -0.031081770026542039,
                    0.08303600684751075,
                    0.0849352565422133,
                    0.05237333561476525,
                    -0.006822351159523623,
                    -0.007789505749348629,
                    -0.024544241670357397,
                    -0.04528934020145177,
                    -0.0456823682011821,
                    -0.067573564972209,
                    -0.04692100872793783,
                    0.06769907479285843,
                    0.015934897792428114,
                    0.022443934952004347,
                    -0.026261300238044378,
                    -0.04534501797175242,
                    0.010771443262664816,
                    0.026633393804947535,
                    0.015932708611417696,
                    -0.00552450346788903,
                    -0.012186632395592043,
                    0.019924086936338144,
                    -0.0029067668669431744,
                    -0.052531525331158037,
                    -0.03910222398970345,
                    -0.005074314252519042,
                    0.060298685444839589,
                    -0.009449970437878734,
                    -0.11722671587887808,
                    -0.01621511643899135,
                    0.036006077199182109,
                    0.1115527045205198,
                    0.10252857021626616,
                    0.009649495341238792,
                    -0.03919359256279858,
                    -0.014555844355727016,
                    -0.026688406496657985,
                    -0.06305646243016136,
                    0.015775700285140166,
                    0.059675003004552317,
                    0.061444092883965708,
                    0.024644518645974814,
                    -0.04134751532245036,
                    0.028171122468195969,
                    0.062198400591773238,
                    0.010928846134719022,
                    0.012670715303771134,
                    0.01317057822322247,
                    -0.01147980072893145,
                    0.05423937189438172,
                    0.020253466224766024,
                    0.010572414710333919,
                    -0.07577786311209511,
                    -0.07234060774241609,
                    0.06781601987303791,
                    0.03584258757188876,
                    -0.08190969755730807,
                    -0.045642803900957869,
                    0.016383859436981817,
                    0.007046156369363229,
                    0.03190030413406855,
                    0.07203488472531065,
                    0.06543468320872879,
                    0.04763801159746585,
                    0.0613996079888259,
                    -0.008825050914982718,
                    0.03108727976978852,
                    0.01263438702951939,
                    0.012202851505518711,
                    -0.040472823042154149,
                    -0.018281986935884978,
                    0.02084094017184693,
                    0.026386321166651615,
                    0.00031735603158803777,
                    -0.0029638030826562666,
                    0.008183370523548253,
                    0.007698249397994011,
                    0.02835913384237307,
                    0.024365105987026318,
                    0.012582221417001194,
                    -0.030234579194302326,
                    -0.0951171713425383,
                    -0.013831014087614686,
                    0.02934398957177172,
                    0.033909889910263977,
                    -0.016808455836959385,
                    -0.011846361285377971,
                    -0.03428477006969867,
                    -0.059843641949806198,
                    0.00848791704890539,
                    0.05686698443895827,
                    0.04915442890158144,
                    0.004644478460634943,
                    0.05572671471952807,
                    0.024512364552580283,
                    -0.0013661073369267384,
                    -0.046032235252303769,
                    -0.038713677037379278,
                    0.01591723736713757,
                    0.030763140605197488,
                    0.020291315548718607,
                    -0.006207841891897468,
                    0.00020920865098601163,
                    -0.019695264747373828,
                    -0.03194114612781227,
                    0.005554725891231577,
                    0.04012061119793487,
                    0.01855445661883253,
                    -0.011397037670027526,
                    -0.0700614901383246,
                    0.031547784540965687,
                    0.07837050928705375,
                    0.010073303158299867,
                    -0.051796780410776118,
                    -0.044132949752277637,
                    -0.043517245873768258,
                    -0.07520806117949569,
                    -0.07810034908018096,
                    -0.030828945364758558,
                    0.022823827369239364,
                    0.013292223004897488,
                    -0.08774767574374214,
                    -0.032119439345448367,
                    -0.0193353017687938,
                    0.014354022615797189,
                    0.028914765958777779,
                    0.03606050212346838,
                    0.025211139892631033,
                    -0.014736510893538687,
                    -0.000032068230250723075,
                    0.0036563811897939175,
                    -0.012194545530999118,
                    -0.034906363931974489,
                    -0.026074868653736945,
                    0.0036607392068700778,
                    0.04862565078398443,
                    0.039442852780208478,
                    -0.03263411071700756,
                    -0.024584953353815825,
                    0.08221310572468393,
                    0.08942979850733943,
                    0.02666385745640074,
                    -0.06341679341965263,
                    -0.056871320669145599,
                    0.0015955297918618874,
                    -0.01655382845137415,
                    -0.08780078228363562,
                    -0.06363115456594616,
                    -0.05855357027544954,
                    0.035354874053541197,
                    0.020144955219553903,
                    0.016987581976184015,
                    -0.006387764537973087,
                    0.02591934933710059,
                    0.00019220189792014438,
                    -0.0006428296010517949,
                    0.003004800171693517,
                    0.002634909442656564,
                    -0.004236172952468208,
                    -0.0022989799464949195,
                    -0.012028807828474802,
                    -0.031568345949551917,
                    -0.03692502918696256,
                    -0.008233705269188324,
                    0.019121510645802574,
                    0.04171586864898989,
                    0.021319572573549274,
                    -0.007029234036563778,
                    0.07061901330657598,
                    0.09566995305607731,
                    0.04807171052821819,
                    -0.019127821957994667,
                    -0.044771173481009087,
                    -0.036927641724806978,
                    -0.029665185666909168,
                    -0.031768533543650858,
                    -0.021435956440554565,
                    -0.028693839879062299,
                    -0.01188582401281201,
                    0.013746298846139798,
                    -0.003638619126146763,
                    0.0027608113880134208,
                    -0.003234145784386323,
                    0.008754977605366692,
                    0.008750012349087124,
                    0.004181938228769931,
                    -0.0017348720990171859,
                    0.0013134422617361675,
                    -0.002325608790177289,
                    -0.01188159386603566,
                    -0.036019883283409718,
                    -0.010913747989243269,
                    0.012112883988270733,
                    0.01393590094479627,
                    0.0452068761493885,
                    0.007880371848552363,
                    0.046055432476395329,
                    0.06373838001968932,
                    0.08413841160143509,
                    0.03668048581128636,
                    -0.006564131499349604,
                    -0.02150114764121661,
                    -0.02932248036907833,
                    -0.03230201736821709,
                    -0.0234276966247107,
                    -0.024197121472964997,
                    -0.004792224716026123,
                    0.006609180039015284,
                    0.0045290632212927508,
                    -0.0034314893608434467,
                    -0.001223501100146261,
                    0.014970472421253918,
                    -0.004217934395350956,
                    -0.007374425511869886,
                    -0.0038757473067302747,
                    0.0024220898497111186,
                    0.004507458307718279,
                    -0.0022800499684745457,
                    -0.01325713656603928,
                    -0.0052982795325481469,
                    -0.00686515537431109,
                    -0.016807157245200888,
                    -0.034139525471210959,
                    -0.031001346177648729,
                    0.007894012794473247,
                    0.053382145091881289,
                    0.009949012502810016,
                    0.03638354330013422,
                    -0.008495493318130963,
                    0.00039727915792673083,
                    -0.026020872829034086,
                    0.007193446562009293,
                    0.014943325615854599,
                    0.016439576653642555,
                    0.030832279761055765,
                    0.014194499538827663,
                    -0.03084845121096293,
                    -0.008353365158761367,
                    -0.0008899539309245919,
                    0.019918169336173607,
                    0.0011060438733595895,
                    -0.0024496592011890216,
                    0.00031675368802727916,
                    0.001195565957172764,
                    0.0011474902478641109,
                    0.0038607019149371295,
                    0.002478934392240649,
                    -0.0027565309909721158,
                    0.00007843979574276335,
                    -0.01711355370610443,
                    -0.022825086304654738,
                    -0.03272144135521797,
                    -0.02795501706554641,
                    0.0012359522279029834,
                    0.027181954694861449,
                    -0.0016770124171760339,
                    0.010599120249793199,
                    0.015117344105376726,
                    0.006457311785028693,
                    -0.013646793839364092,
                    -0.015251874978794055,
                    0.0012387697141273353,
                    -0.016904335265439314,
                    -0.015168224309799354,
                    -0.01767779969535236,
                    -0.005621169522000179,
                    0.008924731248700704,
                    0.010123430956482865,
                    -0.01415559142541585,
                    -0.005925221649683353,
                    0.0014774240889582568,
                    0.0047292813227081159,
                    -0.0002445738227640566,
                    -0.00251005218118647,
                    -0.004461276241805496,
                    -0.00657687392242491,
                    -0.006797402325905339,
                    -0.013916057278749537,
                    -0.018902852769416498,
                    -0.01951611999512943,
                    -0.01280309497867418,
                    -0.015591741300149565,
                    -0.0010132841831030464,
                    0.006846167419191632,
                    0.013761641366612244,
                    -0.012999997374514872,
                    0.017315307856587363,
                    0.008306188296762123,
                    0.023907706467499277,
                    -0.005309227985713053,
                    -0.018436699411952884,
                    -0.009194166005063067,
                    0.016221868595430939,
                    0.02588532237365807,
                    0.018572093591226654,
                    0.008139903326395802,
                    -0.007311720016736963,
                    0.002485521790058022,
                    0.0003622439942443943,
                    -0.003309942318667432,
                    0.0035321770532975385,
                    0.0004456493227649518,
                    0.0008550274196002112,
                    0.008790061284335162,
                    0.010620350110230999,
                    0.0030051459750553516,
                    -0.003658367407714137,
                    0.013516061951459446,
                    0.025084310624223787,
                    0.02188525862462854,
                    0.01390915047072238,
                    0.013945999640328992,
                    -0.012128469760938345,
                    -0.016606422929157175,
                    -0.008288246589163358,
                    -0.0057189505351999138,
                    0.010031430190017005,
                    0.022704545803667935,
                    0.006457801554154526,
                    0.0029479825661535487,
                    0.00746771544562331,
                    0.012104446501672152,
                    0.008677466080585377,
                    0.0005900789162404989,
                    0.001388636385559838,
                    0.0002843875352989222,
                    0.0027572726319362624,
                    -0.0006849217847013373,
                    0.0015094197282637867,
                    0.0010734372650535432,
                    -0.005535863283013122,
                    0.003828028676849776,
                    -0.007159104434456897,
                    -0.0006788596961599027,
                    -0.0016993387126228235,
                    0.011363595027131043,
                    0.026418975664574453,
                    0.026623605392226629,
                    0.009780290189045506,
                    0.0029814275319625658,
                    -0.011312242428646147,
                    -0.01884142629406265,
                    -0.037293698833101237,
                    -0.031033576177074759,
                    -0.017633499562517968,
                    0.008714224696231175,
                    0.015891961637053477,
                    -0.00807755034529022,
                    0.0011050032695687199,
                    0.000008608029988106328,
                    0.013282017290332802,
                    0.0030362744224540726,
                    0.0009651799929881313,
                    0.0001483897696520323,
                    -0.003918414472598804,
                    0.0013663609603179845,
                    -0.0005325426672883208,
                    -0.0027473993406308854,
                    0.004795332304313412,
                    -0.008054944468167527,
                    0.00023080826824260103,
                    0.00321934357239357,
                    0.023364126754067437,
                    0.055531975314799458,
                    0.024815544844681758,
                    0.03688444598740292,
                    0.03444230177683538,
                    0.0012738844640605193,
                    -0.012770438428750929,
                    -0.03776687799600026,
                    -0.03667234056897155,
                    -0.044656768446758369,
                    -0.05016288126701476,
                    -0.03180215108126194,
                    0.004661031027269521,
                    0.006283289190224938,
                    -0.003146396326467392,
                    -0.006535816231751258,
                    0.000020773829414122895,
                    0.010372892284803639,
                    0.002566983079428725,
                    0.004579281016916128,
                    0.0012649139241323173,
                    -0.001640797582170619,
                    0.0021041142835854329,
                    -0.0035287599118757858,
                    -0.006306434363450634,
                    -0.00663698277770113,
                    -0.001604803365415259,
                    0.04221483307814726,
                    0.08230111251803382,
                    0.0755035771361845,
                    0.04063511562565321,
                    -0.022921891700350747,
                    0.004535681217923754,
                    0.05249929053102273,
                    0.04701432476405529,
                    0.024601340137162469,
                    0.011708191894075137,
                    0.0016062881746673579,
                    -0.060468041753935757,
                    -0.035495074182024379,
                    -0.0117575427304852,
                    0.00781451454150046,
                    0.0010891674664465377,
                    -0.009796926485523744,
                    -0.0036805591558987137,
                    0.007114525147488564,
                    0.010633691718238987,
                    -0.003290349676509709,
                    -0.0026197709301753948,
                    0.001459551761762008,
                    0.00023032116294601586,
                    -0.008399988088533015,
                    0.02950935899251484,
                    0.042913889743314708,
                    0.03655514905644835,
                    0.06392194261301429,
                    0.03025880785440503,
                    0.005508974312577489,
                    -0.025910145664480148,
                    0.019679317505494309,
                    0.019533227086633969,
                    -0.0022702767369237525,
                    0.003971096297844901,
                    0.05307232679709693,
                    0.017122857298293646,
                    0.04773662047100494,
                    -0.00018379583802935603,
                    -0.05286466050689242,
                    -0.041985505634381917,
                    -0.003802141371111249,
                    -0.0007764785855523234,
                    -0.010962898202058902,
                    -0.011739752650825929,
                    -0.0008132358265752409,
                    0.004854568191396404,
                    -0.00042414948609082224,
                    0.0006188708723752695,
                    0.0007082437226594828,
                    0.005304953812393589,
                    0.017817827570096035,
                    0.02270961403069821,
                    0.031111860528141443,
                    0.02247617127564795,
                    0.01682163746409637,
                    -0.014122642697448002,
                    -0.04953039817215637,
                    -0.030037308583752196,
                    -0.01305675799229577,
                    -0.06382634387930551,
                    -0.034563000443594237,
                    -0.0459638063691421,
                    -0.007325273737668123,
                    0.06584558792682925,
                    0.08463702321941587,
                    0.011463129106508529,
                    -0.030478359301317618,
                    -0.06438880790182243,
                    -0.03812396983720242,
                    -0.006834080337151213,
                    -0.014416146985685313,
                    -0.0045620373681576659,
                    -0.003348702192143177,
                    0.008891266923846706,
                    -0.004503413125358937,
                    0.0037121356760035815,
                    0.014561337191551357,
                    0.0267207653858209,
                    0.019093521369775887,
                    0.021318621932281579,
                    0.006324873062622604,
                    -0.013919116660906733,
                    -0.01428486051231331,
                    -0.01997680128980361,
                    -0.029780254098932397,
                    -0.02531745233874434,
                    -0.032123830144984748,
                    -0.028457367332109117,
                    -0.030792887581904499,
                    -0.008218926599083795,
                    0.02769215011117341,
                    -0.03220995711383011,
                    -0.013321947562209481,
                    0.07011023542060546,
                    0.02910173794659709,
                    -0.04208672908557082,
                    -0.04831564632053309,
                    -0.015862644968450046,
                    -0.017180120837583254,
                    -0.008624611465374945,
                    -0.003877356861734864,
                    0.01183006066524181,
                    -0.003220573232955123,
                    0.009419601173149831,
                    0.0225123195113346,
                    0.021868247142012799,
                    0.03782307694223142,
                    -0.008111833866445933,
                    -0.04508046164800925,
                    -0.03400738692226141,
                    -0.015240341527263267,
                    -0.007064628694129534,
                    -0.035518876458282198,
                    -0.02549617447468991,
                    -0.08223764858388771,
                    -0.055255753228650329,
                    0.014026825406656545,
                    -0.019476191896808067,
                    -0.0596912948089117,
                    -0.04571712043717182,
                    -0.00856641373321725,
                    0.03231812756045921,
                    0.07188627190668029,
                    0.00007121432775575086,
                    -0.056615831253317528,
                    -0.029349251694076637,
                    -0.01016254448664444,
                    -0.016445482495816026,
                    -0.004168385434384279,
                    -0.004225068650094608,
                    0.005815027254518713,
                    0.01751582535041021,
                    0.023725446378174216,
                    0.029201116209345829,
                    0.025592728229549955,
                    0.012578190877178581,
                    -0.014547997167339903,
                    0.0007366591676709335,
                    -0.02586956910019131,
                    -0.0568656717072563,
                    0.0005964162029056679,
                    -0.0328576620625325,
                    -0.05767247356989285,
                    -0.06592076800514245,
                    -0.046889613003039277,
                    -0.02862564814222286,
                    -0.008596604757476041,
                    -0.014542007541003877,
                    -0.007639900883743906,
                    0.00048961822103574,
                    0.07639622758230401,
                    0.038699811034378629,
                    -0.06990042827391643,
                    -0.048408503401618559,
                    -0.030196079782250554,
                    -0.021910464746091718,
                    -0.008582109217486806,
                    -0.008721044659477474,
                    0.0002869174436933125,
                    0.02272632666183378,
                    0.026335251031681225,
                    0.05188362860620451,
                    -0.02374157345859427,
                    -0.03214168193766285,
                    -0.02811141397422139,
                    0.014902550468343675,
                    -0.026353258808610965,
                    -0.0503328607789043,
                    -0.017939926295892484,
                    -0.020114659144871085,
                    -0.007315668071251163,
                    -0.00669926668661417,
                    -0.05888362021167593,
                    -0.03165955823658359,
                    0.004861353572760542,
                    -0.03601578652418711,
                    0.005798544341043388,
                    0.020290655610618385,
                    0.013112033678889013,
                    0.042620091008640708,
                    -0.032532032090397938,
                    -0.04997060594075369,
                    -0.048590537312331528,
                    -0.024582242903591863,
                    -0.01457248119056247,
                    0.0031693306991537404,
                    0.0014403876327020657,
                    0.022692798171990208,
                    0.03309661109262231,
                    0.04092111063608116,
                    -0.03394670625814067,
                    -0.07036018852111631,
                    -0.017688399416827609,
                    -0.04559309021770602,
                    0.024656269624430236,
                    0.028485414078906154,
                    -0.010102819967626359,
                    -0.013786557721857978,
                    -0.005074509027788934,
                    0.006712295244160922,
                    0.047478241811207317,
                    -0.02410568710028283,
                    -0.056369514095700967,
                    -0.010728452969631326,
                    0.01708098083900462,
                    0.008789399920304366,
                    -0.04287787940832879,
                    0.01945446396547169,
                    0.038150140972093227,
                    -0.08678157479681763,
                    -0.057319489612408968,
                    -0.03021068352437832,
                    -0.017948396339948045,
                    0.00020296501463827195,
                    0.002116739648179141,
                    0.021353765942305388,
                    0.031698650457594398,
                    -0.020661258285541333,
                    -0.012606865405317474,
                    -0.03545027456140602,
                    -0.03797433932029548,
                    0.007401581034302185,
                    0.027988328828287027,
                    -0.038102927537261608,
                    0.005390644111485403,
                    -0.0029610057934724087,
                    -0.017407538742771006,
                    -0.08371314262122912,
                    -0.03272039373512022,
                    -0.01371394635300878,
                    -0.008027780289630523,
                    -0.013397478248028424,
                    -0.0037617660186921697,
                    -0.01170066350986509,
                    -0.020724286758986387,
                    0.08179854601005904,
                    0.06310204169810926,
                    -0.10204511883856883,
                    -0.05025787885851752,
                    -0.03472019540658127,
                    -0.01872328824703901,
                    -0.012268421251680886,
                    0.00121394967702701,
                    0.01086233899668635,
                    0.027684094309727345,
                    -0.018718440842740489,
                    -0.0172368456520403,
                    -0.0036680925322301407,
                    -0.07513460853141248,
                    0.0032074051761384325,
                    0.017611666147110878,
                    -0.028972764480001035,
                    0.03337768030655942,
                    -0.0068394181816892889,
                    -0.014106995209481657,
                    -0.022341697333101128,
                    -0.027913936877697416,
                    -0.07251987792078429,
                    -0.026689163039680595,
                    0.04860547042453667,
                    0.006236158305015097,
                    -0.01961902928809782,
                    0.04791619392920282,
                    0.026178414442678257,
                    -0.033563350439425269,
                    -0.04989461284623573,
                    -0.028979655701980267,
                    -0.03812476222956058,
                    -0.02065564751649722,
                    -0.0019967901601453356,
                    -0.0008758156057678297,
                    0.020866593464684135,
                    0.011819150632089743,
                    0.00023549840701224173,
                    -0.052082214106317917,
                    -0.028645459100122316,
                    -0.037273013487348027,
                    0.012320965610801222,
                    0.007487214391902557,
                    0.03190994703624207,
                    0.05992591263985134,
                    -0.033871491263797678,
                    -0.07079295503422646,
                    -0.059608910217360869,
                    -0.04367437997400743,
                    -0.027289721144791305,
                    -0.0030910854736585235,
                    0.011743255910104748,
                    0.011090172485779754,
                    -0.006761161110408924,
                    0.15746052469334474,
                    0.059101722329210269,
                    -0.11461923767596534,
                    -0.03538968819880305,
                    0.0020983297395721779,
                    -0.04258635554208095,
                    -0.02435616911124775,
                    0.0004964922135437076,
                    0.00211203063188434,
                    0.007803677880370316,
                    -0.00712311440318118,
                    0.017705341110149179,
                    -0.032653768478074888,
                    -0.08288104926918098,
                    0.0080998717616695,
                    0.01408942893595688,
                    0.00863834966092715,
                    0.004922604991921701,
                    0.08745921975542724,
                    0.002080010612698467,
                    -0.09995651772871914,
                    -0.08329273875231667,
                    -0.003750456107763055,
                    -0.02490212604178405,
                    0.00746194008628322,
                    0.04157494343535807,
                    -0.029669096962669496,
                    -0.003214613445824194,
                    0.14170297635631058,
                    -0.051398045778280398,
                    -0.06566160031146401,
                    -0.00581063134548074,
                    0.011124291164953029,
                    -0.0047086774776514748,
                    -0.008413231393967005,
                    -0.005867956606497774,
                    0.0011716501384186243,
                    -0.009114632465521694,
                    0.019315659168374089,
                    0.006430539918752354,
                    -0.043570990884893429,
                    -0.09909252955736436,
                    0.030942830451047219,
                    -0.06895413501010413,
                    -0.004644797004509237,
                    0.029787557008282195,
                    0.0037082659293791039,
                    0.020857499055281553,
                    -0.05910007507509158,
                    -0.04389161457596756,
                    0.03841770094756406,
                    0.01691846893070029,
                    0.0019407254535510218,
                    0.06325909744142692,
                    -0.02438764335055102,
                    0.09650282255692373,
                    0.09207387054624156,
                    -0.10734031447355416,
                    -0.09719349191999821,
                    0.001559331539021738,
                    0.05181510315564195,
                    0.03046793767376409,
                    -0.017016682375401668,
                    -0.0019514926347704812,
                    0.0011001715947684917,
                    -0.00556882966250642,
                    0.021569323539808284,
                    0.004002844692990261,
                    -0.03639035577548863,
                    -0.05784419840216361,
                    0.013496329913196057,
                    -0.002186684640775974,
                    0.016395749885593136,
                    -0.007208092309456001,
                    -0.04191288820601267,
                    -0.015557517188458116,
                    -0.014789765787627694,
                    0.022296269441662667,
                    0.03823488861728691,
                    0.04634707602070103,
                    0.03172731416711964,
                    -0.031772838391146928,
                    0.018608496573514978,
                    0.0769902456970986,
                    0.02894641249498439,
                    -0.13382531296462925,
                    -0.03798448751042603,
                    0.009385838214464657,
                    0.015201606482302132,
                    0.052991653049583007,
                    -0.002556292786464469,
                    -0.0041227074428586119,
                    -0.004341890874479688,
                    -0.013496063206202315,
                    -0.0024329135683071425,
                    0.003945494161691616,
                    -0.011704941444279431,
                    -0.031204991927985535,
                    0.0333803739051167,
                    0.01746735862968778,
                    0.03619459055256601,
                    0.0171103888186649,
                    -0.07503089689123305,
                    -0.02555276087745054,
                    -0.02451701189465339,
                    0.04297143014555714,
                    -0.016850452840928458,
                    0.014442917647130021,
                    0.04971666327887055,
                    -0.03467534086988027,
                    0.10507550966127971,
                    0.04495828445567723,
                    -0.0978273825943112,
                    -0.08144121577957588,
                    0.013397330937373413,
                    0.02805214478744285,
                    0.02137452641230129,
                    0.02182446706940976,
                    0.019854145654043189,
                    -0.008169847342264586,
                    -0.002439301068172379,
                    -0.004295567619572753,
                    -0.009825114929685027,
                    0.0058918389481040669,
                    -0.025241250985691637,
                    0.015814892979371617,
                    0.03213985576013464,
                    0.018639299469135358,
                    -0.0028775292840538446,
                    0.0068434250344879209,
                    -0.03677769595785938,
                    -0.06517421329482784,
                    -0.046745413005916499,
                    0.03962176416303956,
                    0.02650178947447492,
                    0.07316877518889485,
                    -0.023863928830828313,
                    0.0033675978076686226,
                    0.038355296278627448,
                    0.008282736217808274,
                    -0.10484775623215352,
                    -0.03685553027674598,
                    0.029852292599765335,
                    0.047207309831323578,
                    -0.018818612873446124,
                    0.00825923672407461,
                    0.006421799714710495,
                    0.011635438667631693,
                    0.005804510508506378,
                    -0.010978157868803263,
                    -0.006181828985835058,
                    -0.005880650539511406,
                    -0.02918555454011089,
                    0.019519262037345224,
                    0.05659975430792938,
                    0.09774448368300327,
                    -0.015375596150891586,
                    -0.06772842365705943,
                    0.046079981181576429,
                    0.02652081294118979,
                    0.013984829928755006,
                    0.033673371830036439,
                    -0.006354336154527825,
                    0.02756785686064018,
                    0.0054268372907594918,
                    0.028150296733784446,
                    -0.02060036228904826,
                    -0.09915649289615215,
                    -0.02037873101740941,
                    -0.02978509547039757,
                    0.013295723379423827,
                    0.002531401599961631,
                    -0.0061733236624127159,
                    -0.015892189024542464,
                    0.005842947086392793,
                    0.015041549944426893,
                    -0.009397791448116158,
                    -0.007765093175669293,
                    -0.004024691722242293,
                    -0.014853143314413715,
                    -0.02644163311440256,
                    -0.02888186766939628,
                    0.011479529866621437,
                    0.019243284822470873,
                    0.008304528742840004,
                    -0.03177744089921001,
                    -0.025418172222780885,
                    -0.005718821469977235,
                    0.02078000871667022,
                    0.026577150661664836,
                    0.06459687088435837,
                    0.03725631337392974,
                    0.014149022145764925,
                    0.00007764059813415404,
                    -0.12063319484030484,
                    -0.04293318670543881,
                    0.0022622550257701266,
                    0.010168184677874929,
                    -0.001860785466207752,
                    0.009886623420260059,
                    0.018896573943147408,
                    0.00371299817048706,
                    0.021449981755863494,
                    -0.0009815936271954155,
                    0.00489995403898291,
                    -0.0005286739715339542,
                    -0.004062380649667151,
                    -0.018647315099745235,
                    -0.03421745272456532,
                    -0.04776999788764036,
                    0.023241577090564723,
                    0.051340568273503129,
                    0.026920496272622546,
                    0.0081358732559133,
                    0.011510479264677574,
                    -0.03858337811035755,
                    0.017364952716667705,
                    0.024834636619581304,
                    0.043117459932124558,
                    0.017662021351126174,
                    -0.09497021958071582,
                    -0.11180859352724335,
                    -0.040523386859235867,
                    0.006923635956880424,
                    -0.041598561637816899,
                    -0.04597279882625235,
                    -0.0034587551812225137,
                    0.005241207594874996,
                    0.022444382990439484,
                    0.0021209592160013176,
                    0.0068139604307022069,
                    0.005492881502410585,
                    -0.0014874424272881934,
                    -0.00425237461327808,
                    0.002270245184202228,
                    -0.007182651501944988,
                    -0.016240647418786153,
                    -0.05141058310619218,
                    -0.025794925466182417,
                    0.03621227450469618,
                    0.03886631411861804,
                    -0.040536269061277867,
                    -0.04459225349080331,
                    -0.007930897765142799,
                    -0.013993277119295548,
                    -0.04619368014818529,
                    -0.06475033234955018,
                    -0.0843110181674431,
                    -0.07787884826249987,
                    -0.027956968124674014,
                    -0.02946085918716928,
                    0.006090613525168651,
                    -0.028804355063177104,
                    0.0010299206083183015,
                    0.007079807666055364,
                    0.007010946928215187,
                    -0.004911407562289505,
                    0.013103041869453502,
                    0.007989092152288895,
                    0.026703831760514223,
                    -0.00400477389384368,
                    0.004223600108945185,
                    -0.003174689200741695,
                    0.0033305225529151217,
                    -0.00782361308766468,
                    -0.0135117559994788,
                    -0.02981145825563914,
                    0.0343939084738523,
                    0.030579801038787988,
                    0.06403263577218656,
                    -0.027479437164537589,
                    -0.06648072329613414,
                    -0.07479692017774843,
                    -0.07898331384774475,
                    -0.054481722729542648,
                    -0.020687238202630719,
                    -0.06237282911045342,
                    0.006283067586121915,
                    0.020802373253618245,
                    0.0006261177457703321,
                    0.007832195201288844,
                    -0.0031774122328303668,
                    -0.013736777384679797,
                    0.020526783793400159,
                    -0.0066228126424532009,
                    0.014187415064752584,
                    0.02687542509852518,
                    0.0199645638224272,
                    0.0008893835798584694,
                    0.0018665267519183684,
                    0.004768889102569852,
                    -0.006733359885866383,
                    0.0009168086268589684,
                    -0.00829342454771266,
                    -0.012549535532571736,
                    -0.021675041663253744,
                    0.025129630903805167,
                    0.07077862228028462,
                    0.08131705230402083,
                    0.022189043645223465,
                    -0.04029213590770159,
                    -0.04903359393378097,
                    -0.021210106477850638,
                    -0.004148359710004168,
                    -0.013588057998434272,
                    -0.025445626849335977,
                    -0.01075335060015423,
                    -0.009331489061364537,
                    -0.004714049663002599,
                    -0.022864337299766975,
                    -0.002000968836593372,
                    0.005329653449216075,
                    0.010970536629641143,
                    0.018304932381886488,
                    0.027026196025450985,
                    -0.009473545911080054,
                    0.001735812138596068,
                    -0.004322308012328587,
                    -0.0018757258749180467,
                    0.0009630556807410502,
                    -0.00008913895071402011,
                    -0.0029204350484172546,
                    -0.005451764303475941,
                    -0.013571237157520256,
                    -0.0031140745427452566,
                    0.03157084255583121,
                    0.05600564955330261,
                    0.06662081359003948,
                    0.08076130330563514,
                    0.029366933511348619,
                    0.010241381642206976,
                    -0.008265537534563718,
                    0.009985242504255506,
                    -0.01491966666581748,
                    -0.021757080877297977,
                    -0.01922858564857515,
                    -0.004746172352733253,
                    -0.009026854049144148,
                    0.02933405712262121,
                    0.025997614345421865,
                    -0.001370752630930518,
                    0.007887043167240944,
                    0.012281203530205088,
                    -0.014605871214258134,
                    0.0007407400990551276,
                    0.0014249787795093112,
                    0.0017631039188139363,
                    0.0009486389400523433,
                    -0.0007837807519975395,
                    0.0019507438437069898,
                    -0.0038591427336656239,
                    -0.01439492086898646,
                    -0.022364497019435854,
                    -0.018499362678061523,
                    0.004088706029411441,
                    0.026849035974968979,
                    0.04136311723231072,
                    0.01647241969673017,
                    0.03873100079786966,
                    0.0048961101351314719,
                    -0.02440565480655147,
                    0.024299408416329338,
                    0.046715989160471167,
                    0.010373742869588802,
                    0.001135017115893625,
                    0.020159667688816719,
                    0.024393633815763383,
                    0.015830615428951635,
                    0.00022030541556270115,
                    0.005155018110194524,
                    -0.0022898528205895225,
                    -0.008754946931192819,
                    -0.00010505482459487693,
                    -0.0020797985975470458,
                    0.0010464961200016775,
                    -0.003862783443097422,
                    -0.002170624630899674,
                    0.0007672677798625898,
                    0.0010059365219728966,
                    0.006135427934574141,
                    0.0029116859132081306,
                    -0.004562225891308266,
                    0.011182610307506818,
                    -0.030289925556729406,
                    0.001440241824826507,
                    0.06646216802974858,
                    0.07014279556422232,
                    0.06131475541453661,
                    0.0252150510015423,
                    0.034592902257811367,
                    0.026677755503240333,
                    0.015360620039747319,
                    0.011047854667310332,
                    0.007975796408115991,
                    0.0013448949237338097,
                    0.01705353421205701,
                    0.00608656062242709,
                    0.006802092483033536,
                    0.0024378821821772346,
                    -0.004155612378868374,
                    0.0028347096913658054,
                    0.0012338866334397597,
                    -0.0006523472967336597,
                    -0.0013967126711082728,
                    0.001213149427323567,
                    0.003192299892193493,
                    -0.0014452884666061586,
                    -0.002466564676647047,
                    0.0010118545714806684,
                    -0.0005978908747908464,
                    -0.023554841636875415,
                    -0.01691572655037193,
                    -0.02379540565235018,
                    -0.029841248977430538,
                    -0.02483141864089773,
                    -0.025287862251570957,
                    -0.031225179716008638,
                    -0.032897283392419627,
                    -0.03410524019534508,
                    -0.004908704049955891,
                    0.0006774579633828387,
                    0.003648668191366604,
                    0.0006246755517376789,
                    0.009286660950411542,
                    0.0010067601257944405,
                    0.0010907807825896619,
                    0.00007939682916122668,
                    -0.0007415777050049852,
                    -0.0022083678632209815,
                    0.0002238835354385315,
                    0.0014438389497311217,
                    -0.0019472632894238925,
                    -0.0024390635914687474,
                    -0.002340986951441676,
                    -0.004544450391375876,
                    -0.01410331647459213,
                    -0.003703986644849093,
                    -0.0028021227036134487,
                    -0.00003166474591532814,
                    -0.02125832274986271,
                    -0.03273250915678091,
                    -0.02707942377423797,
                    -0.03176183583870866,
                    -0.03354819026885386,
                    -0.04489575634720472,
                    -0.030523925952368099,
                    -0.037273004635309369,
                    -0.021667074197392765,
                    -0.003861286481104039,
                    0.007327167182856343,
                    0.0050301350271011869,
                    0.006969712080202908,
                    0.00226709690264955,
                    0.0038113665267268785,
                    0.0032525036648746459,
                    0.0012059705309440765,
                    0.0015598512966993679,
                    0.0031443956758879659,
                    -0.000053778703240947726,
                    0.0030410910015125638,
                    -0.0005590378939620266,
                    -0.009644206369114056,
                    -0.011210782649866837,
                    -0.0030452651041377877,
                    0.000161982147155403,
                    0.006224631931998444,
                    -0.007278578534090658,
                    -0.020135045004156923,
                    -0.0514160327563037,
                    -0.05277598410437672,
                    -0.04478791207285054,
                    -0.054436876102402099,
                    -0.061870012218339039,
                    -0.05522990883665759,
                    -0.044899946316986519,
                    -0.035990351018738177,
                    -0.013774683113436368,
                    -0.008476672763812933,
                    -0.0013411332025690198,
                    0.005919793644551637,
                    -0.0033169322253558755,
                    -0.0008509023671921944,
                    0.0011157580014827089,
                    -0.004626179943264911,
                    -0.0024496855960548455,
                    -0.0013201309824143462,
                    0.00011122531298651223,
                    -0.0014712206595127085,
                    -0.004700065487498503,
                    -0.019928589602809578,
                    -0.0038118884949638655,
                    0.013969892583070616,
                    0.03809468566675886,
                    0.025889745535519368,
                    0.005947732654187001,
                    -0.018264207301894786,
                    -0.010890016545414416,
                    -0.05785351953432107,
                    -0.0527560996936235,
                    -0.0807064614455537,
                    -0.059508274136454198,
                    -0.05250790291466871,
                    -0.04622177268468523,
                    -0.019388432446442666,
                    -0.019274682798063448,
                    0.005967336948691056,
                    0.005953846582407327,
                    0.0032146266074335125,
                    -9.639690487254759e-8,
                    0.0020994495490310515,
                    0.00016297271726622102,
                    -0.00021535941282483533,
                    0.0018556980338308733,
                    -0.0010076044389406144,
                    0.0006183561371031571,
                    0.00209608044738449,
                    -0.02286302495358311,
                    -0.03199429908081849,
                    -0.008556257604453641,
                    0.001840673238533237,
                    -0.0021647701182564754,
                    -0.01478031179346408,
                    -0.0069678940766339648,
                    -0.03500416726068921,
                    -0.01631488410654011,
                    -0.023378325945765785,
                    -0.04670647656628657,
                    -0.05795864270618143,
                    -0.010713015528373159,
                    -0.017990330844396608,
                    -0.010214654774170098,
                    0.011904259010962497,
                    0.027183007014930564,
                    0.04397338775499939,
                    0.0298315703455672,
                    0.009137646190328204,
                    -0.006477774199347758,
                    -0.010152461159404906,
                    -0.004340219090309512,
                    -0.000601193176416337,
                    0.00120667560592349,
                    0.00032352714536504183,
                    -0.0005314504271236809,
                    -0.004182582596178057,
                    -0.014824702635278884,
                    -0.05211230754585756,
                    -0.03146343663987001,
                    -0.019191312735267989,
                    -0.03583052846490706,
                    -0.07896374107583167,
                    -0.07569472529273089,
                    -0.0959835184850822,
                    -0.058037819039141607,
                    -0.0376046847390403,
                    -0.044555271335088578,
                    -0.018387075955312625,
                    0.027899143944118064,
                    0.02497228192167734,
                    0.05674304042298981,
                    0.0582998956620651,
                    0.05847255733511734,
                    0.08362458471190616,
                    0.05160561569509211,
                    0.0383528301695153,
                    0.015806227039275156,
                    -0.0034849884499149857,
                    -0.000028565442671006257,
                    -0.011009406767530553,
                    -0.006470033361606434,
                    -0.0015913604428574925,
                    -0.0015493427666001413,
                    -0.014572991480613307,
                    -0.025795438440770866,
                    -0.06625024843555155,
                    -0.053294041174196438,
                    -0.02389098492414692,
                    -0.048492048372281517,
                    -0.06772304613000536,
                    -0.09624694417340053,
                    -0.08706971512820441,
                    -0.10758015393960702,
                    -0.09903139534225065,
                    -0.05032480758112563,
                    0.008178139728298706,
                    0.000509011995320706,
                    0.04494762881067407,
                    0.0274038494804833,
                    0.06302903222545701,
                    0.05804933421452426,
                    0.09733238350116293,
                    0.0646244054986668,
                    0.04259332146874355,
                    0.0010028746346151374,
                    -0.010006742452079049,
                    -0.01210283910166874,
                    -0.012336758339243319,
                    -0.018662421616757613,
                    -0.0017864135305135285,
                    -0.0008558770461005151,
                    -0.016119447820142717,
                    -0.05284293201374647,
                    -0.05077738228377651,
                    -0.05658346842000512,
                    -0.02058894161946767,
                    -0.04368849683522677,
                    -0.056697641241740297,
                    -0.1118363089701276,
                    -0.08692430423009214,
                    -0.0877098453859683,
                    -0.045432686667375109,
                    -0.06714498947100732,
                    -0.011365877198111064,
                    0.008257615749548198,
                    0.030517358345806025,
                    0.053440964756154767,
                    0.06365593586917354,
                    0.10737699494797147,
                    0.1093579279006804,
                    0.06956785597708393,
                    0.08631939223434059,
                    0.028019581676626386,
                    0.001290581621116082,
                    -0.03664514491042077,
                    -0.018811848229264157,
                    -0.009807434157886066,
                    -0.004746366724739124,
                    0.007394307805171916,
                    -0.009951567014188694,
                    -0.04097379876894958,
                    -0.035862858091420788,
                    -0.007765281582846418,
                    0.00424828974890041,
                    -0.0014587140266931255,
                    -0.00326165115168292,
                    -0.05766996499616919,
                    -0.07084580725545674,
                    -0.05043650659572865,
                    -0.06931650641700513,
                    -0.06383196204722128,
                    0.010505279486186554,
                    0.03188503294739749,
                    0.04574973470871411,
                    0.02828054495166061,
                    0.06861277480497317,
                    0.07971752976550634,
                    0.06346679185226843,
                    0.03687740434989251,
                    0.05836287188529877,
                    0.012446214665978261,
                    -0.0276489366925848,
                    -0.031679222966948378,
                    -0.038819628386950997,
                    -0.026622157534145445,
                    0.00017275074183015023,
                    0.0034085144296345504,
                    0.0015605597089913435,
                    -0.026505658122824309,
                    -0.02422673687241533,
                    0.011231551323840628,
                    0.024223734287143089,
                    0.050148832553204038,
                    0.01009272671654819,
                    -0.01717242679390837,
                    -0.052844305922590806,
                    -0.055481078536847357,
                    0.003854347940195517,
                    0.01732826673162253,
                    -0.003799508961273347,
                    0.07520712295670414,
                    0.10542119561936736,
                    0.07782626336728285,
                    0.0856299223617706,
                    0.05076872896536074,
                    0.09193850159628504,
                    0.0756058244766541,
                    0.019848866308191737,
                    -0.014222860541657499,
                    -0.048550017564949986,
                    -0.06387612844294985,
                    -0.05300458760827741,
                    -0.039578823643804977,
                    0.012431106267284848,
                    -0.02381713175689532,
                    -0.03289042934379977,
                    -0.00022393200101129075,
                    0.006350599370543849,
                    0.04757189387104099,
                    0.042383159277223577,
                    0.012308538189729478,
                    0.023329467259042757,
                    -0.02994457148773217,
                    -0.04648979258646742,
                    -0.049007763891284649,
                    -0.050658191495286549,
                    -0.008680173244012052,
                    -0.018505259570129857,
                    0.04603330856730145,
                    0.06903715575879598,
                    0.09991683850080696,
                    0.10153676700802905,
                    0.037310268892174088,
                    0.03563505128630851,
                    0.05189350579866367,
                    0.006643799902796004,
                    -0.012918937606566169,
                    -0.04727040678435652,
                    -0.07554594938915182,
                    -0.07975040716963623,
                    -0.04509450985413153,
                    0.008626421598294113,
                    -0.0022019053417338195,
                    -0.018238586591792027,
                    0.016677700898941634,
                    0.04146839148520992,
                    0.026534598758363588,
                    0.039420153813508888,
                    0.028543110020597705,
                    0.030318700071890017,
                    -0.01865017603047462,
                    0.02915839151394251,
                    -0.024676989797142076,
                    -0.030986123445777639,
                    -0.008071451711804885,
                    0.011196676157787186,
                    0.04809409437225883,
                    0.09221623548220323,
                    0.057209999618985259,
                    0.043290678039884709,
                    -0.0004946429712680095,
                    0.01768005666783786,
                    -0.0017542645661947014,
                    -0.02593266803583516,
                    -0.05563718273873496,
                    -0.04932867680780844,
                    -0.06899842329108794,
                    -0.06803480329342057,
                    -0.07229379130929836,
                    -0.008713399945694679,
                    0.008446708520208646,
                    0.007339748610987398,
                    0.05967863352977716,
                    0.0420999449354832,
                    0.03591727959229702,
                    0.06143517880929601,
                    0.091253603485429,
                    0.058340573663435559,
                    0.07544524350423805,
                    0.06815204587175415,
                    0.004739972280676709,
                    0.03446305589771916,
                    -0.004012856672334051,
                    -0.036884732727613969,
                    0.004092334371977763,
                    0.0070087125887334559,
                    0.002160972611792658,
                    -0.003924805970908249,
                    -0.033480146352340169,
                    -0.05445482269096972,
                    -0.05290910743059775,
                    -0.08631770622348649,
                    -0.05080954773936054,
                    -0.041405712146453697,
                    -0.07673022796632538,
                    -0.05890342782019537,
                    -0.04208678091108233,
                    -0.001343097144341,
                    -0.012258658103549623,
                    0.027264930981999434,
                    0.07667173278133303,
                    0.09881240060476623,
                    0.10857515590645658,
                    0.08215592044106472,
                    0.0941750855014481,
                    0.05487769543952468,
                    0.07118140757246559,
                    0.06675740505573404,
                    0.04088722258345876,
                    0.03287460865160008,
                    -0.027306294034907469,
                    -0.07312623708125209,
                    -0.03952469328610585,
                    0.004480539361301867,
                    -0.012592540776861231,
                    -0.021529723309971859,
                    -0.044592328877744887,
                    -0.06028080348019823,
                    -0.06927071286913272,
                    -0.06313895014638305,
                    -0.0886456227993823,
                    -0.06437592225630988,
                    -0.05635372943369783,
                    -0.03442718465666089,
                    -0.02125007570706572,
                    -0.009237602230659899,
                    -0.014082181618598792,
                    0.03673567501796515,
                    0.10764224643004486,
                    0.07589301038468716,
                    0.0810551831384454,
                    0.044132385267440458,
                    0.040853567890128648,
                    0.06298433291744807,
                    0.09658814309016292,
                    0.08163200172538969,
                    0.10340746743817264,
                    0.023550671010849849,
                    -0.09905838457328024,
                    -0.11642278226763212,
                    -0.016006484096079685,
                    0.025428106810083514,
                    -0.03258752357183597,
                    -0.009753657727945092,
                    -0.045336043655023926,
                    -0.058499590424512439,
                    -0.09301500442166647,
                    -0.06518016680325194,
                    -0.05044866424800109,
                    -0.09357764841298101,
                    -0.06303281258606736,
                    -0.012174949367880295,
                    -0.023419229624169696,
                    0.0035251068548159375,
                    0.008551566935320781,
                    0.00023434826474700934,
                    0.06387030440657347,
                    0.08084489031408143,
                    0.04780662720173491,
                    0.0898277239683312,
                    0.07175648614658942,
                    0.06695143110920106,
                    0.037231763231695757,
                    0.058903368757259707,
                    0.06621003432108831,
                    -0.006067462730672134,
                    -0.048783835241628398,
                    -0.0422097821113132,
                    -0.0485027567257539,
                    0.016757556541501955,
                    -0.008169851104764767,
                    -0.03507172391576817,
                    -0.03632687748021222,
                    -0.06884492274259527,
                    -0.08197754372502539,
                    -0.0904601361935257,
                    -0.08670253614871464,
                    -0.06496258096310041,
                    -0.03254492032691277,
                    -0.025571033444104206,
                    -0.02837927943452171,
                    0.007680971445978538,
                    -0.008674515255734086,
                    0.03564454977207377,
                    0.03203976510469544,
                    0.02145963841020085,
                    0.03960652930257347,
                    0.055577063754448038,
                    0.04818555876502141,
                    0.08666663689371576,
                    0.05454433783270551,
                    -0.011670958434764022,
                    -0.03856928209672697,
                    0.006442848461081934,
                    0.0016668624326305517,
                    0.0326923021323375,
                    -0.013000666366678644,
                    -0.002470805159492989,
                    -0.00841197154145044,
                    -0.03774052264516527,
                    -0.0491815585424583,
                    -0.07961372767028613,
                    -0.08842380852237523,
                    -0.09308775442415447,
                    -0.07811820807535724,
                    -0.05481471504482119,
                    -0.033951100901699417,
                    -0.034718527308221249,
                    0.009206709106330478,
                    0.010569010596178959,
                    -0.023229403277305807,
                    -0.04397115863408485,
                    0.007171072587179778,
                    0.021670621916164567,
                    0.017068997663826085,
                    0.012650923536239445,
                    0.04080435309030092,
                    0.03564211261544175,
                    -0.00393559768571238,
                    -0.04861497077646957,
                    -0.02131875911116729,
                    0.0023894093203967374,
                    0.051498117598027529,
                    0.08229471861211674,
                    0.09034297845702459,
                    0.05972233027687482,
                    0.019240630734173308,
                    -0.01834028030178156,
                    -0.00009111471767243425,
                    -0.04655510500649412,
                    -0.07424501619396562,
                    -0.07035160596644198,
                    -0.08989673153122335,
                    -0.053725428799761967,
                    -0.01512935389541315,
                    0.0037277917379134894,
                    0.0013777551882459829,
                    -0.008993504731387414,
                    -0.031641541687113378,
                    -0.0518513292652989,
                    -0.06252734453161735,
                    -0.025406833385443155,
                    0.01156460703683567,
                    0.04065343405860106,
                    0.04603521072098333,
                    -0.050009817238719698,
                    -0.0377717191494733,
                    -0.043956385806699509,
                    -0.01734444005539548,
                    -0.011783577382223937,
                    -0.007423222694331404,
                    0.06964352644723251,
                    0.06827292839608267,
                    0.08915338610138798,
                    0.09582891616785533,
                    0.058776012587068129,
                    0.005162167330272422,
                    0.002392619187901,
                    -0.0031614831861717805,
                    -0.06912405553013516,
                    -0.07113261186330441,
                    -0.03066676052699316,
                    -0.03918560034769249,
                    -0.014766857314701543,
                    -0.004470531558062731,
                    -0.01034586434899789,
                    -0.0007506102701841681,
                    -0.027402357354331675,
                    -0.05178720980486935,
                    -0.051554386677214108,
                    -0.047350763699172019,
                    0.022865242042497997,
                    -0.0053381100219734869,
                    -0.10198149381775179,
                    -0.07045974865092453,
                    -0.03771158672721619,
                    -0.06403596721826532,
                    -0.013959517702191622,
                    0.02092641321600058,
                    0.05169520321086359,
                    0.07007391390686015,
                    0.022954736666630724,
                    0.04986686870190206,
                    0.03468549756834592,
                    0.061521645705086617,
                    0.060516335442919819,
                    0.04941524193547112,
                    -0.015585880820507095,
                    -0.04409707165914529,
                    -0.03142572817395791,
                    -0.03050595222583399,
                    -0.016871285893662346,
                    -0.020069338313473886,
                    -0.0034583740325487128,
                    -0.012415737476037924,
                    -0.04417929017511455,
                    -0.05441513206448588,
                    -0.06636591433789595,
                    -0.061212313535024428,
                    -0.0167995625207777,
                    -0.03789442835880961,
                    -0.08810696773831237,
                    -0.07032464460185052,
                    -0.04040339511701643,
                    -0.02599478361123779,
                    -0.0022022683362281859,
                    0.004924566802679042,
                    0.04079315494848048,
                    0.03930335277554098,
                    0.0593667428352216,
                    0.05445515259630261,
                    0.030329049684928959,
                    0.055043855419133477,
                    0.03571134637629864,
                    0.017524588110227919,
                    -0.0017787960208539454,
                    -0.023237648267928337,
                    -0.038324610003605239,
                    -0.03240846928664417,
                    -0.03541945992644071,
                    -0.011003719258280108,
                    0.00039661066820969844,
                    -0.013514866573480614,
                    -0.05273442472858285,
                    -0.04678453901615981,
                    -0.06963814029840593,
                    -0.05865622247906414,
                    -0.048232387736710218,
                    -0.06352072133058863,
                    -0.05357502675162877,
                    -0.0975243024887423,
                    -0.07932979077048538,
                    -0.04506188296299482,
                    -0.02498298572748206,
                    0.014266463460789596,
                    0.017555487698096916,
                    0.039075349408497318,
                    0.014729105075489177,
                    0.05996516857344435,
                    0.03654006186794048,
                    0.0447557268697313,
                    0.022906299664499104,
                    0.03155881214254621,
                    -0.03693063575909577,
                    -0.030709796271055548,
                    -0.01772145937869527,
                    -0.03605793772914828,
                    -0.009994417094263434,
                    -0.007433132609489422,
                    -0.0025899216955679218,
                    -0.009244687482081699,
                    -0.02511706023514408,
                    -0.039639845537492588,
                    -0.05699110787805957,
                    -0.004284249893686014,
                    0.009576602168867228,
                    -0.0065810720588878649,
                    0.03224899746577551,
                    -0.07138980707658624,
                    -0.050897069154867909,
                    0.00723445376314727,
                    0.03718485187699609,
                    0.055376290749561369,
                    -0.014390323332258691,
                    0.045462567814365469,
                    0.06687402203481047,
                    0.03898020496051412,
                    0.020688279923839368,
                    0.04159480501635159,
                    0.01621225762446079,
                    0.027644261567069979,
                    0.0022163395634291406,
                    -0.04522459116624246,
                    -0.043983950128313,
                    -0.029931281328256209,
                    -0.0171221075489252,
                    -0.008597415519073204,
                    -0.0027732068004367026,
                    -0.004843939556054213,
                    -0.021123693315323004,
                    -0.038590062052786488,
                    -0.006480188115628856,
                    -0.012298093088481829,
                    -0.0236337588701631,
                    -0.03721287873809943,
                    -0.039554001672035387,
                    -0.0623713030678032,
                    -0.05485073611527959,
                    -0.0037226230582628088,
                    -0.006173356730223873,
                    0.01053721220265876,
                    0.007303512696068307,
                    0.055128046217654418,
                    0.04935846032440606,
                    0.08309940479381677,
                    0.0896027165626922,
                    0.06200124480365338,
                    0.028069659327382966,
                    0.021636272424110517,
                    -0.015849736719896869,
                    -0.019497156169847129,
                    -0.024729653575917083,
                    -0.006576681883119768,
                    -0.005456479645617445,
                    -0.010255727040863494,
                    0.0022558059156641194,
                    -0.005458283581219417,
                    0.005351088966073162,
                    -0.0020665518519508696,
                    -0.028723735552308027,
                    -0.024636480621492108,
                    -0.03214375521443736,
                    -0.03598266900347159,
                    0.0022915951917690704,
                    -0.01415029519811789,
                    -0.013923018238628474,
                    -0.010577721369620486,
                    -0.042399878485861967,
                    -0.004516687616357809,
                    -0.011536895486613902,
                    0.03702262198969313,
                    0.03319213473299452,
                    0.06970111522344474,
                    0.061090729850469729,
                    0.04471823208059699,
                    0.01090546612749605,
                    0.0006043059286472675,
                    0.0032651070596338615,
                    -0.010969869185207499,
                    -0.014585640804485469,
                    -0.007378852422802629,
                    -0.002418610823442906,
                    -0.00230599005764355,
                    0.004431219844995438,
                    0.0026430769450027935,
                    -0.003604943242714076,
                    -0.005164274744654185,
                    -0.019821530923201343,
                    -0.020330200584948934,
                    -0.013693392028490832,
                    -0.009412030601904698,
                    0.018407489490045168,
                    0.012246104405011515,
                    0.005209429822220269,
                    -0.03436986283336311,
                    -0.08465095524644884,
                    -0.04597899669912149,
                    -0.010427109581832272,
                    -0.036865478170099667,
                    0.022539378812223233,
                    0.026749645480047294,
                    0.03025316335311751,
                    -0.010881487332303312,
                    0.0051850118048684429,
                    -0.01629068300594681,
                    -0.03490369590395437,
                    -0.01246673572701234,
                    -0.004693258251593571,
                    -0.004890063299372936,
                    0.0017381995517121326,
                    -0.0017346342994874925,
                    0.0008614052021806046,
                    0.001861398306856505,
                    -0.008700239650962443,
                    0.0013144273560793863,
                    -0.005935210556672015,
                    -0.021830374903323,
                    -0.01289396791585351,
                    -0.007972651700345403,
                    0.030055625600279836,
                    0.008430880972553797,
                    -0.037980366921933957,
                    -0.02189936043921721,
                    -0.016009854556054256,
                    -0.06179351262926812,
                    -0.04743209872434148,
                    -0.027953188656756075,
                    -0.01717152909379955,
                    0.012429774643113472,
                    0.0007739710828277571,
                    -0.005243265445399973,
                    -0.004297149781078948,
                    -0.00720609082405721,
                    -0.022908914946088496,
                    -0.0012586962217012658,
                    -0.005494237557533446,
                    0.0023580639124003556,
                    -0.0014851408610395642,
                    0.0005548100711532005,
                    0.0003279229281294423,
                    0.0012272742640718402,
                    -0.0005133037375131127,
                    -0.0012946875008931795,
                    -0.0003675894171714133,
                    -0.007040957613222794,
                    0.012481703583009744,
                    0.013590008747564341,
                    -0.003653301785991442,
                    -0.005796616190255885,
                    -0.007065023608013014,
                    0.0016057482225423994,
                    -0.0003259461575465668,
                    -0.028996214546639099,
                    -0.03636057127486381,
                    -0.040415827620684758,
                    -0.022125507417834257,
                    -0.008683198649365795,
                    -0.0013347640085965315,
                    0.0010053736190181096,
                    -0.003837402648957759,
                    0.0013139376633948333,
                    -0.0032116895472268189,
                    -0.0038615535942724086,
                    -0.0009396042749578813,
                    -0.001663323709639296,
                    0.0006928961513657265,
                    -0.0020193078179863105,
                    0.0034396475033070907,
                    -0.001567779078288036,
                    0.0010343673910015853,
                    0.0033435495665666088,
                    -0.00552925276903816,
