{
    "layerSizes": [
        784,
        64,
        64,
        4
    ],
    "layers": [
        {
            "_numNodeIn": 784,
            "_numNodeOut": 64,
            "ActivationIndex": 3,
            "weights": {
                "_height": 64,
                "_width": 784,
                "_values": [
                    0.0003173175538476265,
                    -0.002759109714601351,
                    -0.0013592247790177289,
                    -0.001139600248538414,
                    0.00360722644223925,
                    0.0006375419866359451,
                    0.00046405928879279557,
                    0.0013151088905702996,
                    -0.002748655095229896,
                    0.00236753640224722,
                    0.014938579463173294,
                    0.01474724596750066,
                    0.007722343146634209,
                    0.01639540309916986,
                    0.01142583423441491,
                    0.003187309747217628,
                    0.0008516180649262872,
                    -0.00197021205284511,
                    -0.014165641014042569,
                    -0.003703107637630208,
                    -0.001196901160827178,
                    0.008507396448169707,
                    0.012768514301105495,
                    0.01432694158704615,
                    0.012341064931026897,
                    -0.002489735764667367,
                    -0.002843799870124488,
                    -0.0023232893458459285,
                    0.000769451531729408,
                    -0.0012678794119522742,
                    0.002146006993105388,
                    -0.0006492054545135237,
                    -0.00006336270914406307,
                    -0.0006363048290732137,
                    -0.0012018875330338714,
                    -0.0017490189618180384,
                    -0.006708520942126442,
                    0.013305898642483575,
                    0.039572736391649678,
                    0.022273204950761087,
                    0.02149535986641515,
                    0.008216669477279707,
                    0.017708467669151959,
                    0.024857489039711777,
                    0.025627323820562547,
                    0.009540860392303619,
                    0.030130117632505509,
                    0.013153516159093944,
                    0.014525509934827276,
                    -0.01599779599388445,
                    0.011091712385824326,
                    0.008350342122032319,
                    0.011951605693578683,
                    0.0014635112928842113,
                    -0.00006002419811449919,
                    -0.00006306704882390271,
                    0.0018033758044455773,
                    -0.0008221327311765672,
                    -0.0059679828511520608,
                    0.00035776885018847264,
                    -0.0006529161799862807,
                    0.002079010558759001,
                    0.0000740642543275747,
                    0.001695740505798934,
                    0.011785149116956179,
                    0.03248026061927095,
                    0.015560265681491282,
                    0.011751073427840028,
                    -0.006070488388978706,
                    -0.004949053593789253,
                    -0.013203871982873339,
                    0.02685646602910597,
                    0.0004769811178429649,
                    0.0073417756541877868,
                    0.01984581331506642,
                    0.017392617222996424,
                    0.032674157827985886,
                    -0.0031919433184359974,
                    0.0004870006292046012,
                    -0.016928017633972903,
                    -0.00407429597566244,
                    0.017660919318214849,
                    -0.002391489296562835,
                    0.0022175079350854455,
                    0.0005454985668462078,
                    0.003198123726756708,
                    0.0037001470787151925,
                    -0.0014821400754482754,
                    -0.00035191678108758564,
                    0.0032450214572914586,
                    0.009992368127748952,
                    0.008959421628323686,
                    0.022422062934726245,
                    0.016610285426931594,
                    -0.01322719997225714,
                    -0.022807753266722614,
                    0.007407332353346024,
                    0.004214498876577282,
                    -0.0013470495254187298,
                    -0.05851891781990082,
                    -0.027433195573279634,
                    0.003656167115403663,
                    -0.02788203839194315,
                    -0.009897053161160536,
                    0.01491642690756255,
                    0.049030382515668189,
                    -0.0032014938122018326,
                    -0.022010370467393057,
                    -0.009657993195782347,
                    0.0024398743368416215,
                    0.016631776827550669,
                    0.006554741488239945,
                    0.002330997918824725,
                    -0.002377819230685954,
                    0.0017414879993457333,
                    0.005076268284454593,
                    0.00317485961830959,
                    -0.007553895179223275,
                    -0.0031644010072874116,
                    0.007833039502777785,
                    0.006964389050489135,
                    -0.014465162657970656,
                    -0.037352274927849097,
                    -0.01940452608735442,
                    -0.03662056596711532,
                    -0.042059527949725939,
                    -0.049568705778046808,
                    -0.054911098557351229,
                    -0.012235406492986512,
                    -0.02369131962665204,
                    -0.027757695069196034,
                    0.005657646592109719,
                    0.03203361055380337,
                    0.06765288594069524,
                    0.08085475478267014,
                    0.023351881586210784,
                    0.019271485803229864,
                    -0.006319682474408667,
                    0.003023324878493379,
                    -0.0008223975931482693,
                    0.0009903344580059668,
                    0.01092866843020877,
                    0.012008838144634486,
                    -0.0013457130779051144,
                    -0.001673598645857267,
                    -0.011255987708924824,
                    0.0029866640863209505,
                    -0.04440200602348409,
                    -0.05768117025558188,
                    -0.06670694304683365,
                    -0.06560989474192448,
                    -0.07712336437325068,
                    -0.09274940738542666,
                    -0.04423921855149573,
                    -0.008730558338131575,
                    0.0049004974365559768,
                    -0.05165029566225967,
                    -0.03647422274602021,
                    -0.043526265430718299,
                    0.009127213313544684,
                    -0.0001193523051749363,
                    -0.00009255190142778054,
                    0.08052417588689859,
                    0.031128654172745717,
                    0.022438679317164757,
                    -0.004377694632531025,
                    0.011557361280755033,
                    0.004182782064831838,
                    0.009474708492634668,
                    0.01703006496215094,
                    0.0022707974604115365,
                    -0.020584937077346298,
                    -0.0158447388916468,
                    -0.04267310234729933,
                    -0.047538695196554469,
                    -0.049905674447684258,
                    -0.004771195757415321,
                    0.006432208297819746,
                    0.039452186384316269,
                    0.006432762818180541,
                    -0.020161252542005755,
                    -0.054467858155318727,
                    0.009474722731546374,
                    0.016839109991339766,
                    -0.0018720897605812089,
                    -0.05061886262495075,
                    -0.030707414436146785,
                    -0.04196085370707642,
                    -0.06967763303880088,
                    -0.01710571858990028,
                    0.03514240058274399,
                    0.06521096920091388,
                    -0.011556658090055152,
                    -0.01008952022458217,
                    0.011900924147931381,
                    0.010357874999073406,
                    0.007718046457170869,
                    0.0019361534032372758,
                    -0.005678150278778538,
                    -0.025938028132205156,
                    -0.05013117343100817,
                    -0.04580890810476605,
                    -0.027467978556260397,
                    0.05240015957201242,
                    0.029355703563754274,
                    0.01806400694369927,
                    0.0077346638789037428,
                    0.07639055721989577,
                    0.07493405178998186,
                    0.08239621576093002,
                    -0.004814415196641764,
                    -0.05738609255154521,
                    -0.03833357940562312,
                    0.01768901845327644,
                    0.0014324435760319705,
                    -0.014391497915132898,
                    -0.003487652781463051,
                    -0.089418373739659,
                    -0.02880245089844427,
                    0.09455605249913928,
                    0.03618853541596803,
                    -0.03421810744671554,
                    0.013196997491294714,
                    0.02718067015170505,
                    0.010385607576766234,
                    -0.005200220253142369,
                    -0.01955701800937387,
                    -0.04511154518998603,
                    -0.05975550565715724,
                    -0.028814834288362864,
                    0.039050007217330099,
                    0.06841166492112642,
                    0.04304536107425858,
                    -0.05908982208376515,
                    0.025770243886709899,
                    0.06373462520899279,
                    0.03960468595147433,
                    0.0485659104805525,
                    0.011553077996034502,
                    -0.08395707400494836,
                    -0.11337718410001803,
                    -0.10564223389866506,
                    -0.059010903017687067,
                    0.012342756486343223,
                    0.04217582046150095,
                    -0.04884664501759829,
                    -0.06800561619827955,
                    -0.019678810311668225,
                    0.060536017463872739,
                    0.0002219225908044932,
                    0.01572118768558557,
                    0.019651554201233175,
                    0.00482548436370163,
                    -0.021502979776741497,
                    -0.05674144507496916,
                    -0.0520956297069138,
                    -0.04256510361718561,
                    0.08235669535265045,
                    0.08916919279415768,
                    0.03593002554027825,
                    -0.007144600525514631,
                    -0.06814041784440504,
                    0.09747380114832925,
                    0.022597767336217667,
                    0.0012457272148330896,
                    -0.00883682501690303,
                    0.011266464646664768,
                    0.054315982362701718,
                    -0.030155542089910303,
                    -0.05674949790391804,
                    -0.1055384497342025,
                    -0.1184872910888701,
                    -0.03324839035263649,
                    0.020807764804604294,
                    0.020937553145365736,
                    -0.053208460572011579,
                    0.03782613548154902,
                    0.03386859896345854,
                    0.011445637348857263,
                    0.0408391615648647,
                    -0.000703993517461038,
                    -0.04318556715336346,
                    -0.03967481613099281,
                    -0.024241525874824,
                    0.05449733917686289,
                    0.11441620902288707,
                    0.019325474478142265,
                    0.012504698065364979,
                    -0.1648375040265144,
                    -0.0645460741622482,
                    0.025539803514437459,
                    -0.02992732536007269,
                    -0.08589890116823358,
                    0.021687837121629313,
                    0.009341126488297635,
                    0.05011205265986814,
                    0.019110461792684269,
                    -0.08830497109345666,
                    -0.05008406207964582,
                    -0.024238089924833059,
                    -0.03004938933451192,
                    -0.05882145272035651,
                    0.025895577411214525,
                    0.037212713167083539,
                    -0.057969374210029008,
                    -0.015749797714950339,
                    0.0008776973015574706,
                    0.01910474368782821,
                    -0.009849952687699213,
                    -0.04008179473898374,
                    -0.0064328892097326229,
                    0.03611314415684098,
                    0.06904791288216958,
                    0.06984149632812642,
                    -0.10919955630809159,
                    -0.08058871179689585,
                    -0.07301375012924844,
                    0.06294226201880908,
                    -0.04678108708292585,
                    -0.04923448153721082,
                    -0.050624146188265019,
                    -0.010113815293796727,
                    0.019571232045399894,
                    -0.00423023248605048,
                    0.04938887689671271,
                    -0.0020943825399203114,
                    -0.0585618890676494,
                    0.00619009016635928,
                    -0.014614783228843555,
                    -0.09008142468505956,
                    -0.005609705166995187,
                    0.026616707948644379,
                    -0.0366292215710235,
                    -0.06356518896798623,
                    -0.030812235340945419,
                    0.01876386731287781,
                    0.005929219371916931,
                    -0.02188760207129692,
                    -0.015501378113357915,
                    0.010145255905922435,
                    0.08868130826608813,
                    -0.06715614825195014,
                    -0.07303079886056652,
                    -0.043496030643514049,
                    -0.001067005859433601,
                    0.012439453342618862,
                    -0.0022423595906433896,
                    -0.03424721423926081,
                    0.012984831410475656,
                    -0.03296701113139434,
                    -0.017128654738249747,
                    -0.022118253765300828,
                    0.029755608642851557,
                    0.007863757811940556,
                    -0.04615053681502988,
                    -0.06381436378241767,
                    -0.04272390439139972,
                    -0.02597286985255466,
                    -0.0024906404874792595,
                    0.005067596747967583,
                    -0.008152952366431543,
                    -0.019720315532987449,
                    -0.025526283586550646,
                    0.004421831861598887,
                    -0.02207119519544667,
                    -0.04691210735554613,
                    -0.04348970166981885,
                    0.09786086814080387,
                    0.04697119529160054,
                    -0.11730914198910136,
                    -0.055273754746348029,
                    -0.06646044380550453,
                    -0.071638693783872,
                    0.044675242393113847,
                    -0.0075361358450443,
                    0.003566948900221877,
                    -0.02271952422255598,
                    -0.025460120889498069,
                    -0.01920887532656085,
                    0.009659839948793802,
                    0.028533459553479969,
                    0.03792598916459444,
                    -0.06627495873212355,
                    -0.02586080857694989,
                    0.028778614573399573,
                    -0.06787485485746658,
                    -0.03379861406981787,
                    0.025248465910028135,
                    0.0028206746400697244,
                    -0.04387195767127089,
                    -0.040811606763270048,
                    -0.005302055436108596,
                    -0.003992247633165032,
                    -0.01754372377545099,
                    0.02519521636831216,
                    0.10884154579680489,
                    -0.008222145610619745,
                    -0.09474439776027044,
                    -0.07968433112457205,
                    -0.05564960167356665,
                    -0.08324429644761077,
                    0.03960023236375669,
                    0.058314458129690698,
                    0.025154418560966713,
                    -0.08408843455635509,
                    -0.0215934693992023,
                    -0.011872378234565832,
                    -0.07371878587063935,
                    -0.031299484219637647,
                    -0.04107479095346141,
                    -0.07856543403222537,
                    0.03419785237523454,
                    -0.0035621539837765198,
                    -0.0263830345761971,
                    -0.01217414248617625,
                    0.02635572150713801,
                    -0.01388630236574462,
                    0.006937108345450924,
                    -0.004094643129877107,
                    -0.037341018162590059,
                    0.007369724376488959,
                    0.002884812216239015,
                    0.01813231856359167,
                    0.03766962096485499,
                    0.013338898666088947,
                    -0.11476928775235203,
                    -0.09475673684197604,
                    -0.07290932624767484,
                    -0.06314886672907892,
                    0.039750713358257448,
                    0.10166681953244628,
                    0.06841024672740481,
                    -0.0037239234728523985,
                    -0.03926177597347383,
                    -0.029607554373626466,
                    -0.051387993679673279,
                    -0.03048063976157837,
                    -0.04876248297458297,
                    -0.08453300376123478,
                    -0.009361667652375977,
                    0.04148836288749695,
                    -0.033357467569856708,
                    -0.025151498289609988,
                    0.012812759185417119,
                    -0.01111805271409641,
                    -0.0194033329337756,
                    -0.028502667518310707,
                    -0.019021423200644245,
                    0.011296482796852772,
                    0.01110335099977904,
                    0.019653832793915757,
                    0.03799110042617609,
                    -0.007989354808067723,
                    -0.04836419424492058,
                    -0.05646771705567717,
                    -0.08214995067642601,
                    -0.06854913896606826,
                    -0.027819314796242755,
                    0.009239643843948285,
                    0.07292347648785049,
                    0.05807726367187557,
                    -0.03561187708768885,
                    -0.05856749290866227,
                    -0.0019797625085708604,
                    0.016807501209046867,
                    -0.04191006862772766,
                    -0.0682871068199364,
                    -0.05510783381518198,
                    -0.03154361904887551,
                    -0.001104714182244332,
                    0.02951850076201984,
                    -0.0000942753051931542,
                    -0.02124566997303234,
                    -0.08448898143407814,
                    -0.022227847528909204,
                    0.07385224433858419,
                    0.00863740538896332,
                    0.02327389413630372,
                    0.02856366078038938,
                    0.0032512296263138005,
                    0.02532454415507,
                    -0.059282665461981919,
                    -0.072700543422536,
                    -0.05014402762795126,
                    -0.011360751826130222,
                    -0.0899374365882862,
                    -0.00024437048047053114,
                    0.11868950037594732,
                    0.09726021218994868,
                    0.0765178438887662,
                    0.005977963995370065,
                    0.012966830839451356,
                    -0.005390048429166482,
                    -0.038818581875771088,
                    -0.013101442620881372,
                    -0.08191644529898924,
                    -0.008429412883068585,
                    0.0428102373254589,
                    0.095244666766376,
                    0.024547182762234229,
                    -0.05207675486274851,
                    -0.0622948196981121,
                    0.02552729725580356,
                    0.05091858735155088,
                    0.028228316006385733,
                    -0.006793862492088185,
                    0.019629459242116625,
                    0.0345843380473116,
                    -0.014899694831929725,
                    -0.04138230638319346,
                    -0.0428404941635645,
                    -0.027223184679982406,
                    0.072193323092566,
                    -0.04706168500751237,
                    -0.09912343274516568,
                    0.005321141644823797,
                    0.08199708727639313,
                    0.1121681515599384,
                    0.12579446490885294,
                    0.016514174610943106,
                    -0.00787749702823637,
                    0.006226801749931502,
                    -0.04972706956780168,
                    -0.05932390968637848,
                    -0.010155317762570351,
                    0.056343575533612497,
                    0.0676641357887216,
                    -0.03528714116660502,
                    -0.046689901497622438,
                    -0.005727635986375168,
                    0.07776476590614583,
                    0.028295266765917937,
                    0.01666804654112483,
                    0.011480109429353297,
                    0.003280779439096456,
                    0.06052428742337025,
                    0.013604361263349489,
                    -0.0009704027190547577,
                    -0.07095470785864959,
                    -0.06280496163680634,
                    0.054660192193333737,
                    0.030542087575351489,
                    -0.1000882125439103,
                    -0.0015312937336388207,
                    0.013117227957465457,
                    0.07420955279810485,
                    0.06939582649072647,
                    0.05533062025724185,
                    0.05387369385168159,
                    0.021988131567827919,
                    0.04772861816949961,
                    -0.03964817574727176,
                    0.05640812814008183,
                    -0.0013483255263081582,
                    -0.004140284155376127,
                    -0.05848319325228674,
                    -0.038020564993555907,
                    0.03006384881428089,
                    0.04026804496258482,
                    0.0024448915074707889,
                    0.0011225086011886134,
                    0.01907307390131738,
                    0.006455969454837068,
                    0.03532339860016912,
                    0.050361078548949198,
                    0.005371848389564555,
                    -0.038881060403346167,
                    -0.09839847194405531,
                    -0.03370553109052776,
                    0.039771751415208309,
                    0.015713434434628399,
                    0.005198926087284352,
                    -0.011411505706397046,
                    -0.028981222080168697,
                    -0.03720532816107709,
                    0.03297515179169514,
                    0.042637689360526278,
                    0.07091685384269522,
                    0.04479972716856523,
                    0.05386951551500842,
                    0.038106361603607679,
                    -0.011477406502195063,
                    -0.06183569108702168,
                    -0.04867020384245079,
                    0.032428151896874108,
                    0.07421231179070291,
                    0.0030985022130268189,
                    -0.011278509400844656,
                    0.0017331371964529653,
                    0.0022576153314680248,
                    -0.009649586471312201,
                    0.01460125450889775,
                    0.049090259272333788,
                    0.024973875244957545,
                    -0.0035932495477537169,
                    -0.03078323031711997,
                    0.050187291010723718,
                    0.07784185991418057,
                    -0.012531699689679686,
                    -0.07179142448568846,
                    -0.03789382280542209,
                    -0.02028301481208519,
                    -0.0630978482145458,
                    -0.07088666386090074,
                    -0.00460673837374852,
                    0.032871076064956938,
                    0.03877423511270605,
                    -0.03129255433583106,
                    -0.06184899442706107,
                    -0.04330291154455882,
                    -0.008154593350390148,
                    0.005313490460542785,
                    0.07763759502607212,
                    0.04621555633224874,
                    -0.0379356701472855,
                    -0.003962685674455017,
                    0.007835772809303945,
                    0.0017454035246312068,
                    -0.007619453234008437,
                    -0.0025231687129642244,
                    0.0030946335832707507,
                    0.05902988835937582,
                    0.034559526997757838,
                    -0.0013135120674623142,
                    -0.03868651378912906,
                    0.07131432024502263,
                    0.09140307009627026,
                    0.04018759020418643,
                    -0.049637841638010719,
                    -0.03042494136834517,
                    0.011701480265308375,
                    -0.01105426690356404,
                    -0.07888012811061476,
                    -0.07345146045209586,
                    -0.040923914445034,
                    0.0318182132601067,
                    0.015414654185086965,
                    0.02459574100949629,
                    -0.012094302270695945,
                    0.07410518201849263,
                    0.0323705305025288,
                    -0.008597897418604645,
                    -0.005467983221225404,
                    0.00459038215320113,
                    -0.005588532678640412,
                    0.004082085215169704,
                    -0.007483681902779308,
                    -0.014801935429599076,
                    -0.04033131711374754,
                    -0.006449458754510323,
                    0.014027665711892183,
                    0.038720595434196179,
                    0.0065985263942857489,
                    -0.04072081724480183,
                    0.07662513206778328,
                    0.13099009807340668,
                    0.04437041372232131,
                    -0.07304587534159801,
                    -0.05712162813445206,
                    -0.046835656051706846,
                    -0.022384250448989577,
                    -0.010690527612022013,
                    -0.0046993537422400188,
                    -0.005118125183342306,
                    0.005922078221491187,
                    0.02560706513377051,
                    0.015043069274596696,
                    0.015880020537839116,
                    -0.011805679604458759,
                    -0.007706058302335442,
                    0.015621050637758484,
                    0.00819954345293516,
                    -0.0037584607766673178,
                    0.008292692292188159,
                    0.006872981585556399,
                    -0.0009581847994107768,
                    -0.03395395249907596,
                    0.0044456423957633839,
                    0.015029545950456651,
                    0.004222009915708858,
                    0.03465705342197323,
                    -0.021063792699208437,
                    0.008038754205499309,
                    0.01731629136628263,
                    0.05248117235485812,
                    -0.004025709866855157,
                    -0.009021294410536523,
                    -0.029912003516150585,
                    -0.03918588176849613,
                    -0.018092144232069765,
                    -0.00277208578230682,
                    0.016981598743273996,
                    -0.014912941342194786,
                    -0.008801465565426875,
                    0.007867788703362298,
                    0.004688656000868502,
                    -0.014519710420572395,
                    0.003071216295689467,
                    0.0143663538687682,
                    -0.001763238457017076,
                    0.0011668283070852899,
                    0.0016135589521341623,
                    0.009044317394746784,
                    0.0030858153351063404,
                    -0.0036179172689060018,
                    -0.004787510094508984,
                    0.005584919680618872,
                    -0.003640947554722318,
                    -0.014473662197725609,
                    -0.006773298916963947,
                    0.02754520800793138,
                    0.06275899375213029,
                    0.017166732071032626,
                    0.0037826069380723626,
                    -0.004386369089935692,
                    -0.029486595175098875,
                    -0.04265020377402383,
                    0.00448903389564901,
                    0.02702077226222122,
                    -0.02088434262766754,
                    0.010888947982366537,
                    0.011039821745170499,
                    -0.013433698261110813,
                    -0.013745147952343476,
                    -0.008744687422590516,
                    0.023631880574814656,
                    0.018802579606195834,
                    0.00045070224256670943,
                    -0.00015018923119921698,
                    -0.0008705814191074968,
                    0.0035905188932995608,
                    0.00197796118616457,
                    0.001228765829212942,
                    0.004469607746247536,
                    0.007331717149247921,
                    -0.0013909009072612846,
                    -0.008038496911856685,
                    -0.007781884947589851,
                    -0.014637957002959378,
                    0.015733618244178687,
                    0.023119176162175144,
                    0.010112541610115744,
                    0.008317302709398169,
                    0.03371796172219223,
                    0.03275739873591829,
                    -0.003168230198703033,
                    0.001649235303838296,
                    0.013605815260748902,
                    -0.025039887821773668,
                    -0.014381572552504291,
                    -0.024193637895510934,
                    -0.006788735598940087,
                    0.01693681200656335,
                    0.026415664970015797,
                    -0.0005040104197514951,
                    0.000056924109437999664,
                    0.0016537689029028135,
                    0.00694605755388925,
                    -0.0008876567053204745,
                    -0.004461226697944696,
                    0.0020688634759373784,
                    -0.0027134579155556734,
                    -0.0006086802466444462,
                    -0.011538538167166527,
                    -0.009514946034590957,
                    -0.009624167933771957,
                    0.0048093810895961119,
                    -0.0022250081613541148,
                    -0.0049049315895221359,
                    -0.009203345590091393,
                    0.016400410268688108,
                    0.0012791763198783055,
                    0.02312625637948158,
                    0.003971034694230086,
                    0.028181579984290347,
                    -0.006642085788176865,
                    -0.019463639969019388,
                    -0.00812626980541943,
                    0.015882992007294175,
                    0.0374789514858666,
                    0.027968723538985199,
                    0.007260614966079068,
                    -0.0002653978367958766,
                    0.003929395638625374,
                    0.00013539989419879034,
                    -0.0014644919727105472,
                    0.002124453663868567,
                    0.0023318492347794278,
                    0.0010982152298484743,
                    0.01485651102935908,
                    0.016811001373022578,
                    0.010234467073890428,
                    0.006510747504326666,
                    0.022003668221301427,
                    0.035851256633092517,
                    0.024517403988662056,
                    0.024714973279307805,
                    0.022072684651257125,
                    -0.0014393602558254169,
                    -0.004626839957540505,
                    0.0004362248362592529,
                    0.0012872812334449699,
                    0.014729910411287247,
                    0.02567253951553407,
                    0.009243710377282866,
                    0.0013747180864045459,
                    0.009627536282931901,
                    0.010374174294629117,
                    0.009202386466355448,
                    0.0008278221806925282,
                    0.004335058935257557,
                    0.0002617139629732107,
                    -0.0002321735777553438,
                    0.0012370867329443054,
                    0.0007505002440211917,
                    0.0014678855881867463,
                    -0.00028783940572937525,
                    0.010179671259020976,
                    -0.002778690815744412,
                    0.010653025362291086,
                    0.002767649797659556,
                    0.03167127942214336,
                    0.045596728767499757,
                    0.026841004319014637,
                    0.014799699406044795,
                    0.021689147707795513,
                    -0.011223593585997774,
                    -0.030331695083456585,
                    -0.053905662018119,
                    -0.026879974229628974,
                    -0.01716320463726344,
                    0.013877742807201773,
                    0.022686518936099736,
                    -0.0038266020725674155,
                    0.0063956782961066449,
                    0.0045234574367476018,
                    0.011579029673879135,
                    0.002201896129772968,
                    0.00039576680810259795,
                    0.001352530147119615,
                    -0.0010668731887236289,
                    0.0006013359170278971,
                    -0.0020639084755422478,
                    -0.003411530606298573,
                    0.00811798908083603,
                    -0.008883822731720753,
                    -0.00005157551063215125,
                    0.014549252509746508,
                    0.03792266485513247,
                    0.05703211335324039,
                    0.021757288665546705,
                    0.038191293607788178,
                    0.05962741365945872,
                    -0.0006018251205536741,
                    -0.016448363015163188,
                    -0.029973536917826887,
                    -0.025281442811758024,
                    -0.04450389206447971,
                    -0.03936996111807748,
                    -0.02547023783446403,
                    0.020459905971310437,
                    0.008111014683633476,
                    0.0012484105483328444,
                    0.0008032549790860541,
                    0.0044560015948813609,
                    0.008120318089757198,
                    0.0015712501000712865,
                    0.007801535416112711,
                    0.002082461602190619,
                    -0.002572103119013582,
                    -0.0010852825879765266,
                    -0.013932097010247283,
                    0.0014271768480284419,
                    -0.009850980176219673,
                    -0.0056800401617748039,
                    0.04980966853088399,
                    0.07250380991526236,
                    0.06523741717364043,
                    0.07046004198409019,
                    0.016524288228463584,
                    0.026760750197377338,
                    0.04610411908062482,
                    0.03907533631765182,
                    0.002658604246883586,
                    0.008849648042610504,
                    -0.020805181993522518,
                    -0.057902496630086699,
                    -0.023979431157388405,
                    0.002027355688569415,
                    0.010396019236804605,
                    -0.0040320022101501319,
                    -0.0017781765961573454,
                    -0.0018114909900491096,
                    0.00858716113788293,
                    0.008001897714313,
                    -0.003656839623552581,
                    -0.002794870191876922,
                    -0.0011402763119010924,
                    -0.0014152115439259399,
                    -0.014333047078034992,
                    0.011774261603832336,
                    0.03782707244041055,
                    0.05044545581919334,
                    0.08068969872142647,
                    0.048059802547454389,
                    0.04118231035425814,
                    -0.0000022360369394911765,
                    0.007094204711616595,
                    0.019136587158147368,
                    0.026837022225593415,
                    0.043028902656224447,
                    0.05825478541201007,
                    0.012756559019039021,
                    0.028035327256428084,
                    -0.0004685482522488146,
                    -0.0495131415104943,
                    -0.03940630789875594,
                    0.014777353805880399,
                    0.002521050458249393,
                    -0.00393137522538229,
                    -0.003203071064118138,
                    0.001031383690771487,
                    0.008919240259978199,
                    -0.00044564900307751605,
                    0.004801490000247026,
                    0.0059346445922200939,
                    -0.003701739726446907,
                    0.00008475740964581041,
                    0.02474172140725207,
                    0.04425287195606402,
                    0.056203239946600858,
                    0.04343979739947465,
                    0.019190721965621946,
                    -0.0643146664144519,
                    -0.04223647750089563,
                    -0.006997568843437343,
                    -0.07006813282356747,
                    -0.035538786041513999,
                    -0.03380217286307487,
                    0.0322167480316453,
                    0.07199420928760761,
                    0.10609730758850145,
                    0.012438540836001839,
                    -0.049465530993786737,
                    -0.05307045814373546,
                    -0.010087099826479176,
                    -0.000051270611227470705,
                    -0.008473072662080476,
                    0.001603682466888593,
                    -0.0014155353576644026,
                    0.010140911296425689,
                    -0.0008910596373248296,
                    0.007225413135268885,
                    0.026677620965601495,
                    0.0158336495984622,
                    0.028604823286505607,
                    0.05061734088961527,
                    0.03455427416639827,
                    0.03366560517861538,
                    0.005799966652445525,
                    -0.0475071671595503,
                    -0.06591726744377131,
                    -0.045333991615517547,
                    -0.035007961105731597,
                    -0.06816147569478684,
                    -0.056526495545507638,
                    -0.022268423333462976,
                    0.003165976176624772,
                    -0.06176032978203496,
                    0.02325609146453525,
                    0.08248341557380847,
                    0.021218196867213478,
                    -0.05460723869058307,
                    -0.061273121532654118,
                    0.0026749464734334047,
                    -0.0103247497899427,
                    -0.0007854508142940191,
                    0.0014387187694902486,
                    0.013624204597802944,
                    0.002039205485321254,
                    0.013766444660807519,
                    0.023290181419456807,
                    0.018744104518743668,
                    0.0739860743229165,
                    0.02894323746328068,
                    -0.040628017236243357,
                    -0.028176684650317649,
                    -0.029049460526679957,
                    -0.03280537553019568,
                    -0.03183612769939598,
                    -0.03646344850608625,
                    -0.06745654608569424,
                    -0.07618365482886878,
                    0.021239839737306314,
                    -0.029177895174279868,
                    -0.043028420080817999,
                    -0.050295911970690377,
                    -0.03277646912501642,
                    0.031720269292684597,
                    0.0681576402512864,
                    -0.01804099389738232,
                    -0.0666308931364598,
                    -0.022083731989268435,
                    -0.005348550079588383,
                    -0.012611982364682239,
                    0.0010492533907875003,
                    -0.00248223783997729,
                    0.009764366437847325,
                    0.01783679646080319,
                    0.02940584752920282,
                    0.05207797828727015,
                    0.06436693621070582,
                    0.008799601855110133,
                    -0.03553453005114482,
                    -0.005024306157651666,
                    -0.034384793104769519,
                    -0.07295000569212364,
                    0.005212394282711623,
                    -0.0501159441694504,
                    -0.027992561069574895,
                    -0.004287382733383536,
                    -0.047390822249975057,
                    -0.025408736126299668,
                    -0.03357370095442627,
                    -0.024124327021365779,
                    -0.017805356987499484,
                    -0.0010115822760538502,
                    0.05515197266915499,
                    -0.003809581095856052,
                    -0.06343071285459293,
                    -0.027207909508716656,
                    -0.02805202942825675,
                    -0.015205683179786507,
                    -0.007826537486501358,
                    -0.008480095244934365,
                    -0.0015196519748106527,
                    0.013068213622343972,
                    0.03829956655165588,
                    0.06512351693032258,
                    -0.008173172572821599,
                    -0.037459135487775418,
                    -0.03641911850245979,
                    -0.005707776784968155,
                    -0.06075094843479467,
                    -0.06292463503815522,
                    -0.04255809895544902,
                    -0.01281555693896259,
                    -0.022024702931609773,
                    -0.0382056890672778,
                    -0.0389778281828306,
                    -0.019599084239070708,
                    0.020564327776349476,
                    -0.055984402645396249,
                    -0.02281030819411134,
                    0.012629228846430576,
                    0.018290043764271396,
                    0.020284290707007828,
                    -0.020210080747149696,
                    -0.05385174370364187,
                    -0.04532483820841082,
                    -0.009910039020842129,
                    -0.011906336435562123,
                    0.0033909155149113776,
                    0.0009964517578922464,
                    0.03072534635332152,
                    0.04225855304014134,
                    0.041392788410695668,
                    -0.034092572097533458,
                    -0.059553091401560388,
                    -0.03346685294964231,
                    -0.05873703630222345,
                    -0.014646052886588773,
                    0.003997150814481093,
                    -0.012113453756268322,
                    0.014418877655344432,
                    -0.04802098578511361,
                    -0.006539581569991915,
                    0.034163194474647048,
                    -0.0385010906339842,
                    -0.05789418200296752,
                    -0.006714158647558881,
                    -0.004097107772000522,
                    -0.022300733749330696,
                    -0.04419583537483277,
                    -0.000107378206241259,
                    0.04267263913396623,
                    -0.08659819641967075,
                    -0.05303796749326623,
                    -0.023485406040694699,
                    -0.008345181635527131,
                    0.0034357352327690855,
                    0.0033948534845597859,
                    0.038872127506672498,
                    0.025704601665967595,
                    -0.0008084496039508692,
                    -0.012983677263146586,
                    -0.01853815485924939,
                    -0.045643387710888837,
                    -0.04331835931920222,
                    0.07421923786958934,
                    -0.023729808639783895,
                    -0.0229769924746528,
                    -0.010918435205108376,
                    -0.06173980667780113,
                    -0.061185736813295078,
                    -0.05200916037624851,
                    -0.031981577398632939,
                    -0.014180832943446499,
                    -0.008743177834709912,
                    -0.03698544048202729,
                    0.018010867550307419,
                    -0.020359539384606604,
                    0.0668206152400696,
                    0.05019970811724202,
                    -0.12357306120964305,
                    -0.037964255753352018,
                    -0.02711059619624932,
                    -0.017150748463860115,
                    -0.005226895200600367,
                    0.0017997697168681965,
                    0.015786249561754209,
                    0.005354433647352898,
                    -0.02367094937282346,
                    -0.0017321446063792083,
                    -0.0204713295093025,
                    -0.08357296550146522,
                    -0.005989933643199919,
                    0.06054439605763979,
                    -0.01578665390532942,
                    -0.002591802426830552,
                    -0.025906214048541818,
                    -0.021652482605369298,
                    -0.026222948657132578,
                    -0.0437825469888334,
                    -0.05355119523609594,
                    -0.053964877336327748,
                    0.024627541192140627,
                    0.019547769148231945,
                    -0.009435717561933,
                    0.0341550605566475,
                    0.03719096916278278,
                    -0.054918191551480328,
                    -0.06268359229841343,
                    -0.01593279258392781,
                    -0.034427774388737449,
                    -0.017188534632742185,
                    -0.003513147955326795,
                    0.0037643184579683826,
                    0.03213987877649113,
                    -0.005715734709066468,
                    -0.009342894997553787,
                    -0.03287435035935508,
                    -0.052290222937415229,
                    -0.03459075152700066,
                    0.06259336166341403,
                    -0.009699919540788712,
                    0.025406494927406065,
                    0.07693260852321789,
                    -0.021703836982456958,
                    -0.07093691833784194,
                    -0.0876856196397628,
                    -0.02803911766978214,
                    -0.039408500644924158,
                    -0.0166428481241012,
                    -0.02709672531351013,
                    0.03835339885583411,
                    0.04898696088974062,
                    0.15515626981107734,
                    0.07351909094443443,
                    -0.1061765496976561,
                    -0.047183218777312737,
                    0.020999697482264668,
                    -0.029114045607970749,
                    -0.026642022458175077,
                    0.001424420246325048,
                    0.005756742013755126,
                    0.0263809445291327,
                    0.011328116350594584,
                    -0.0031082959264024459,
                    -0.03921088481214647,
                    -0.09404316935337022,
                    0.029803003595621718,
                    0.06471348188020326,
                    -0.01986464722441565,
                    0.02711093368920621,
                    0.06585570527718163,
                    0.024545271628058614,
                    -0.08397223569315243,
                    -0.06353096864003376,
                    -0.01496309489209009,
                    -0.019718450683218443,
                    0.04373403546074345,
                    0.06391163520281705,
                    -0.018201960961319664,
                    0.012835542523487386,
                    0.15580096000274974,
                    -0.08191392347160935,
                    -0.05642172887370882,
                    0.007412828738651932,
                    0.004166779599837559,
                    -0.0033882378392037697,
                    -0.009751247377987035,
                    -0.005928148113444035,
                    -0.003120663166612662,
                    -0.004184693374353806,
                    0.015586678830815732,
                    -0.005645253473293623,
                    -0.037952738163705829,
                    -0.09197715153013742,
                    0.07536471242864686,
                    -0.04688770618856637,
                    -0.020727839947012457,
                    0.04153905888067272,
                    0.002089198163685941,
                    -0.01018602404661965,
                    -0.09716193734388788,
                    -0.0359748069909433,
                    0.06074475082863425,
                    0.013657742568359223,
                    0.026962208209876778,
                    0.057193005023060568,
                    -0.014159952257298207,
                    0.10210623643784597,
                    0.11257199602915294,
                    -0.13726174225111524,
                    -0.10032186382508116,
                    -0.007980077134157616,
                    0.029207614284399928,
                    0.019489398899204096,
                    0.001261976725449523,
                    0.0035271526323005575,
                    -0.006795282982393439,
                    -0.005391187930025518,
                    0.016977791124766246,
                    0.00412125014882382,
                    -0.067089407567067,
                    -0.030970471314764146,
                    0.039192113067083467,
                    0.022452698262205339,
                    0.022537554265842715,
                    -0.07272614656846906,
                    -0.0452812615241892,
                    -0.01352280305322618,
                    -0.03365519256782904,
                    0.043814943996785479,
                    0.03841648092855151,
                    0.04530648882581262,
                    0.022831783269035557,
                    -0.05782157001811399,
                    0.04693845137368553,
                    0.09434661674585164,
                    0.04007039515475892,
                    -0.12930936266695709,
                    -0.04700556387215634,
                    0.002465746545575386,
                    0.008715840453137627,
                    0.022952586816412224,
                    0.004662286171118864,
                    0.0016195175898422682,
                    -0.007415208892460555,
                    -0.0022354421357155057,
                    -0.006466126654175957,
                    0.0007239416669871839,
                    -0.025311404463707278,
                    -0.03342340147662393,
                    0.08405441852213733,
                    0.016749262823335447,
                    0.0734445221016855,
                    -0.009083448928164295,
                    -0.079500217925988,
                    -0.05394793440806535,
                    0.011750455364483544,
                    0.06884486152362851,
                    -0.017731584711348348,
                    -0.03545691591096421,
                    0.05519238830911545,
                    -0.013239475480623138,
                    0.10783089811773153,
                    0.022694717679067858,
                    -0.09150109480438075,
                    -0.0715541100146581,
                    -0.009383401770564562,
                    0.013733004838848732,
                    0.010279994550025488,
                    0.0035080021497138214,
                    0.01485960445782078,
                    0.012062355948046028,
                    0.005625048426025887,
                    0.006145794254653647,
                    0.004098486067756466,
                    0.013623001516194484,
                    -0.046768653858716809,
                    0.005105950771375041,
                    0.05508116490376967,
                    0.015013992633487074,
                    0.008014381066779882,
                    0.03365108666054938,
                    -0.02047572284223994,
                    -0.05843324314111511,
                    -0.05288914184291919,
                    0.03953103537930722,
                    0.03056501311177026,
                    0.04233650696267767,
                    -0.0407357380009108,
                    0.036183678368441839,
                    0.04502165890165289,
                    -0.03734362808125326,
                    -0.09199609092229207,
                    -0.0575607381551264,
                    -0.00931149982975737,
                    0.018124864090488428,
                    -0.04905122406371336,
                    -0.004019668128775233,
                    0.005593113115074321,
                    0.014222659851788083,
                    0.015156300152401365,
                    -0.016020569716493749,
                    0.0014425072982105843,
                    -0.011329424175441463,
                    -0.019813636150659985,
                    0.01367702488579093,
                    0.0779397560244727,
                    0.10423888435366574,
                    -0.050154884344533297,
                    -0.06953018731940405,
                    0.06625858327646368,
                    0.04229107996518163,
                    0.040628410615335449,
                    0.01134126107504029,
                    -0.006590695866196743,
                    0.015238711616492845,
                    0.03199901955380871,
                    0.046017229292925749,
                    -0.066820417599276,
                    -0.09566948683536908,
                    -0.03238395281328806,
                    -0.0490785138105704,
                    0.010716955191961513,
                    -0.0028062126749824705,
                    0.0008234388459778886,
                    -0.04056261075554249,
                    0.018057380191913914,
                    0.015100916124527447,
                    0.010729258465664096,
                    -0.012392534117847184,
                    -0.00862985495586987,
                    -0.021809917347276204,
                    -0.031921600497379357,
                    -0.04240708351916754,
                    -0.004209917221351115,
                    0.03075164058287297,
                    0.009858412515247875,
                    -0.03521325349551119,
                    0.006625168712933846,
                    -0.0007089709059212982,
                    0.010229558617950281,
                    0.05949390964728671,
                    0.06498055183827197,
                    0.05625140431169213,
                    0.030676223552990959,
                    -0.06375972538100011,
                    -0.1467265433396062,
                    -0.0301658023270942,
                    -0.018205026989541564,
                    -0.03747706766465094,
                    -0.007595934984589558,
                    0.012497281933201148,
                    0.016124389338335846,
                    -0.020254888220869108,
                    0.021640212529301398,
                    0.003920967092041466,
                    0.011964573362935152,
                    -0.0022953674768471,
                    -0.0032703795334494067,
                    -0.025543671756147587,
                    -0.03849224375487292,
                    -0.04678567651169889,
                    0.018147939083202486,
                    0.036287610547928169,
                    0.0455431684670496,
                    0.0036123154683668035,
                    -0.01742293214342209,
                    -0.06325033882210242,
                    -0.020793681174061896,
                    0.01597550939233502,
                    0.01946106441183937,
                    -0.034782003019857708,
                    -0.09308367550982741,
                    -0.11454983106133848,
                    -0.04929697802626186,
                    -0.011722393470284476,
                    -0.02306024817557283,
                    -0.053928015313241348,
                    -0.012126689140756361,
                    0.0039593704145372559,
                    0.015795657531989958,
                    -0.012596833708992946,
                    0.0120240660866471,
                    0.002268315819462725,
                    0.0016240020027150939,
                    -0.006618385913107853,
                    -0.0006457569263490027,
                    -0.005578458432467326,
                    -0.037229277700405728,
                    -0.04504388499868623,
                    -0.017187338365382298,
                    0.015874783033139465,
                    0.040102414552179829,
                    0.002682450207970945,
                    -0.0139800388646793,
                    -0.02293238045417653,
                    0.003620479196172811,
                    -0.04088684517436272,
                    -0.08336015213221144,
                    -0.06405104215962895,
                    -0.07720726295554403,
                    -0.03488943901690048,
                    -0.04791168448055092,
                    0.0036028533948602255,
                    -0.007573942989558539,
                    0.002876325950179794,
                    0.012418160658671561,
                    0.025507725212062669,
                    -0.002117278837744267,
                    0.00253008439704238,
                    0.011967181279065813,
                    0.023161115952011665,
                    -0.0034208102689260485,
                    0.0032081792824521428,
                    -0.0038866123445641649,
                    0.0037725830825354968,
                    -0.013893989196373757,
                    -0.014248464134152879,
                    -0.024542455276966379,
                    0.0635794547192993,
                    0.03204245021281193,
                    0.0391877787009456,
                    -0.0199453353662693,
                    -0.05531634411130205,
                    -0.0653726656527438,
                    -0.07023354504299574,
                    -0.04640217334724082,
                    -0.016350455572423304,
                    -0.07353548823537097,
                    -0.023193718038491654,
                    0.0006096664738230045,
                    -0.011519712286143028,
                    -0.0014006779253988938,
                    -0.0032110811248470168,
                    -0.005288883251637408,
                    0.015023772311208986,
                    -0.004090079865828759,
                    0.008253134509140566,
                    0.03041510184056297,
                    0.02464779727935747,
                    0.0010850673628230669,
                    -0.002521166470009249,
                    0.004071909845009316,
                    -0.0043828592482153048,
                    -0.0006968765962569414,
                    -0.010862903705205337,
                    -0.018163305798221054,
                    -0.011387043916492359,
                    0.028767250223138319,
                    0.05601993111563133,
                    0.06490873064786004,
                    -0.0021828568188949238,
                    -0.057623454961523819,
                    -0.047854612279926277,
                    0.000024551167990061758,
                    0.014936172680592428,
                    0.0004894545835311799,
                    -0.00027479946548272793,
                    -0.00937838573087978,
                    -0.013063888187308786,
                    0.009157522464399108,
                    0.004290461121094339,
                    0.005113289623652007,
                    -0.014479611993529046,
                    -0.011038056731417714,
                    0.011233393612429649,
                    0.029754234872769879,
                    -0.00038367329610116123,
                    -0.00019895937858583894,
                    -0.0023926381244797469,
                    -0.00040023539946873633,
                    -0.0005142441334254231,
                    -0.0021058092354571818,
                    -0.007582152092999038,
                    -0.013971659766421419,
                    -0.011793182702028175,
                    0.02391423368800684,
                    0.047364683893840627,
                    0.045904381151844777,
                    0.06511552697703775,
                    0.06122214902817125,
                    0.06192306807370403,
                    0.012403773588937562,
                    -0.009967052481390524,
                    0.019443032165400204,
                    -0.015709102622799,
                    0.02817879928797533,
                    0.021532590410527354,
                    0.019124206864254538,
                    -0.012040535242438516,
                    0.016395200199140287,
                    0.019063309694098416,
                    0.005148317794931654,
                    0.020444754567403826,
                    0.020005853636227059,
                    -0.005416348684584487,
                    0.0010359188362935115,
                    0.00037654061276605694,
                    -0.003095436428719943,
                    0.00006195167189709354,
                    -0.005083224886828773,
                    0.0028920751512375244,
                    -0.0019966480234679016,
                    -0.02049647183904051,
                    -0.02954746422956114,
                    -0.003962152067811462,
                    0.030277572120370537,
                    0.046446278410541459,
                    0.0565972265789106,
                    0.018026861071962959,
                    0.038086504490298208,
                    0.02051972164838879,
                    -0.0037370250999302137,
                    0.009333180184705298,
                    0.038509979504409267,
                    0.013774456333920694,
                    -0.003910048578989537,
                    -0.008053926165619872,
                    -0.0004975978593720153,
                    0.0031047618268888745,
                    0.008569756991728952,
                    0.013113897262598915,
                    0.0013404726483858573,
                    -0.007460899284795614,
                    -0.000009122564990330023,
                    -0.0022283566157804619,
                    0.0015051084002777032,
                    -0.0011741040066077635,
                    -0.00187055535386991,
                    0.0012133825361491085,
                    0.0045927271493535069,
                    -0.0024940621833864889,
                    -0.002398982760721942,
                    -0.021627824388163003,
                    0.009384659611802498,
                    -0.02010753078460591,
                    0.020843066749232639,
                    0.06343752573079178,
                    0.05146728736504814,
                    0.04433722123065525,
                    0.021009997849567309,
                    0.036390775796219878,
                    0.0016800492707767948,
                    -0.01158395195932633,
                    -0.002164336405148742,
                    0.014867227314638675,
                    0.0045904555989901289,
                    0.008549461540615216,
                    0.007224285650240755,
                    0.0065476350883494388,
                    0.00045863984882490907,
                    -0.004487410659807177,
                    0.000986466084386425,
                    0.0009859936837473619,
                    -0.0014932196820343328,
                    0.00039394960563524437,
                    0.0014928550149681604,
                    0.0068602162344547899,
                    -0.003920608294016445,
                    -0.004661566020518784,
                    -0.007628495812114955,
                    0.0001826071043668206,
                    -0.015990121536834185,
                    -0.02088710965344892,
                    -0.02362316785699861,
                    -0.01961055043639613,
                    -0.018678916603136188,
                    -0.027594176880107216,
                    -0.033785632307877597,
                    -0.037972326530322,
                    -0.03772423331170458,
                    -0.012703447006843146,
                    -0.004185750675229129,
                    0.0010663605099903893,
                    -0.0011268026000713268,
                    0.010742100065276289,
                    -0.00014142548291128668,
                    0.0003086728147335531,
                    0.00007198500146470128,
                    -0.0004740099973785347,
                    -0.00312269083796817,
                    -0.00010498907417664484,
                    -0.0018218694853595276,
                    0.00017703842489544735,
                    0.0016192711304011559,
                    0.000058671675945022815,
                    -0.007060828511757884,
                    -0.014649080157860555,
                    -0.00466914245562998,
                    -0.005325652321891631,
                    -0.014033957626813603,
                    -0.019847838322326458,
                    -0.029834740049402846,
                    -0.01838064582684156,
                    -0.029001869828462227,
                    -0.03869176393211123,
                    -0.04766954434083406,
                    -0.027401609098685246,
                    -0.03618644193870839,
                    -0.019624747082086587,
                    -0.003442320445496767,
                    0.011965880427469742,
                    0.012039691304322188,
                    0.006641706179621941,
                    0.0027414455537803415,
                    0.0008000745992367335,
                    0.0028313111913929728,
                    0.0010628599691291392,
                    -0.00021249151950207835,
                    0.0013934034787439422,
                    -0.000619540948379759,
                    0.0039788840244054609,
                    0.0010321173357837417,
                    -0.012163677503932201,
                    -0.02113006161570533,
                    -0.012579825307587568,
                    -0.01615017958869605,
                    -0.008023794706609909,
                    -0.011821934747683599,
                    -0.022239484773566397,
                    -0.055252532188592617,
                    -0.03805798777375218,
                    -0.036184787811428618,
                    -0.03928860691638141,
                    -0.0636765382507267,
                    -0.06230257441070339,
                    -0.048774742689687847,
                    -0.030384579065764106,
                    -0.008238044314133908,
                    -0.0059908354296369739,
                    -0.0006400405581161837,
                    0.00973437930231696,
                    -0.0050868307997091999,
                    0.0013067784986474612,
                    -0.0002446748726931702,
                    -0.00397628663691222,
                    -0.0037270241256397347,
                    0.000450002937320774,
                    0.0009229019340446761,
                    0.00031860954701738405,
                    -0.008142250254202866,
                    -0.02828186586147689,
                    -0.015103145223560993,
                    -0.0058084749063674798,
                    0.009292233896914139,
                    0.014454557528179303,
                    -0.00830746523540096,
                    -0.043466772510675977,
                    -0.035897274421868668,
                    -0.05436878005350271,
                    -0.05800336209949073,
                    -0.06430712398698639,
                    -0.05152888374461994,
                    -0.04624204107609781,
                    -0.03197791038359298,
                    -0.027068407732507156,
                    -0.010609393532224397,
                    0.010074001601472713,
                    0.010795733405402257,
                    0.0022877833216449394,
                    -0.005320037711055908,
                    -0.0009268554012400377,
                    -0.0028342244619550449,
                    -0.00003476007941451483,
                    0.00003456866620472066,
                    -0.0005766308517143395,
                    -0.0017905376338136627,
                    -0.0022785407753004125,
                    -0.027936870403280656,
                    -0.034609351970783439,
                    -0.009813742253073323,
                    -0.006725434900012496,
                    0.007233298612426592,
                    -0.01990002519382483,
                    -0.05139410878652963,
                    -0.06972250211866492,
                    -0.048093955538561449,
                    -0.041304488787007927,
                    -0.07102667677321933,
                    -0.08946176307923327,
                    -0.0244107500513654,
                    -0.015364201440889748,
                    0.008196896493194359,
                    -0.009341337121306073,
                    -0.0047297929924359,
                    0.032497142834997657,
                    0.036884991978351659,
                    0.0005857150890646269,
                    -0.01622878839767232,
                    -0.007328409657634109,
                    -0.003588452054493584,
                    -0.0007005827228728875,
                    0.005140780345015915,
                    -0.0012653099947681449,
                    -0.0008986394468796245,
                    -0.003081921915182879,
                    -0.01934638912293578,
                    -0.04764409526249507,
                    -0.027191578724298086,
                    -0.009057169798391956,
                    -0.02669540249902773,
                    -0.08744398834619556,
                    -0.09633282302492294,
                    -0.10808264256510632,
                    -0.09662331370827246,
                    -0.04189568341106435,
                    -0.06858709841463064,
                    -0.024152182868932529,
                    0.04522816482488923,
                    0.046105155196242138,
                    0.05678948936498077,
                    0.0691932289770354,
                    0.05316031752310566,
                    0.0699833840073161,
                    0.0679472221436558,
                    0.03524562428607103,
                    0.007570196580368847,
                    -0.0004926070728261799,
                    0.003338225718070537,
                    -0.01016103123320162,
                    -0.007252367058284599,
                    0.00027209296445695623,
                    -0.000676124800337452,
                    -0.011147905426749863,
                    -0.03457530313940927,
                    -0.06110902729895682,
                    -0.02740425965588992,
                    -0.026542568430396413,
                    -0.045456448381678119,
                    -0.07622014085921024,
                    -0.10471201627925137,
                    -0.10012711385434402,
                    -0.10044715901279358,
                    -0.09706224706882116,
                    -0.048318399640006778,
                    -0.0038666295289630015,
                    0.01430199872602392,
                    0.05284527121623573,
                    0.031849166812869079,
                    0.04012617621055587,
                    0.07213965918714055,
                    0.08147805801878309,
                    0.055196604648754577,
                    0.039794322401823099,
                    0.02685491112690612,
                    0.011193000632116672,
                    0.00013750187286147494,
                    -0.002980159663084387,
                    -0.01342391541102241,
                    -0.00014914791119796894,
                    0.000568263775058567,
                    -0.01638265495107285,
                    -0.03514521090706973,
                    -0.03934660726652753,
                    -0.042588547882060377,
                    -0.01381177727212085,
                    -0.03285695598655287,
                    -0.0569394193271262,
                    -0.11354175125690061,
                    -0.1148192945620784,
                    -0.10016805486528376,
                    -0.06478104349704452,
                    -0.06743149076869776,
                    0.00014757947521257974,
                    0.03268244519623056,
                    0.053474839414311237,
                    0.07166125706110675,
                    0.08367490991756006,
                    0.10546802127231017,
                    0.10721205407607194,
                    0.06836074182438473,
                    0.07899576746117849,
                    0.04322751228464614,
                    0.016892734774456555,
                    -0.037298103259160299,
                    -0.012835730983823861,
                    -0.005262721770703486,
                    -0.0018239921779498055,
                    0.011946856924753905,
                    -0.012331552801832593,
                    -0.047087946134422537,
                    -0.035018120272599467,
                    -0.01066568864465917,
                    -0.01232954982183358,
                    -0.035704624676611517,
                    -0.05367015909416089,
                    -0.0604827441420732,
                    -0.0779409522862595,
                    -0.04749194916095184,
                    -0.06213191895116873,
                    -0.06141595824121806,
                    -0.020212521207228535,
                    0.017391169742453036,
                    0.04641229103892555,
                    0.017015391032117197,
                    0.08283893495324694,
                    0.11591668207500922,
                    0.06370138842191103,
                    0.06183749949150715,
                    0.07239492067884322,
                    0.026390693686464137,
                    -0.03298861897485894,
                    -0.03681782917445407,
                    -0.03955263129549631,
                    -0.024538219609944783,
                    -0.002064569511223787,
                    0.0031710548243820055,
                    -0.0028210511645089394,
                    -0.028524186431198637,
                    -0.02932906887836968,
                    0.016377521673084894,
                    0.07051262161809506,
                    0.036173082560071217,
                    -0.007052383674376869,
                    -0.036793839247382009,
                    -0.0714197364834626,
                    -0.0497508302353745,
                    -0.0281316866298844,
                    0.00678453357716653,
                    -0.015204945121473156,
                    0.03286618480948949,
                    0.09039032760025864,
                    0.08935127873801976,
                    0.07795241404369531,
                    0.05729497293594928,
                    0.06124921305924831,
                    0.08267717646301817,
                    0.03456163753087763,
                    -0.00036860031345510965,
                    -0.045823868508574987,
                    -0.06332534937763292,
                    -0.0567764580627257,
                    -0.04311471854246749,
                    0.013422471846585986,
                    -0.023513041134006986,
                    -0.032219728811365689,
                    -0.011683637608766352,
                    0.004012604574302492,
                    0.07489386157302358,
                    0.0673517480623081,
                    -0.00026553529778266475,
                    -0.0034379821032295939,
                    -0.053093516961887268,
                    -0.044867961281481929,
                    -0.01132787633661902,
                    -0.04441231124573859,
                    -0.016364184902237269,
                    0.006388205315731921,
                    0.046606104747017536,
                    0.07808330649039379,
                    0.10267623361528933,
                    0.09326949975482307,
                    0.05844654651443888,
                    0.03013467201500913,
                    0.04188667891055007,
                    0.02949766363531805,
                    0.009290232883672346,
                    -0.04216529738707238,
                    -0.06981447966694415,
                    -0.08522896981372241,
                    -0.05117136835859863,
                    0.005996798710458427,
                    -0.005194290152941612,
                    -0.005951438258845205,
                    0.0016573624643406492,
                    0.07287571763999157,
                    0.04998746674569991,
                    0.06967436308927752,
                    0.030215908156878768,
                    0.033754877723780798,
                    -0.04782422946812379,
                    0.022072739499769193,
                    0.0029207506545887698,
                    -0.015138618850710027,
                    0.01120999932818907,
                    0.023112426145524689,
                    0.06485688226644479,
                    0.052256242743964797,
                    0.05703447367592128,
                    0.04544396433094311,
                    -0.020693370649372233,
                    0.013567870533264904,
                    0.024122893587705239,
                    -0.019296844609134959,
                    -0.03073783359279389,
                    -0.041346682691177197,
                    -0.07641141157865905,
                    -0.0639863785364454,
                    -0.07875130426400677,
                    0.0003329721490163591,
                    0.008469997401456316,
                    0.030307172554943027,
                    0.06729160674296285,
                    0.04348567581694646,
                    0.03507389039942784,
                    0.05702830364325243,
                    0.06218769800373381,
                    0.07757996799071784,
                    0.10913532379630103,
                    0.07865133440995045,
                    -0.007373126779230023,
                    0.023190078269783148,
                    -0.003216425394363603,
                    -0.03253666942177258,
                    0.012368830495934905,
                    -0.021445834100262179,
                    -0.013078052578802253,
                    0.001771417358073186,
                    -0.03548691489465876,
                    -0.05794655616978926,
                    -0.04563363110913045,
                    -0.07659800820418074,
                    -0.041277723469686489,
                    -0.06938796333857111,
                    -0.09503056573493206,
                    -0.052131119341145799,
                    -0.04566224613532588,
                    -0.0027796942698175106,
                    -0.005862866780421791,
                    0.03167145044240205,
                    0.08721775323611685,
                    0.09539006752076579,
                    0.12023672373974152,
                    0.08151931654191645,
                    0.08905808609878224,
                    0.08824619580774167,
                    0.07848967096453527,
                    0.03073618398761362,
                    0.03280032035236795,
                    0.03949094797553769,
                    -0.023739816689595493,
                    -0.05789118277918909,
                    -0.04462454402322937,
                    0.0017746512626149935,
                    -0.018000775011153017,
                    -0.03179421088491713,
                    -0.03925052311133711,
                    -0.06799776106422194,
                    -0.08848519844057291,
                    -0.08562649002052778,
                    -0.0793553523052517,
                    -0.06495567878606558,
                    -0.07257209255654235,
                    -0.07157445081901075,
                    -0.048124054195853648,
                    -0.011758397755613914,
                    -0.02006728305927425,
                    0.05096658782643549,
                    0.1420654418206897,
                    0.13072835425219588,
                    0.052866573370497497,
                    0.06619393701882015,
                    0.03301861530973821,
                    0.060285494841200718,
                    0.10367340512534601,
                    0.06611280173947173,
                    0.09444047335497236,
                    0.010075304508732329,
                    -0.09221744602025885,
                    -0.11783729676703296,
                    -0.032605405731031347,
                    0.018712825614025567,
                    -0.019300042369493558,
                    -0.02822137805773474,
                    -0.01566540464938532,
                    -0.08176109910076812,
                    -0.10532354464123993,
                    -0.08193717498288582,
                    -0.05788262805078824,
                    -0.0828101353252258,
                    -0.07410398999466843,
                    -0.03450951576928059,
                    -0.02085806262979469,
                    -0.0043126957446474969,
                    0.00615196549439874,
                    0.006807477572927194,
                    0.057856945149661127,
                    0.076442256990467,
                    0.049154768454623607,
                    0.08519035282940632,
                    0.03943981231973953,
                    0.05683400400214641,
                    0.06086897080080666,
                    0.04830361535497784,
                    0.02728410541506349,
                    -0.03811329636159817,
                    -0.06400137634131835,
                    -0.07850615736184916,
                    -0.06877258754766243,
                    0.01750487891841191,
                    0.006490186917951881,
                    -0.05230630464361103,
                    -0.045034766146293408,
                    -0.08471684998386302,
                    -0.09767315257839753,
                    -0.10821048123960697,
                    -0.10040019450201605,
                    -0.05785795422357579,
                    -0.05074315228593381,
                    -0.039887996679604759,
                    -0.04859286298504414,
                    -0.005434103632890095,
                    -0.0063760553110624568,
                    0.038822488893787397,
                    0.03699078829751699,
                    0.03320359213841681,
                    0.03120831942886856,
                    0.03359110437788437,
                    0.049925088859192359,
                    0.0946660012302956,
                    0.06231575746758593,
                    -0.016400624574742847,
                    -0.05355519299526506,
                    -0.010853091901469044,
                    0.015241232047133399,
                    0.030694850235211226,
                    -0.03770070621457128,
                    -0.002818039531320878,
                    0.00009513509465884743,
                    -0.04634224799397437,
                    -0.026518524769493038,
                    -0.08914781328070598,
                    -0.1302858962646851,
                    -0.09730499494368299,
                    -0.09243827852139379,
                    -0.07756923535730015,
                    -0.03425662773194509,
                    -0.038080144655125939,
                    -0.03579075281752727,
                    0.0009097801220016135,
                    -0.027857104696290499,
                    -0.053773824873777489,
                    -0.00991623743971872,
                    -0.004901392737178981,
                    0.01894801410324687,
                    0.059600943592444447,
                    0.03635797038333587,
                    0.037041271655512578,
                    -0.008083015631388288,
                    -0.02716095798376584,
                    -0.019407087214778165,
                    -0.01110951725704233,
                    0.08042078708532079,
                    0.09356791489056328,
                    0.07624056165238709,
                    0.04568632793743721,
                    0.02971668242436009,
                    -0.02515481699774186,
                    0.008985767990718093,
                    -0.07327512384150126,
                    -0.09008327197485039,
                    -0.06578351291011756,
                    -0.0811111464604289,
                    -0.07929995057914062,
                    -0.022635629783834579,
                    -0.01734446834123091,
                    -0.023688371399795628,
                    -0.03221450284001902,
                    -0.04316919526981318,
                    -0.07188911146968034,
                    -0.07628372456720041,
                    -0.033459148046832049,
                    -0.012136749721077815,
                    0.02714800568700387,
                    0.01110524599959586,
                    -0.07156394681812879,
                    -0.037227974487647658,
                    -0.037530230238525138,
                    -0.023887283711609056,
                    -0.036879120413244748,
                    0.008595188464328241,
                    0.0719482727325735,
                    0.10545261450421668,
                    0.10132337564234999,
                    0.09583703264676479,
                    0.08540684678350309,
                    0.0181556826839713,
                    0.010694034040458399,
                    -0.005780983276887091,
                    -0.04505539158133613,
                    -0.09463037028995189,
                    -0.051258931347841877,
                    -0.06414646820703,
                    -0.0017743568708331595,
                    -0.0046423526104181,
                    -0.022559261037249896,
                    -0.012217701502844132,
                    -0.03880041737269075,
                    -0.04735351758600423,
                    -0.04349499995735571,
                    -0.05450470846190927,
                    0.010308840689122535,
                    -0.012485985493426878,
                    -0.12037382017470247,
                    -0.09901374469782894,
                    -0.022419161071839268,
                    -0.06451430069382444,
                    0.001338512510696042,
                    0.016367143573408746,
                    0.07507522429694295,
                    0.06595764986388329,
                    0.06341301413271156,
                    0.056642343190640157,
                    0.05041992909729569,
                    0.06753945071954001,
                    0.04518966872888349,
                    0.01580524339133272,
                    -0.022605934817687007,
                    -0.030038187292245029,
                    -0.03411832476470734,
                    -0.06184828673269957,
                    -0.006874240684272429,
                    -0.018241757754198765,
                    -0.0001757470951383402,
                    -0.008622742932556537,
                    -0.027153391298490424,
                    -0.033540497902018278,
                    -0.05247566874355429,
                    -0.05483813579495673,
                    -0.01766560042666532,
                    -0.0518897199993419,
                    -0.0919984121813778,
                    -0.09353267528121262,
                    -0.04877624019397527,
                    -0.06816253612176726,
                    0.01299640734976217,
                    0.008303469940559307,
                    0.0638678307824321,
                    0.0745419782983077,
                    0.06011595816452281,
                    0.057933965869260969,
                    0.030362796473378977,
                    0.11442168610742436,
                    0.049362982470103029,
                    0.01957049382594168,
                    0.00007274848248775646,
                    -0.03467991662215874,
                    -0.040319523095846288,
                    -0.05120440094495707,
                    -0.0406878012384104,
                    -0.010737876418913674,
                    0.0008434153613539028,
                    -0.014606994205471395,
                    -0.04095524215811153,
                    -0.049751844477602408,
                    -0.050580252837877027,
                    -0.020634006017979983,
                    -0.03367370018646978,
                    -0.05029771044624904,
                    -0.07509006011846128,
                    -0.07988772307331621,
                    -0.10028842423216369,
                    -0.04615804811535585,
                    -0.030557080427505966,
                    0.0286884561996344,
                    0.0011293551858460082,
                    0.016287458977903153,
                    0.020017962310273947,
                    0.09238013377711248,
                    0.045301397968424767,
                    0.09984717495602207,
                    0.06970055983926327,
                    0.031446288130304329,
                    -0.025060000932655047,
                    -0.022872507241737624,
                    -0.013937262592683346,
                    -0.04907734246317929,
                    -0.020422536522590373,
                    -0.009793976711935838,
                    -0.0020607430406288827,
                    -0.01320302862506839,
                    -0.022746719663924339,
                    -0.04878044219954057,
                    -0.04882545205215244,
                    -0.0002979231647692652,
                    0.0005769718842678798,
                    -0.03688390988181363,
                    -0.013989495529766427,
                    -0.08293828860396856,
                    -0.04131588115026886,
                    0.02043804225034717,
                    0.02925206132349841,
                    0.03969298676757804,
                    0.023033295770773494,
                    0.052985147721019119,
                    0.09281754476914901,
                    0.07877978017910215,
                    0.07221110472809893,
                    0.0577799212389022,
                    0.043967180253151359,
                    0.04613032712525051,
                    -0.0027792937171618014,
                    -0.05082725620097708,
                    -0.041950203243524979,
                    -0.030867829921799717,
                    -0.013143551159056379,
                    -0.00741272426973959,
                    -0.0015482995287486085,
                    -0.01009658503105458,
                    -0.020491460970906058,
                    -0.04919382105213259,
                    -0.00814428921176816,
                    -0.009891822169498332,
                    -0.02292393020142054,
                    -0.03333641994595378,
                    -0.05736926731585998,
                    -0.06491476856326596,
                    -0.042408328405652739,
                    -0.013242351941747716,
                    0.006714991678270441,
                    -0.003654691373495703,
                    0.0030403344887751256,
                    0.07802394800843193,
                    0.056033067152634678,
                    0.08655516758091898,
                    0.09752845307752263,
                    0.0678606220268761,
                    0.0308888583318247,
                    0.024213995559529967,
                    0.003002054008423675,
                    -0.01976451974111688,
                    -0.030667097609367697,
                    -0.003406800682781678,
                    -0.0021229750081768557,
                    -0.008979638014596366,
                    0.0007132459219863967,
                    -0.004422511407754363,
                    -0.0031204778731489587,
                    -0.005702012431500887,
                    -0.03140659364869653,
                    -0.0311070812464956,
                    -0.03252950236807616,
                    -0.01805189361499656,
                    -0.009733291210871879,
                    -0.02431333110539231,
                    -0.051577000464785398,
                    -0.05139471899798456,
                    -0.044401709963761869,
                    -0.02724428814638057,
                    -0.02357376974453439,
                    0.03536572497198479,
                    0.03149914045314285,
                    0.06969163448949512,
                    0.06679934126744429,
                    0.04833456542970164,
                    0.021054707595671918,
                    0.017005169633788714,
                    0.013206430292265582,
                    -0.008050395507902967,
                    -0.01741174958826298,
                    -0.010787131073871076,
                    -0.003049559489973896,
                    -0.003948670643805769,
                    0.003247988099754626,
                    0.0019184869777334583,
                    -0.011216875610943627,
                    -0.0010046190557742607,
                    -0.02427676534061048,
                    -0.01947213170302943,
                    -0.009979802509615384,
                    -0.011806565026662553,
                    0.012885947925706736,
                    -0.011155952344888632,
                    -0.025543426783373736,
                    -0.048703236458246899,
                    -0.0736160568084635,
                    -0.07014247123623296,
                    -0.032564189404970838,
                    -0.050300281714772607,
                    0.0011221584411372744,
                    0.026493019215779156,
                    0.02074431358379976,
                    -0.012656005840667477,
                    0.01472854486264685,
                    -0.010866809955557656,
                    -0.03198945522053,
                    -0.01113435660495257,
                    -0.0023028737625175757,
                    -0.0014171938612988667,
                    -0.002822254341167288,
                    -0.007670439106031054,
                    -0.0008239727223447998,
                    0.0005087329760966812,
                    -0.010431578332414083,
                    -0.004252284133211728,
                    -0.006828959365450896,
                    -0.028309353147639155,
                    -0.023933515242719088,
                    -0.010574532947983497,
                    0.027505841703298146,
                    0.0010913938496339678,
                    -0.030963648902342424,
                    -0.024399544536424276,
                    -0.03139879638372626,
                    -0.059966832458873128,
                    -0.05722379969100019,
                    -0.04551266464176269,
                    -0.018388315976708745,
                    0.0105132948441477,
                    0.004321973185025849,
                    -0.00673990210368559,
                    0.0008459842099300063,
                    -0.004319723664032734,
                    -0.01685988508398843,
                    0.003182761472885562,
                    -0.0044200759135926618,
                    -0.002092564375452891,
                    -0.0019440403838957449,
                    0.0021739105943583247,
                    -0.002036306970696108,
                    0.0006517108974907101,
                    0.0000766789079741927,
                    -0.001954597432617389,
                    -0.0012081660990094698,
                    -0.014235237098102786,
                    0.005505955863105899,
                    0.009807845416062224,
                    -0.0012181018337912892,
                    -0.007251381884835084,
                    -0.008103793646443775,
                    -0.00908338237711956,
                    -0.0075285489860764018,
                    -0.02686651932834286,
                    -0.045363586584040428,
                    -0.03408402997832385,
                    -0.018381658923771417,
                    0.009236982128601808,
                    -0.004166973405223238,
                    0.00009259319682871934,
                    -0.00027495353085963043,
                    0.002538549133613411,
                    -0.0030296604842845514,
                    -0.0008939880848658764,
                    0.002308254809293853,
                    -0.0003012703622093564,
                    0.002034711050448294,
                    -0.0024625998358003477,
                    0.0009227000330189919,
                    -0.0032743961733446137,
                    0.000683769598169016,
                    0.0041093971327371809,
                    -0.008304379603388096,
                    -0.0010185816781752623,
                    0.01392649207548955,
                    0.020347324677550177,
