{
    "layerSizes": [
        784,
        64,
        64,
        10
    ],
    "layers": [
        {
            "_numNodeIn": 784,
            "_numNodeOut": 64,
            "ActivationIndex": 3,
            "weights": {
                "_height": 64,
                "_width": 784,
                "_values": [
                    -0.0016196960022768486,
                    -0.0012214872039492385,
                    0.0011476424081014556,
                    -0.003087927496296621,
                    -0.004889259431733373,
                    -0.007125592235091165,
                    -0.006814280921889467,
                    -0.011219425913898492,
                    -0.022258166405156305,
                    -0.01814767188373811,
                    -0.028683710861494687,
                    -0.024952757400622646,
                    -0.02735841211580895,
                    -0.01608182100280199,
                    -0.010874066892175924,
                    -0.01597955886573244,
                    -0.01642502717937087,
                    -0.019792487645574738,
                    -0.011117480688272633,
                    -0.013148739382963168,
                    -0.00956417716749679,
                    -0.020543532291554067,
                    -0.016595389063890403,
                    -0.009493727015945634,
                    -0.0014216000044553776,
                    -0.0052950593603139349,
                    -0.0016727502001829037,
                    0.0016246477854729995,
                    0.00039331330354058753,
                    -0.0035485194467165207,
                    0.003628075092242342,
                    -0.005733251460632778,
                    -0.013774842321159605,
                    -0.019761165250191068,
                    -0.01961646971115696,
                    -0.014703399301474886,
                    -0.028982086162438186,
                    -0.0318809713432169,
                    -0.04251745607857756,
                    -0.03402732929639081,
                    -0.02568948340950922,
                    -0.030406015460154157,
                    -0.016812154154447095,
                    -0.013139277672687784,
                    -0.02520856189430529,
                    -0.022772700274366014,
                    -0.01748379239429046,
                    -0.035190476081970307,
                    -0.03780889924950116,
                    -0.04097765695316093,
                    -0.033455405184938159,
                    -0.021914953488428525,
                    -0.021996327530112288,
                    -0.01683461610549597,
                    -0.01192695674808822,
                    -0.003435584153896425,
                    -0.008852217851580783,
                    -0.0012352907859833848,
                    0.004648285312804665,
                    -0.016341213627839615,
                    -0.019769809019249949,
                    -0.027849980212529946,
                    -0.020466128878816923,
                    -0.01829701413976073,
                    -0.007355774241381073,
                    -0.018072366035400353,
                    -0.03194654379791856,
                    -0.0029453280578671887,
                    -0.021528894322126493,
                    -0.037377730487186958,
                    -0.03398995809259682,
                    -0.0345344499883162,
                    -0.03662616579044093,
                    -0.040156764981913829,
                    -0.05271493688279161,
                    -0.06231496155584945,
                    -0.05579713625709877,
                    -0.06293582311940692,
                    -0.06565330751636685,
                    -0.05238164252725706,
                    -0.03960169189778389,
                    -0.030587704624879584,
                    -0.01327214574662324,
                    -0.008216167020869692,
                    -0.009666985018473917,
                    -0.008482643116231396,
                    0.00706843138206352,
                    -0.015330910709073958,
                    -0.017347129962196337,
                    -0.012000283095544525,
                    0.0036924162223621024,
                    -0.007317731556445031,
                    0.007097434749299259,
                    -0.0019508004133771589,
                    -0.01450917164398078,
                    -0.004004376985314425,
                    -0.00896326724384158,
                    -0.021266482636209499,
                    -0.030158449135706458,
                    -0.04514973083708712,
                    -0.0672737443316588,
                    -0.059828500868244167,
                    -0.087081017293037,
                    -0.09512234801582836,
                    -0.09498023964952682,
                    -0.09172313383413608,
                    -0.0873332791694808,
                    -0.08569957414429731,
                    -0.05494251549729247,
                    -0.048987689307572707,
                    -0.02892067636268091,
                    -0.02585996708718514,
                    -0.018442715920069048,
                    -0.01689927830500577,
                    0.005312595205178727,
                    0.003862984155947251,
                    -0.011934573964100378,
                    -0.019397836800244734,
                    -0.02238487738501205,
                    -0.023888496429381738,
                    -0.020033010284536455,
                    -0.011649184807052666,
                    0.0012422054051268522,
                    0.012848985423510018,
                    -0.023343667564690183,
                    -0.04291465292610632,
                    -0.021863941288736954,
                    -0.04230180862238801,
                    -0.06349101587895907,
                    -0.09487183597178239,
                    -0.13458803179822138,
                    -0.1539095520182902,
                    -0.1585703492545785,
                    -0.14482134877792764,
                    -0.141105037971233,
                    -0.12755459181061228,
                    -0.10361784920364475,
                    -0.07688887052933419,
                    -0.04496764747609128,
                    -0.02883026266776652,
                    -0.022627463333783055,
                    -0.023192796752223488,
                    -0.002651725970416306,
                    0.018832369598259299,
                    -0.016256424630353085,
                    -0.00027972776237196874,
                    0.0008455663572609746,
                    -0.018008802301091664,
                    -0.033018850201788057,
                    0.00013662827497131833,
                    -0.0145198778104028,
                    -0.011379559987417429,
                    -0.02267138523413863,
                    -0.04929478642772317,
                    -0.04858946638822352,
                    -0.0679356947869162,
                    -0.08790684787608733,
                    -0.11769855018545918,
                    -0.13764707278101857,
                    -0.1742652089782401,
                    -0.21252957136771917,
                    -0.19665240486172778,
                    -0.1886877172030997,
                    -0.1706770132990064,
                    -0.16580765255443495,
                    -0.12926624450830899,
                    -0.07893810955904339,
                    -0.051712986844878888,
                    -0.03381863908250226,
                    -0.010757844081505576,
                    -0.0012867882114725926,
                    -0.005903988144468319,
                    -0.037157780761624858,
                    0.0070969940958841,
                    0.009829167285782377,
                    -0.007138210700343136,
                    0.029354607966138547,
                    -0.011186205991998154,
                    -0.023017262458889456,
                    -0.017310403437877748,
                    -0.004459643334690314,
                    0.011117624571411987,
                    -0.0059557903707622909,
                    -0.06249586003122551,
                    -0.06267078269420665,
                    -0.09059241203270226,
                    -0.12116574404958872,
                    -0.14754276286987753,
                    -0.15502806063548436,
                    -0.19345774440676684,
                    -0.1891489179089959,
                    -0.2202810723470035,
                    -0.2123985410525213,
                    -0.17695645614737286,
                    -0.11892950605443917,
                    -0.08594158306205357,
                    -0.024741241577242925,
                    -0.00872380288116445,
                    -0.007433367107629717,
                    -0.010826758774306892,
                    -0.010039290019854042,
                    -0.028691490592258729,
                    -0.017942485423345875,
                    0.011320033001908564,
                    -0.012360836037579459,
                    -0.008810773869331729,
                    0.014994969712385049,
                    0.002243620196024792,
                    0.011858746581430722,
                    0.000857469537191283,
                    -0.012282296988220868,
                    0.017086476289629786,
                    -0.044781704704609178,
                    -0.011405619540551093,
                    -0.04872345824068344,
                    -0.06694404049149243,
                    -0.08776197512969936,
                    -0.12354940362014402,
                    -0.14161442194475236,
                    -0.17652839841810656,
                    -0.1985253244435946,
                    -0.17240470110662904,
                    -0.1443521752841187,
                    -0.11128899424574766,
                    -0.02853007068367348,
                    -0.007883985496956452,
                    -0.007144641025801829,
                    -0.017813186329022208,
                    -0.022302599226266353,
                    -0.023748351672068407,
                    -0.000358559372434207,
                    -0.0015483484994778649,
                    0.017620662374586785,
                    -0.02499219459790894,
                    -0.021585528322469018,
                    0.01054114060117148,
                    0.01315858547130617,
                    0.009186127715368739,
                    0.029292712256299585,
                    0.07269116224024157,
                    0.062115937496186327,
                    0.0448802745310784,
                    0.10550702696608772,
                    0.07463949547351327,
                    0.04087338340175943,
                    -0.0204655197954098,
                    -0.046885815796550499,
                    -0.10401691107724345,
                    -0.12276590219815528,
                    -0.13595003814999333,
                    -0.13598615734389284,
                    -0.1221100513518563,
                    -0.021610520486148169,
                    -0.00006359543999461126,
                    0.01838947487800924,
                    -0.007570984830964388,
                    -0.013754475410901145,
                    -0.03606429501276948,
                    -0.006790923277891471,
                    0.002542171637920904,
                    0.008743884069368834,
                    0.004408892265792789,
                    0.014097437379754689,
                    0.014701730262035378,
                    0.04068659330046317,
                    0.03644122557119755,
                    0.05804737186355838,
                    0.08746472041058288,
                    0.13717813710464517,
                    0.17235776893305303,
                    0.1830656907986723,
                    0.20678983466478244,
                    0.1619237766570397,
                    0.13348636594841718,
                    0.053467726654099028,
                    0.01563954922698795,
                    -0.029905369507952759,
                    -0.03831049563842361,
                    -0.09593313482206795,
                    -0.09663917441920479,
                    -0.007702890390227394,
                    -0.012564985536875483,
                    0.011335637106060231,
                    0.015334328201549667,
                    -0.00384592357832608,
                    -0.033395430127982319,
                    -0.027780590811803345,
                    -0.014812112786382108,
                    0.027711418708914628,
                    0.009595532296082055,
                    0.018121332178200806,
                    -0.0028715140777966845,
                    -0.014783982895455931,
                    0.037162136471661829,
                    0.06298866128794313,
                    0.12100055318046711,
                    0.147206695710163,
                    0.18302744641972394,
                    0.23050201216086348,
                    0.2144165518296222,
                    0.19503630391058569,
                    0.18788020358853,
                    0.1529282854654554,
                    0.08131930293441819,
                    0.060990949798347567,
                    0.03563161013948895,
                    -0.012616605560354322,
                    -0.05560737878344443,
                    -0.0004042320110843393,
                    -0.007081643954827906,
                    -0.013931458724245002,
                    0.007261066717914616,
                    -0.0015160941599809835,
                    -0.02137403631205315,
                    -0.0028531763379225155,
                    -0.014891846101293693,
                    -0.005557593696618447,
                    -0.004243071126928325,
                    -0.023251490430442065,
                    -0.04008034203376177,
                    -0.023036579343301418,
                    0.00408997770473533,
                    -0.0034485875122662287,
                    0.00503443160648654,
                    0.018870656790320265,
                    0.09878492048268044,
                    0.1561341253417041,
                    0.20775628387407525,
                    0.22811843028338925,
                    0.23110727854650998,
                    0.19400270979197216,
                    0.2123090805969162,
                    0.1165816868374124,
                    0.10184488696378758,
                    0.032010495655438248,
                    -0.03900160417577318,
                    -0.010864362990678929,
                    -0.021272636498466839,
                    -0.0038848975912495204,
                    -0.020997735923414974,
                    -0.014559288294557587,
                    0.011640231337242709,
                    0.004479342964095051,
                    -0.004117228281271139,
                    -0.03609580970677216,
                    -0.03140616940873882,
                    0.014286732375169649,
                    -0.0034635156566863248,
                    -0.019208047818543605,
                    -0.05362570439854571,
                    -0.0704616404909098,
                    -0.11139209347683132,
                    -0.08627910642295175,
                    -0.12150456399718947,
                    -0.00839078830989946,
                    0.06160829247691692,
                    0.09685339828646351,
                    0.14994183797561706,
                    0.18550567799576585,
                    0.17700346386944189,
                    0.1455595455464787,
                    0.1143619012801337,
                    0.07838831836747236,
                    0.023334650474282096,
                    -0.0021876350853498795,
                    0.019546055712274397,
                    0.010612590908512432,
                    0.05043004382514114,
                    -0.003192877231106456,
                    -0.012550646735480186,
                    -0.007700948096623344,
                    -0.02195349329909044,
                    -0.0015417813542782328,
                    0.006771221714956058,
                    0.008164727782207377,
                    -0.029030434558673127,
                    -0.02717689565434571,
                    -0.02573603666681729,
                    -0.0197506946677701,
                    -0.0647179848199914,
                    -0.08854829610004139,
                    -0.131621302304339,
                    -0.1360555721787707,
                    -0.13263705270142754,
                    -0.05596558612410584,
                    -0.02842676381156548,
                    0.047789653775815527,
                    0.0800783006708574,
                    0.09981067759513902,
                    0.06642634377071712,
                    0.06980014939379657,
                    0.04904996426821614,
                    -0.0063310231636095428,
                    0.005306774784883327,
                    0.007176255671810167,
                    0.021983260651348398,
                    0.009560162641135878,
                    0.01653883544144635,
                    0.014339703778738335,
                    0.010175534831609516,
                    -0.0017096998573662185,
                    0.003875001927703262,
                    0.01752193731525599,
                    0.024515400989790886,
                    0.01792804701870576,
                    -0.009236678810491712,
                    -0.007549782764016126,
                    -0.03671164339203901,
                    -0.059570301257225097,
                    -0.059146039953799859,
                    -0.08151072266772422,
                    -0.13294983155076793,
                    -0.10323403723759864,
                    -0.06314830729685023,
                    -0.06811913983559234,
                    -0.006355322323869061,
                    0.010714297037470009,
                    0.03267690404641084,
                    0.06997159804290226,
                    0.0627296042639504,
                    -0.022415234007652615,
                    -0.01128131279334927,
                    0.008267933946578009,
                    -0.0005078921656313325,
                    0.0003251428019243545,
                    -0.004808743135514382,
                    0.03325220358556883,
                    0.0061436198163580149,
                    0.008161409213659385,
                    0.009426521481565228,
                    -0.009959156467706352,
                    0.013231997077574548,
                    0.02354956894639889,
                    0.009113368844749007,
                    -0.002611586923834292,
                    -0.005881964038105651,
                    -0.00690636687202427,
                    -0.017352805463120716,
                    -0.04920207667022551,
                    -0.05750180008601379,
                    -0.06088913826826132,
                    -0.05261238325995986,
                    -0.0762842081284007,
                    -0.007884289615474496,
                    -0.009364392463586015,
                    -0.009362539273661784,
                    0.03857708776261206,
                    0.038123504458868428,
                    -0.0012091819666809297,
                    0.0028552822407366988,
                    0.004592139666085733,
                    0.017448841909623464,
                    0.01041177318048722,
                    0.019264829116827834,
                    0.007309243725789346,
                    -0.008048934920073508,
                    -0.007728761498047377,
                    0.019783625758818505,
                    -0.004498061986510549,
                    0.019061331233099413,
                    0.018717476242971839,
                    -0.02297715934004588,
                    0.0025465831376209017,
                    0.00818331843809295,
                    -0.006981757867715891,
                    -0.016253259449870183,
                    -0.031292582365695837,
                    -0.045903689208191027,
                    -0.0189070145348494,
                    -0.05612767301714706,
                    -0.08206141482284095,
                    -0.0005999263041404987,
                    -0.03344704002038721,
                    0.015832416737082946,
                    0.03844981628635753,
                    0.039878947927301327,
                    0.004220492182372816,
                    0.015179549694910635,
                    0.02582842325024231,
                    -0.002027703566194507,
                    0.023623078593166079,
                    -0.006302021102166645,
                    0.007406329089972244,
                    0.0005165171259096751,
                    -0.008921440314724644,
                    -0.016949873598828943,
                    -0.012905985020603526,
                    -0.008007410208460143,
                    0.0001705131485489583,
                    -0.022295207282528239,
                    0.006957787910525341,
                    0.013293634979190993,
                    -0.043269226707421257,
                    0.010632422652709355,
                    -0.023799201604980639,
                    -0.04346882571814648,
                    -0.03503897140520226,
                    -0.01704948924446045,
                    -0.03325535926389901,
                    0.003018781134279744,
                    -0.018786698576751669,
                    -0.001517236194593778,
                    0.02649698941749133,
                    0.032563242884933309,
                    -0.0012126599726772572,
                    0.011239264885157473,
                    0.012702351192290084,
                    -0.0018729913070926889,
                    -0.0075973011762005249,
                    0.010900506696162074,
                    0.001254149899888364,
                    0.011641701562680476,
                    0.012807146944683433,
                    -0.018619897347541157,
                    0.030436836872699208,
                    -0.0047330701663241959,
                    -0.031709381455128349,
                    -0.008578080626930262,
                    -0.02529364648435356,
                    0.001280981017295687,
                    -0.0012892376953130606,
                    0.02556112930196408,
                    -0.021621070466095898,
                    -0.06951053993244624,
                    -0.02799100762517172,
                    -0.023124647107289146,
                    -0.047514368373816579,
                    -0.041572584970844757,
                    -0.035049763890656868,
                    -0.014975184385774944,
                    -0.002196986621522074,
                    0.04097724936771201,
                    0.006490487640720463,
                    0.0005083215256516833,
                    0.010055662755607986,
                    -0.0035011818195978059,
                    0.008815003699261715,
                    0.004171291158200961,
                    -0.018788306907894987,
                    -0.03273236962453916,
                    -0.02198530772575961,
                    0.011099128580054525,
                    -0.012980733741286065,
                    0.015114907063481035,
                    -0.011241230151834132,
                    -0.019664110911274916,
                    -0.04063931315867609,
                    -0.027701471350686216,
                    0.00444200193210029,
                    0.07892693450366915,
                    0.05855968940674157,
                    0.012499867471135412,
                    -0.043815706345162967,
                    -0.016300825439264967,
                    -0.042856333736984417,
                    -0.0633723405129101,
                    -0.03169481078856683,
                    -0.03610091658880069,
                    -0.0009432768285669348,
                    0.04236946744137311,
                    -0.0032284258748323747,
                    0.014970158020788487,
                    0.02097668672799185,
                    0.0012098188443062123,
                    -0.004786117451348079,
                    -0.019719616882154645,
                    -0.013940123743793047,
                    0.00929920371196644,
                    0.0012297042626852886,
                    0.0006956514796993308,
                    -0.01787866291706721,
                    -0.011117194287633152,
                    -0.03814171899880161,
                    -0.029119570690216494,
                    -0.013035744738808792,
                    0.018525188481534218,
                    0.03261784373165677,
                    0.0499515964286616,
                    0.03762902136639943,
                    0.005124788038510886,
                    -0.0082474118134821,
                    -0.0394867555186006,
                    -0.05583106728396672,
                    -0.013287734100846155,
                    0.0031712667062516318,
                    -0.03340566247483286,
                    -0.021789057624209554,
                    0.027464951745815745,
                    0.009918844255858319,
                    0.017647348485783293,
                    0.012110689104557648,
                    0.014989355525058717,
                    0.020800565913236099,
                    -0.018087068467782218,
                    0.0026299537092191059,
                    0.0016029063116564816,
                    0.0007371918704339798,
                    -0.005315379049024119,
                    0.013731043246527053,
                    -0.021587034343357338,
                    -0.0060830466545165359,
                    0.0009447596501084379,
                    -0.027484884139059766,
                    -0.016862558078405224,
                    0.019339310592258825,
                    0.04292923861553785,
                    0.05243289451905621,
                    -0.012725560322617503,
                    -0.018838057682751927,
                    -0.05769904363417025,
                    -0.044794442876369019,
                    0.005044533849331279,
                    -0.03377394393125526,
                    -0.039147256377688458,
                    -0.028520563802270674,
                    0.013027346323190876,
                    0.021455245494934429,
                    0.025531433002914197,
                    -0.0002623809111609306,
                    0.006078287785283893,
                    0.00024617450662648934,
                    -0.00013290373693886968,
                    -0.012146381157119319,
                    0.0078652455150858,
                    -0.02491224987614078,
                    0.0009681315729237374,
                    -0.01371399409024658,
                    -0.028523238858733949,
                    -0.024933644712297338,
                    -0.013911895617161037,
                    -0.04646926606696792,
                    -0.021851647453056293,
                    0.0024807017268779214,
                    0.04284688094617787,
                    0.08942130410125392,
                    0.05921360388651308,
                    0.025712234585581769,
                    -0.0062117536792925648,
                    -0.05549413139995449,
                    -0.010056032551644705,
                    -0.00035120954400409595,
                    -0.017664170248986916,
                    -0.011837531876369059,
                    -0.001091219928034401,
                    0.01011268766729491,
                    0.014440348871779913,
                    0.013824264121606339,
                    0.02209764057153916,
                    -0.009004116930106592,
                    0.005127854136138787,
                    0.0022968671340504074,
                    0.006139140495859831,
                    -0.0033039364763596237,
                    0.0100608825309681,
                    -0.016680388207299686,
                    -0.024164327866354787,
                    -0.02447254685306445,
                    -0.017985909470884178,
                    -0.03570435043926136,
                    -0.04190604441907013,
                    -0.005555438170232956,
                    0.038159888915597298,
                    0.08598193267893585,
                    0.06370535544394994,
                    0.047643972305465607,
                    -0.0018371256275745618,
                    -0.028226815288413935,
                    -0.012296392740747751,
                    -0.007012626766327278,
                    -0.011378903501189723,
                    0.003391407338470106,
                    0.007713816989731585,
                    0.0075731249943875229,
                    0.01568436474226509,
                    0.018960611345172439,
                    0.020191001846626638,
                    0.016588249388946854,
                    0.001069193715021252,
                    -0.005077551182432623,
                    -0.00027638100046607604,
                    0.004813647430815491,
                    0.014275929916169455,
                    0.004978624190936078,
                    -0.017853194239580578,
                    -0.036437149989806769,
                    -0.04261232281861414,
                    -0.04205902440870235,
                    -0.06847970897160226,
                    -0.02280004028666181,
                    0.027072086841155968,
                    0.04269511182518178,
                    0.053349935417857399,
                    0.028545184142772529,
                    0.01101379913678755,
                    0.0011474619959983117,
                    -0.015768623448848549,
                    -0.00882019056698617,
                    -0.003929020774082734,
                    0.006678109811566399,
                    0.013230731241699963,
                    0.005784171647389252,
                    0.011729842621914825,
                    0.016466008216850945,
                    0.004756060287995819,
                    0.01639474566880854,
                    0.005256423890103958,
                    -0.0038544010891380737,
                    -0.0180082190855556,
                    -0.016553920338065445,
                    -0.02893110136063173,
                    0.0033522545033619515,
                    -0.0020181101018811639,
                    -0.016154774317699375,
                    -0.01992770175231316,
                    -0.037314074266695047,
                    -0.05938925705423123,
                    -0.028586150818288807,
                    0.03256273201110612,
                    0.05668110507269495,
                    0.05557727988712976,
                    0.028973839228905664,
                    0.025823717593546189,
                    0.010671667575108493,
                    -0.016499621780553074,
                    -0.010169546385151784,
                    0.008982660862284012,
                    0.008061084536831864,
                    0.018138947671550135,
                    -0.0010210774425353049,
                    0.006255263640685502,
                    0.01284799949853578,
                    0.006529131094760168,
                    0.007264097512527195,
                    0.005081283351696861,
                    0.009425918261948137,
                    -0.002344051215535584,
                    -0.016140715747811068,
                    -0.011396293366489572,
                    0.003721598558441983,
                    -0.006832063105572625,
                    -0.00848560298021469,
                    -0.009866202901812524,
                    -0.015918736934000613,
                    -0.01968588550284619,
                    0.006413912215827724,
                    0.04564166760953347,
                    0.05528579531996423,
                    0.07387860307938371,
                    0.04965686475099057,
                    0.026560367408196757,
                    0.005276999587037565,
                    0.0011677387105180646,
                    -0.010061279455881506,
                    0.00528300041988543,
                    0.004765103706865471,
                    0.007024142383660342,
                    -0.0024600706351332066,
                    -0.001075878163484902,
                    0.008180185896264465,
                    0.00985255778758045,
                    0.005410863418197972,
                    0.004493036214123687,
                    -0.003883476434023028,
                    -0.004248675389934922,
                    -0.009167360248764729,
                    -0.01204740484292449,
                    -0.0040531908414532719,
                    -0.0014170856358322348,
                    -0.0003869068147227679,
                    -0.005298292288263668,
                    -0.005795288846249409,
                    -0.013630517161455955,
                    0.016558239644492179,
                    0.03601157290552283,
                    0.03910505809546786,
                    0.054243758331961339,
                    0.04220855027047865,
                    0.014089034210487284,
                    0.005803592408440955,
                    0.004981097409862823,
                    0.002538689135614082,
                    0.009648855066945789,
                    0.000012037804329850248,
                    0.006972140786717115,
                    0.0029409320688097847,
                    0.0007453223335842786,
                    0.0019316663034671788,
                    0.011582800344794505,
                    0.013144448270437698,
                    0.018224248281615949,
                    0.021386478866950256,
                    0.023691197106433194,
                    0.02586468285130838,
                    0.010073409886893235,
                    0.00005188114791823703,
                    -0.006285483472044029,
                    -0.0048398874904620309,
                    -0.004123630423111263,
                    -0.004980079360622944,
                    -0.0058880480290216569,
                    -0.007947677792961227,
                    -0.0017750442896343308,
                    -0.000750261886545869,
                    -0.0008139510314112441,
                    -0.0004116605011432528,
                    0.0015715109438001166,
                    -0.004183478947843332,
                    -0.0005640967914699397,
                    -0.0014871530344541676,
                    0.001683872935965469,
                    -0.003172332922348997,
                    0.002190965934747303,
                    -0.0011358394847783259,
                    0.0036622470206087505,
                    0.00725536514286577,
                    0.015622954176393596,
                    0.022155548531805945,
                    0.02106645135579315,
                    0.02947723868315303,
                    0.03473837934569172,
                    0.0347519859264342,
                    0.01222745281403829,
                    -0.00001658510982664612,
                    -0.017857351102241859,
                    -0.02189275044902774,
                    -0.012776547111774775,
                    -0.012837744470726739,
                    -0.011927741647777046,
                    -0.015980127070790805,
                    -0.010812887479549847,
                    -0.003601738035676887,
                    -0.003203036710571892,
                    0.0003043025051312516,
                    0.0003699794940921292,
                    0.004504821290883674,
                    -0.0000837034397926347,
                    -0.0027882873198356859,
                    -0.0008779751040473932,
                    -0.0006223808423837595,
                    -0.001186575017394797,
                    0.000069138915187832,
                    0.0025706126784246655,
                    0.008087705418840009,
                    0.023796231931561008,
                    0.03413989263684013,
                    0.06145227053547612,
                    0.07455636248478626,
                    0.05792986196437871,
                    0.03397460430997071,
                    0.0009395949511232683,
                    -0.022508568895408,
                    -0.03125589188179816,
                    -0.03713996503464091,
                    -0.026674348741365679,
                    -0.0073065577022460958,
                    -0.012106660284003961,
                    -0.013014921391290678,
                    -0.017464317761423526,
                    -0.007899239212303797,
                    -0.0026567465950026586,
                    0.008465507607737176,
                    0.007988714948973545,
                    0.003784339080682197,
                    -0.005525151955976993,
                    -0.0020486892988461986,
                    -0.004764065374884106,
                    -0.0023977669990507017,
                    0.0011148039708981295,
                    0.0010143801173044694,
                    -0.0045736832010490799,
                    0.009362309861210361,
                    0.04121876066697971,
                    0.06420317700350252,
                    0.08251066062266471,
                    0.0978962947819419,
                    0.07135520722456937,
                    0.016050886227287957,
                    -0.029974862844819963,
                    -0.06035607367729157,
                    -0.06819884862055888,
                    -0.061113929480367829,
                    -0.0429439429426307,
                    -0.024567969203825519,
                    -0.013377623177971752,
                    -0.00900157832378068,
                    -0.01980020691642391,
                    -0.016449058938438997,
                    -0.0160451204471555,
                    -0.006242392776490037,
                    0.007463074003297996,
                    0.002221223224860159,
                    0.0012806050961475134,
                    0.0002625250122739767,
                    -0.004183263875753087,
                    -0.001806464405223438,
                    0.0018729570220593279,
                    -0.006172394499770071,
                    -0.009888345015156019,
                    0.006838543242502505,
                    0.03929383287597957,
                    0.05754828091255343,
                    0.1063736314755848,
                    0.12019638721638589,
                    0.0764086785815522,
                    0.0072010800085364249,
                    -0.05832371575712688,
                    -0.09097528714490383,
                    -0.09298325292926454,
                    -0.05768937524476401,
                    -0.010201142896493074,
                    -0.025512847521277503,
                    -0.013494969275917358,
                    -0.022203532769936694,
                    -0.01130428210657954,
                    -0.015992297161608536,
                    -0.00694277461256408,
                    -0.003391868940947132,
                    0.013909939692883856,
                    0.008062827455268269,
                    0.0036389271857570108,
                    0.0014000163134454047,
                    -0.000916024493694329,
                    -0.01006011813964509,
                    -0.0009967782560884335,
                    -0.009293610269142825,
                    -0.012748156920506906,
                    0.0015142791446128889,
                    0.042427869690420959,
                    0.0915514558607696,
                    0.12991359959331315,
                    0.13201997704297845,
                    0.0888657570857013,
                    0.013022371061891494,
                    -0.08111809602003495,
                    -0.1366532862439131,
                    -0.11356395689851598,
                    -0.05364846923720651,
                    0.023651592998446853,
                    0.021921108488046776,
                    0.030730184633781758,
                    -0.012698574070267477,
                    -0.031554429319711408,
                    -0.015382653812182054,
                    -0.005732942365731803,
                    0.013126239782177186,
                    0.012546753249638408,
                    0.009403439187673266,
                    0.0030412936840681868,
                    0.014755921776034556,
                    0.00031824344380406756,
                    0.0009911056638271183,
                    -0.0016402378847480573,
                    -0.03527972774594766,
                    -0.03305757581023737,
                    -0.007368577416199095,
                    0.013732983738500418,
                    0.0835746834682525,
                    0.14635534037805227,
                    0.16111178538521615,
                    0.11430050115128078,
                    -0.01775036968218662,
                    -0.12170784325101027,
                    -0.18557705443677353,
                    -0.1896957086736961,
                    -0.10628835569446123,
                    0.025880135246891177,
                    0.06338753106219104,
                    0.05908117255376638,
                    0.01810458255277474,
                    0.00013548558986468481,
                    -0.010394280265409104,
                    -0.022162577243567368,
                    0.006750497854643755,
                    0.00014906332608693293,
                    -0.0007230824787626529,
                    -0.003200621527117467,
                    0.013994732781716719,
                    0.005969106753642232,
                    0.006048159310344282,
                    0.0024613054632054655,
                    -0.04382440312121882,
                    -0.04519824215305721,
                    -0.019487185748777344,
                    0.003505955438397441,
                    0.09583887255824596,
                    0.1566786245914361,
                    0.2060544868940637,
                    0.1625643049447496,
                    0.008660935911344562,
                    -0.1373294440008595,
                    -0.20084149518532649,
                    -0.18461755960425295,
                    -0.06285675840294254,
                    0.03940195115439993,
                    0.05361452004117564,
                    0.03892099324504092,
                    -0.02656381607984704,
                    -0.010885154744822436,
                    -0.023065287798963806,
                    -0.015803014769024839,
                    0.009760913917591104,
                    0.006918666864970197,
                    0.01931590244768011,
                    0.016359782468155616,
                    0.004857530011366627,
                    0.004153664133292847,
                    -0.0042437427771300439,
                    -0.005185775884013248,
                    -0.04689275615355309,
                    -0.07020387997815758,
                    -0.03262945442304541,
                    0.01219202843434162,
                    0.10248910459457759,
                    0.17885130700899433,
                    0.21646802712029998,
                    0.20207613386348234,
                    -0.012853216758889076,
                    -0.19774208435793517,
                    -0.2362440981817092,
                    -0.15824193645266897,
                    -0.02780075410066891,
                    0.01657505429214328,
                    0.08712509674494458,
                    0.021043494862287055,
                    0.0030879950016153604,
                    -0.010346648999260036,
                    -0.023179341556116729,
                    -0.0067307355185397019,
                    0.0005680293089416475,
                    0.0034240622601212145,
                    0.028332934162003805,
                    0.01630881520003422,
                    0.007144277865707589,
                    0.005471323914526767,
                    -0.014933142480993704,
                    -0.006830225318709457,
                    -0.05002295229792972,
                    -0.08538750113789903,
                    -0.09750282024507839,
                    0.003106590753253784,
                    0.06243434161980194,
                    0.16800680732317639,
                    0.2531498613914102,
                    0.2214402857651048,
                    0.01567106829972468,
                    -0.15982176335493773,
                    -0.2162756713254238,
                    -0.13906616526336758,
                    -0.009524420931397583,
                    0.02723347590737057,
                    0.040714177487260357,
                    0.027231993165954487,
                    0.020582251109769763,
                    -0.018510436952928409,
                    -0.018350001850280643,
                    -0.009859017101811183,
                    0.02052830533109445,
                    0.04444060060868785,
                    0.015425174953791166,
                    0.01196439484570512,
                    0.002812656216751911,
                    0.016802679389900416,
                    -0.01116350009266035,
                    -0.025570297002048396,
                    -0.0444826800170695,
                    -0.10446685265758303,
                    -0.12053259257115667,
                    -0.0637637675394624,
                    0.01838289790206244,
                    0.1497503996818343,
                    0.1851795394362533,
                    0.14654841302789199,
                    0.03549623472194913,
                    -0.12123313890486903,
                    -0.1792203029332596,
                    -0.08689600088597593,
                    -0.01306271991190258,
                    0.015946000997734818,
                    -0.002145963417081494,
                    0.04451444063334652,
                    0.02090619419127371,
                    -0.020484680936786308,
                    0.007883564678969646,
                    0.012337781625417939,
                    0.041335754412166917,
                    0.03529121799493511,
                    -0.000888197084195626,
                    0.012323227259152595,
                    0.009190144960795198,
                    0.035167845508314848,
                    0.005638489846079808,
                    -0.03017167116926868,
                    -0.043687480547615929,
                    -0.09299981179799172,
                    -0.1142236307157437,
                    -0.08098395943067366,
                    -0.022711708654378133,
                    0.08695748741562713,
                    0.162366509263008,
                    0.1945388734297951,
                    0.05195768416260805,
                    -0.10124771629620755,
                    -0.17586061684685062,
                    -0.08646919617852093,
                    -0.016514436326927386,
                    -0.0037398077148952048,
                    -0.019990815789514016,
                    0.006500768361774464,
                    0.0021034651280056584,
                    0.01802670022491312,
                    0.0015398710976572406,
                    0.020196933425399047,
                    0.01835234634881723,
                    -0.01082702894096536,
                    0.03285974681204333,
                    -0.0034718582580981107,
                    -0.009978126761378657,
                    -0.018918206834853479,
                    -0.012499517259261017,
                    -0.033364509774419407,
                    -0.033631545168894449,
                    -0.08050108899789906,
                    -0.11747787335113162,
                    -0.08148033179745101,
                    -0.02387863080064784,
                    0.03545265281956958,
                    0.1246214342228973,
                    0.14355402803011475,
                    0.08559670341582168,
                    -0.011640811060925377,
                    -0.08661626437819274,
                    -0.07623244436328028,
                    -0.05267455690837819,
                    -0.08465283748101842,
                    -0.015525716099068549,
                    0.02643593284492049,
                    0.014850862191942625,
                    0.022754912027457109,
                    -0.007357172065883969,
                    -0.001801239802149741,
                    0.03172350314470822,
                    0.007307782551622122,
                    0.02557598146569473,
                    0.011090658332329945,
                    -0.0038796965148131187,
                    -0.011387077640298692,
                    0.014203442653706036,
                    -0.010398189825111202,
                    -0.02903410581403495,
                    -0.06562206737446044,
                    -0.1045083290995562,
                    -0.09042704866227981,
                    -0.0787174147467401,
                    0.00002461254793405118,
                    0.07834858185596,
                    0.13114452212887704,
                    0.11813135712349447,
                    0.0577607699682367,
                    -0.048133529411525748,
                    -0.06558377241076156,
                    -0.0742588939669872,
                    -0.0754605606661177,
                    -0.04887204555475177,
                    -0.017990991170913626,
                    0.023610724270179248,
                    0.01603637534309069,
                    0.01684646412546437,
                    0.0047294243839523688,
                    0.00289583277301376,
                    0.031300388449118077,
                    0.005366381891179928,
                    0.03901841375170103,
                    -0.011537130682249035,
                    -0.010194253031312047,
                    0.008103410769947441,
                    -0.0187999348179448,
                    -0.020077571544720935,
                    -0.06411401701695127,
                    -0.0718509700752458,
                    -0.05574726100044543,
                    -0.08444329502570576,
                    -0.009550134665904403,
                    0.030854014589050985,
                    0.08031252010180677,
                    0.08668934825185563,
                    0.07409373865045073,
                    0.029977537066641054,
                    -0.06325437837141074,
                    -0.07410438099003705,
                    -0.07334260752640637,
                    -0.0436077625690987,
                    -0.0025666784120434687,
                    0.018534432789190995,
                    0.02152943375411911,
                    0.023713626814524825,
                    0.017500181056161008,
                    -0.010084580959038295,
                    -0.013912342118807483,
                    0.013559148659540506,
                    -0.009461810697970513,
                    0.029611445490217694,
                    0.018121509092952793,
                    0.0007931790834881945,
                    -0.028885312186046127,
                    -0.00635628827981951,
                    -0.020568664245278677,
                    -0.03470609970487975,
                    -0.04551151339254112,
                    -0.05477096070112891,
                    -0.059316365222508219,
                    -0.020920802856551195,
                    0.03612771176774018,
                    0.09671199284351535,
                    0.06159116924595865,
                    0.05728253723921885,
                    -0.02005761028102919,
                    -0.11113650284026359,
                    -0.11292395588779869,
                    -0.03378117994665561,
                    -0.015259266840753079,
                    0.020145592874441878,
                    0.009378359552845477,
                    0.010649646293003072,
                    -0.019993340116179774,
                    -0.013774968904120592,
                    -0.002103720655516772,
                    -0.00042797222809298145,
                    -0.026174834512773326,
                    -0.008474161823857428,
                    -0.008952297572284204,
                    -0.0014214650576734639,
                    -0.032550208971642197,
                    0.013922200223873903,
                    -0.003209559108377827,
                    -0.000584465159184056,
                    -0.03428733144670107,
                    -0.04855906990225924,
                    -0.06988117471897457,
                    -0.007523860588036965,
                    -0.007668360577386958,
                    0.06681442912446897,
                    0.09613553270513765,
                    0.0793852153206951,
                    0.0014426221234677547,
                    -0.04312416930567298,
                    -0.06268720074342657,
                    -0.027687817934130097,
                    -0.004094244273801743,
                    0.02171932960271782,
                    0.008310912759294336,
                    0.015100632260794034,
                    0.013094203867957205,
                    0.019391377067718216,
                    0.034100846749001028,
                    -0.0102867172322391,
                    -0.007812947218727518,
                    0.010074418708372094,
                    -0.00918204957765444,
                    -0.003397490972118931,
                    -0.028054557629076748,
                    0.01793697986398118,
                    0.02362787079199473,
                    0.020004507595286014,
                    0.009018701452492175,
                    -0.01703667368418359,
                    -0.04113516949606321,
                    -0.032029110288351089,
                    -0.048402508724088,
                    0.012963950408517212,
                    0.04028210195978109,
                    0.02207796150536677,
                    0.03391208178227438,
                    -0.010903713919591971,
                    -0.014276723909003146,
                    -0.046542544415940769,
                    -0.016765715251503188,
                    0.04413830579100758,
                    -0.017197165516326698,
                    0.009342199763237911,
                    0.01653167414159313,
                    0.011942934913579496,
                    0.016771410303559405,
                    0.015614691548269435,
                    -0.01928618062102974,
                    -0.007689693501550712,
                    0.0029625413031866578,
                    -0.024137583822921497,
                    -0.018666810588777274,
                    0.02600506254961786,
                    0.03650443504365119,
                    0.029528411516921466,
                    0.03133216033521245,
                    0.013747938483350752,
                    -0.011648267923311844,
                    -0.03190715704065902,
                    -0.04201432906648882,
                    -0.029010530020245844,
                    0.008947251921944209,
                    0.029843048915717538,
                    -0.012947669181479032,
                    -0.02016579004130086,
                    -0.030991219018731358,
                    -0.049180696709441269,
                    -0.031346600131978038,
                    0.005552656437235304,
                    0.0363480769772855,
                    -0.00347446173551825,
                    -0.013467058225384736,
                    -0.0014172493787221355,
                    0.03547769871465913,
                    0.002289340969054194,
                    -0.00764105524425141,
                    -0.003648019544271122,
                    0.014563775572671367,
                    -0.007864405705512962,
                    -0.015412730888852495,
                    0.03960530199429257,
                    0.03713929048594462,
                    0.04281937275318956,
                    0.043678205384764457,
                    0.007507132738154807,
                    -0.011819506607106042,
                    -0.0043067229576481459,
                    -0.0063518194991153769,
                    -0.033964514683092288,
                    0.010877647813523906,
                    0.021876517168130884,
                    -0.004588978543771671,
                    0.001755846951374743,
                    -0.03376492469595155,
                    -0.019459460153356014,
                    -0.028065947513358667,
                    0.013762167821249299,
                    0.023657389989945246,
                    -0.027395884488644604,
                    -0.0031725806848423739,
                    0.008160309935628734,
                    -0.027610652638112515,
                    -0.032172557545975099,
                    0.019943419085527767,
                    0.013800494472273443,
                    -0.009989879317712836,
                    -0.009318724139081114,
                    -0.027340746242495139,
                    0.038159129703957867,
                    0.034846421065898549,
                    0.04096402851363958,
                    0.040671481255069277,
                    0.011645993446551727,
                    0.0062745920820420539,
                    0.0004745568839291211,
                    0.00006164478504909837,
                    -0.011918252694340664,
                    -0.012273621286207513,
                    0.020000899104013826,
                    0.006193565895043073,
                    -0.030478951271371545,
                    -0.02433250041791737,
                    -0.010168428435207166,
                    -0.026128469314537808,
                    -0.001034978334751695,
                    0.022699979749775269,
                    0.01836066448448865,
                    0.013261605670552077,
                    -0.020051471220734506,
                    -0.008622823168655552,
                    -0.008472599125582232,
                    -0.0003891236733420186,
                    0.014399230075301483,
                    -0.025153401894402195,
                    -0.011337927388919757,
                    -0.015684594575259563,
                    0.03079987119710739,
                    0.03148999460216341,
                    0.04167794169531533,
                    0.019393909597215765,
                    0.0023970761234858985,
                    0.007500312532466193,
                    0.00840936352604278,
                    0.02186985286157206,
                    0.005489873841292389,
                    0.004526921407110253,
                    0.0248854801225884,
                    0.020942399680344296,
                    0.007800340018343359,
                    0.022040965643449735,
                    -0.024295502788519588,
                    -0.0007896721854544481,
                    -0.008931296695241344,
                    0.0005018536734329712,
                    0.024564434632677529,
                    -0.007000875663684747,
                    -0.03563960571060679,
                    -0.013743325496094628,
                    0.015537756544855829,
                    0.0003837877181695021,
                    -0.009020876380757924,
                    -0.0009891626554117198,
                    -0.005487534617325445,
                    -0.006174404117114996,
                    0.015219563503603867,
                    0.01268015755798707,
                    0.01783191104465626,
                    0.007360767778001101,
                    -0.00995583720227103,
                    -0.011973925312322047,
                    -0.0016500391940019472,
                    0.016884466596018344,
                    0.012936940190760475,
                    0.009769765767969095,
                    0.027393398587221706,
                    0.016317072596890308,
                    0.03155073880285196,
                    0.01254186349339502,
                    -0.0023782126641137487,
                    0.009697664930479843,
                    -0.0006398584170647586,
                    0.006502630956147081,
                    -0.01032984003426802,
                    -0.0027251493370817364,
                    -0.02125395988438456,
                    0.015027070376502219,
                    0.01184321620822112,
                    -0.012368503684709735,
                    -0.004183879384213494,
                    0.006264116859682994,
                    0.0008806126821487334,
                    -0.005441938197335617,
                    -0.00009159794675635427,
                    0.009431359028833056,
                    0.009230942287426044,
                    -0.002145164362968,
                    -0.026525427213134293,
                    -0.014163211727473258,
                    -0.0019379035369576253,
                    0.01116267905071702,
                    0.00752459475527893,
                    0.015989984003374325,
                    0.01949178032857505,
                    0.022313694239140533,
                    -0.004011907555358442,
                    -0.004601541808757891,
                    -0.005165025672724833,
                    0.03237384032570905,
                    0.023951643562545697,
                    0.004969572907871295,
                    -0.006055695223558504,
                    -0.00908125982633125,
                    -0.024257308619313145,
                    -0.026168042522960137,
                    0.01179288716824841,
                    0.011605225015281946,
                    -0.0042903122677552889,
                    0.011607403512767253,
                    0.002446624467731883,
                    0.0038483865887174258,
                    -0.0008806444749482585,
                    0.0009103481802246989,
                    0.001977708370951869,
                    -0.0021550201308344646,
                    -0.014577945022973818,
                    -0.0033778118483893898,
                    0.0031425345051667166,
                    0.004462873454426687,
                    -0.007083140654866411,
                    0.0034542326830428228,
                    0.02962215331300025,
                    0.01940696800668545,
                    0.006617844031458169,
                    0.007957901539384204,
                    0.008222494134288272,
                    0.02259373295123647,
                    0.0198650652200997,
                    0.03596744582155647,
                    -0.01363677072136583,
                    -0.016902866949174684,
                    -0.01931822215618718,
                    -0.02241683962712816,
                    -0.009589293700160254,
                    0.015265119803367443,
                    0.008076003848175822,
                    0.013209225041259536,
                    0.001378165694316329,
                    0.0004261447406543877,
                    0.00035171902573845787,
                    0.0014724862036410436,
                    0.007922772364634042,
                    0.01225587812330463,
                    -0.0013494320696448017,
                    -0.004815285292409143,
                    0.010474814229547398,
                    -0.003577402108491587,
                    -0.010128572441914862,
                    -0.012816841340375115,
                    -0.009250181271410398,
                    -0.004067210707196051,
                    0.015234070004926498,
                    0.008069025218336303,
                    0.008933938766262495,
                    0.0002001534444642426,
                    0.010463701821184979,
                    0.0022901400386046257,
                    -0.0034745108302560417,
                    -0.024938407515140139,
                    -0.01529177139702455,
                    -0.0009751716556104404,
                    0.0036441697312778809,
                    0.0042016673180175529,
                    0.004220160243467963,
                    -0.0038075124435233318,
                    -0.001961818032481607,
                    -0.0011492804672876393,
                    0.001202347957922028,
                    -0.003143962216354485,
                    0.0005479153898886058,
                    0.00630704269015625,
                    0.004716775436280109,
                    -0.0011816609217152619,
                    0.010951422858907075,
                    0.014345248019830478,
                    0.013066618510346092,
                    0.005207034957689982,
                    0.0017868739695626119,
                    0.013190693893261416,
                    0.00639500098747538,
                    0.004829089918265877,
                    0.005402254813699218,
                    0.011356301786760096,
                    0.005213909143919026,
                    -0.005998453679934203,
                    -0.0057806898368415698,
                    -0.0171479193148858,
                    0.019237191442251609,
                    0.002334526546070773,
                    0.00639056686629188,
                    0.0014109962185742383,
                    0.008373235589705626,
                    -0.005450804762504829,
                    -0.0005182204178153253,
                    0.003962165546933209,
                    0.0010467966627724585,
                    -0.0010260401313437918,
                    -0.004468336633348269,
                    0.0035437994471502248,
                    0.0007758411966479527,
                    -0.002780345763273207,
                    0.006206951308134978,
                    0.009956962928517962,
                    0.006762121952286565,
                    -0.00010220761190928208,
                    -0.0016518587488553872,
                    0.007851575900080602,
                    0.0022420751846803385,
                    -0.0032480063782409746,
                    -0.005666552374837509,
                    0.003992847811739216,
                    -0.0009401370299173765,
                    -0.003120760715245503,
                    -0.0029862746971070356,
                    0.0036522094618738779,
                    0.0021220357731335447,
                    -0.010650220664660277,
                    -0.0044457781453089389,
                    0.007985012934846894,
                    -0.003919961562051047,
                    -0.0033422811862708296,
                    -0.003029697481996165,
                    -0.001086822037125864,
                    -0.007873747360836934,
                    -0.010132242339344835,
                    -0.0045385454834900788,
                    -0.005157850674260584,
                    -0.008494888361352512,
                    0.003115995287999194,
                    -0.0036186594876147809,
                    -0.00233378208001954,
                    0.002196425750259345,
                    0.0226352346281292,
                    0.01731214372947386,
                    0.028784401217599247,
                    0.02543097076559221,
                    0.025908379013668667,
                    0.0332598954940517,
                    0.034666963177156267,
                    0.025626163077534064,
                    0.012378230908051935,
                    0.008850322853734603,
                    0.0007870029497205188,
                    0.003355444047215536,
                    -0.0020022142987473209,
                    -0.00606978612845532,
                    -0.015478733629787379,
                    -0.013448298605116489,
                    -0.0068040428580173569,
                    0.0023714902002161155,
                    -0.00099668923336801,
                    -0.01411137924740116,
                    -0.013720427416515835,
                    -0.005854925047356509,
                    -0.000797238457029554,
                    -0.0053724314405846399,
                    -0.005378504405152225,
                    0.0012844670242632237,
                    0.000034885323108812765,
                    0.0036262992998845977,
                    0.02525757173227809,
                    0.011640115031152383,
                    0.016266953614233409,
                    0.03225172985247638,
                    0.025716539243609589,
                    0.03997741351864301,
                    0.04130002486955938,
                    0.049792335834684318,
                    0.043554350137307327,
                    0.035325533399939868,
                    0.007135910454499513,
                    0.001175346834223413,
                    -0.013553935083123416,
                    -0.02221575081488076,
                    -0.024802040649037506,
                    -0.0299726292237958,
                    -0.014295784848002718,
                    -0.000874543811384486,
                    -0.0035070328472885878,
                    -0.010125782192920699,
                    -0.01355720645306911,
                    -0.0013902406972828535,
                    0.0038973879630699065,
                    0.00036323153676031257,
                    -0.003995061566415907,
                    -0.0020048328888005635,
                    0.0065378791260045,
                    0.007578408539563072,
                    -0.0070473155616544778,
                    0.00895367443228748,
                    0.028894084367386519,
                    0.03159287051698547,
                    0.029611989943303324,
                    0.04187716465916405,
                    0.05273502602131548,
                    0.04110003230654263,
                    0.04605754694313626,
                    0.05151886444015641,
                    0.02987379068178131,
                    0.028270936826533045,
                    0.00876007832335451,
                    -0.014121902627594779,
                    -0.023878296956825416,
                    -0.02679094465079845,
                    -0.015578363706000341,
                    0.0013941645048496977,
                    0.000657419941528382,
                    -0.009121554416091943,
                    -0.011395795536575309,
                    -0.007479253309612846,
                    -0.005401786153982207,
                    0.00489630986791647,
                    0.01133048397662036,
                    0.02404865645320629,
                    0.021530944512329988,
                    0.008423601965035085,
                    -0.012357821341558048,
                    0.00901419205636335,
                    0.03328492826784347,
                    0.03864293803087162,
                    0.04588919722099655,
                    0.052099044963748498,
                    0.03092389585449547,
                    0.04104270795427339,
                    0.07630396724954233,
                    0.06435079313357276,
                    0.05249596382351274,
                    0.05581561038868809,
                    0.027324966252917934,
                    0.023532740347912936,
                    0.005636404926268308,
                    -0.002573792982224642,
                    -0.008767171345950866,
                    -0.0034700747363903548,
                    -0.0062517291530499899,
                    -0.011382850378780908,
                    -0.013161715437053051,
                    -0.01035299877899101,
                    -0.0031960243438256296,
                    0.010284754870114365,
                    0.002025727739982462,
                    -0.004124053454020156,
                    0.00964669104491507,
                    0.006936814213396907,
                    -0.019884281474522718,
                    -0.011214304618352444,
                    0.030027111481043323,
                    0.04783419512030516,
                    0.04446476036063124,
                    0.06948740072231728,
                    0.06279190180406458,
                    0.09765360283769932,
                    0.07909468858868017,
                    0.08521854467219564,
                    0.07419589667055021,
                    0.04824201192150825,
                    0.05612107060887168,
                    0.04444169328071266,
                    0.016752727950942016,
                    0.00556254076764987,
                    0.0029651370014935039,
                    0.0022904592782815424,
                    -0.008261460794440349,
                    -0.003964647549048405,
                    -0.01186659096070804,
                    -0.014794258508115477,
                    -0.0007998773579154973,
                    -0.03498187683103909,
                    0.005066315360373819,
                    0.009927765602608779,
                    0.02324081632517234,
                    0.01555197354354636,
                    -0.013972037670827734,
                    0.002482866961790661,
                    0.005380058748599685,
                    0.029284373818242779,
                    0.05385694798592304,
                    0.09388234659942185,
                    0.10450490291445176,
                    0.13084910207913084,
                    0.1104617102099889,
                    0.15210784466446396,
                    0.13426406258523225,
                    0.08275019188555799,
                    0.07146259594647642,
                    0.10118599271014461,
                    0.06570412289304947,
                    0.03374595962354618,
                    0.024711438187075369,
                    0.011117984911827552,
                    0.010700616837689808,
                    0.002888134307506377,
                    -0.005466828550156942,
                    -0.0030607278319465856,
                    0.021235668293566897,
                    -0.016730380899370284,
                    -0.0033745729607015035,
                    0.02083507723215055,
                    -0.005713972002407396,
                    0.020605305027481328,
                    0.012734027357199524,
                    -0.011153180741166717,
                    0.013039301525340571,
                    0.018648797440124554,
                    0.06908272141988431,
                    0.09717411637369875,
                    0.0963651125222313,
                    0.17264174873651176,
                    0.16876381618635495,
                    0.20772039721339509,
                    0.1827558075752652,
                    0.17385730051161769,
                    0.11920565115267333,
                    0.1498846306419989,
                    0.12240474876819323,
                    0.08522839919529174,
                    0.04937063014718934,
                    0.03891998844734981,
                    0.010521324165482836,
                    0.009799543322227666,
                    -0.007102477327721917,
                    -0.008310191911329822,
                    0.006642615492874191,
                    -0.004859672376506065,
                    -0.005968840252638965,
                    0.002806938643591367,
                    -0.0067631645995707939,
                    -0.002095741202857958,
                    -0.015330415893179567,
                    -0.03885615549074434,
                    -0.0003303597743751623,
                    0.007089278424267551,
                    0.05831633553682607,
                    0.06969083215929488,
                    0.1300307469937348,
                    0.161944214131402,
                    0.23530615698544289,
                    0.22897321563806653,
                    0.24895904169723666,
                    0.26727206789483828,
                    0.19689118323435668,
                    0.1836926386932816,
                    0.13356249116552175,
                    0.11896035676903738,
                    0.09797770143119317,
                    0.08037758175685697,
                    0.027562325252100386,
                    -0.0012330418093669037,
                    -0.008456646363537416,
                    -0.027732281714023936,
                    -0.019983482137936705,
                    -0.011823872421581859,
                    0.006181438403195427,
                    0.03137025396371442,
                    -0.018227738506918634,
                    -0.027394209648026688,
                    -0.035946322997129149,
                    -0.027922536543397,
                    0.005128971279550785,
                    -0.05019980559188085,
                    -0.010797693436539921,
                    0.017252422389406484,
                    0.09355921246459249,
                    0.17017724541709229,
                    0.1966865436883553,
                    0.2170398088567976,
                    0.258136761649504,
                    0.28432334624592017,
                    0.2158051069198325,
                    0.188730573719372,
                    0.1280961096181162,
                    0.14812200457387074,
                    0.12050005753927946,
                    0.08690460382792921,
                    0.05364044246243026,
                    -0.005058311163394785,
                    -0.007513988507104248,
                    0.007110805987405757,
                    -0.026746575350223266,
                    -0.03148893178974496,
                    0.006206543121565218,
                    -0.023380713988308684,
                    -0.018133200853117299,
                    -0.01506938237606126,
                    -0.03337500181912971,
                    -0.05381852524700627,
                    -0.01580489933836709,
                    -0.011137512121112171,
                    -0.049823471272440179,
                    -0.060888239141497647,
                    0.004507325275018352,
                    0.013684161656448332,
                    0.08529387955186088,
                    0.06547901755551348,
                    0.08831197968671827,
                    0.1216961159627034,
                    0.1470453770438747,
                    0.1356681687229487,
                    0.12630222602671416,
                    0.1417762033931457,
                    0.11902759371404599,
                    0.09160936169778696,
                    0.07466148985501906,
                    -0.01494284500110737,
                    -0.008020269763723203,
                    -0.01974730168340386,
                    -0.0200619983799518,
                    -0.012758235305375482,
                    0.0034185403764053054,
                    0.0001410576885567607,
                    -0.007638660766544185,
                    -0.016811252775619936,
                    -0.016083022713202539,
                    -0.03588850446362467,
                    -0.0835322560992601,
                    -0.07582173615421154,
                    -0.08798060504101084,
                    -0.07627597910961094,
                    -0.15869163227832068,
                    -0.16469898099748637,
                    -0.1546273108802163,
                    -0.159226227285031,
                    -0.15627732994433758,
                    -0.10987074116810437,
                    -0.0737164980073271,
                    -0.028852980288871227,
                    0.009670613854315903,
                    0.05772709619423723,
                    0.04753134987402377,
                    0.1209896504069222,
                    0.08923416113551594,
                    -0.005754391430559647,
                    -0.017253432122244847,
                    -0.017398605307133859,
                    0.004623668626122295,
                    -0.015048198559881368,
                    0.00011522961469994522,
                    -0.013562865275718402,
                    -0.04299868287660588,
                    -0.04596642672501955,
                    -0.036068759760350347,
                    -0.042548595096228897,
                    -0.06151034443755056,
                    -0.12658969974036173,
                    -0.11788169471577724,
                    -0.1407910107072038,
                    -0.1632371269968595,
                    -0.1810980928735113,
                    -0.2191031173031289,
                    -0.18926360285117339,
                    -0.19455615062978746,
                    -0.22043864007312359,
                    -0.18408336386197828,
                    -0.11224538648636243,
                    -0.08082607408041677,
                    -0.04041736680932323,
                    0.003700740420191985,
                    0.05402653555311842,
                    0.04118447742262807,
                    -0.021896617369021006,
                    -0.029824925293295037,
                    -0.019997591413574199,
                    -0.017027717315968663,
                    -0.00813046587747198,
                    0.004009403366616746,
                    -0.016301442551573624,
                    0.017719730522490957,
                    0.015010450475253819,
                    -0.003108386506255787,
                    0.048632586316869359,
                    0.0006650997711141631,
                    -0.054104464701649968,
                    -0.093755170968267,
                    -0.10642442343273787,
                    -0.13108287850133336,
                    -0.10713115842185848,
                    -0.1555915037420865,
                    -0.13153068749567274,
                    -0.11662075208478225,
                    -0.15522042981840562,
                    -0.11240185354456653,
                    -0.14991530773001389,
                    -0.12076100364385582,
                    -0.10300406989916805,
                    -0.08192915327872691,
                    -0.021840614500176389,
                    0.03356937928059571,
                    -0.01345143707069892,
                    -0.022611466345810205,
                    -0.04279093495090935,
                    -0.007432630210309932,
                    -0.008897925881748067,
                    -0.01259743592503592,
                    -0.04346988622575385,
                    -0.007262065983923833,
                    0.01733963813264131,
                    0.013719432044045343,
                    0.027621029001829203,
                    0.021354081896036247,
                    0.04620892651746869,
                    0.011079479014612691,
                    -0.012401071457409253,
                    -0.001683517106989462,
                    -0.026183320927247464,
                    -0.05359726104618766,
                    -0.0720527905426944,
                    -0.05046282012534797,
                    -0.034609343670022846,
                    -0.057041894789350938,
                    -0.07682215498785715,
                    -0.0904598676801886,
                    -0.07240128030332935,
                    -0.08408555147823382,
                    -0.04826265132349708,
                    -0.0038114287323509179,
                    -0.01098430656613168,
                    0.009417732289340913,
                    -0.019264919327617138,
                    -0.011783980365581818,
                    -0.007457526308712165,
                    -0.004016835488183851,
                    0.006773905414218006,
                    -0.007881864554514179,
                    0.019371143706522099,
                    0.018770264374207897,
                    0.02029153632736757,
                    0.012909330990302882,
                    0.07872635923966572,
                    0.08774394120526563,
                    0.009672740849148307,
                    0.048526116747348187,
                    0.06902374368901411,
                    0.053747039739383137,
                    0.059233657391107429,
                    0.06978502616334499,
                    0.07135199521270319,
                    0.0015154578857675924,
                    -0.009385125524043713,
                    -0.05741705229267672,
                    -0.07025803873243143,
                    -0.056501741195304908,
                    -0.03636833132297991,
                    0.014321725201860538,
                    -0.004459649052212147,
                    0.00033584712732920074,
                    -0.01811469656428359,
                    -0.03212007159249555,
                    -0.03205771632824084,
                    -0.012101276695255698,
                    0.03546437432993574,
                    0.021767647495811009,
                    0.01159765090283336,
                    0.012786908523364223,
                    0.021268674857285578,
                    0.04043962774719458,
                    0.04754108122887926,
                    0.06693275969374849,
                    0.0711068689104571,
                    0.039124662251691099,
                    0.02420532724266403,
                    0.07054229212118322,
                    0.06780087978735386,
                    0.06633162998029714,
                    0.07185965301521487,
                    0.04138991770867749,
                    0.013302742318988656,
                    0.007874767502425122,
                    0.021940108097046709,
                    -0.02821403967368009,
                    -0.024751158264484389,
                    -0.0009643043724964082,
                    -0.020304280502996997,
                    -0.0010009414315292247,
                    0.0021639234249580909,
                    -0.014783173338669895,
                    -0.0057247790235890019,
                    0.0007881315531574539,
                    -0.0039254676662433189,
                    0.02681344651096249,
                    -0.013021076898029666,
                    -0.0026159032947873567,
                    0.028022456026452155,
                    0.022044266456275064,
                    0.029158743757317284,
                    0.017217855991393854,
                    0.05055906904687535,
                    0.0219173148674366,
                    0.005923039426669036,
                    -0.004677682115073428,
                    0.021296924068838764,
                    -0.01784607082895365,
                    0.02626654933380653,
                    0.019679226022298787,
                    0.029418403976810393,
                    0.022766198649248526,
                    0.040539256876523748,
                    0.009546370931281955,
                    -0.010533872686970505,
                    -0.016532763740500189,
                    -0.03375116109396744,
                    0.007369250332916713,
                    -0.012908759801365851,
                    -0.014623949095647652,
                    0.0007120403159770577,
                    -0.0036112587288416547,
                    0.006672329163145687,
                    -0.025337362863380124,
                    0.010427097817770797,
                    -0.010832510956564937,
                    0.004173935782245614,
                    -0.0023346590832168179,
                    0.02942186625451555,
                    0.017062752139319374,
                    0.04776320979762541,
                    0.011719161298180705,
                    -0.014437153676479476,
                    0.003715772416586371,
                    -0.006166867695838962,
                    -0.03193294914347519,
                    -0.04139184760502219,
                    -0.01700557778069167,
                    0.0012676096830076926,
                    0.001882302811120106,
                    0.013654956220435,
                    0.02759073439957654,
                    0.026193642202425164,
                    -0.04573697072111485,
                    -0.030016313032561055,
                    -0.0024744798852574048,
                    -0.007249608551520913,
                    -0.013588762271430754,
                    0.0167935864868765,
                    0.011903820874736258,
                    -0.009998658949255411,
                    -0.000006836715013923361,
                    -0.002286716958411059,
                    0.00908492462122508,
                    0.00976132792314518,
                    0.0009992078596800468,
                    0.006234805317771678,
                    -0.002438540348122425,
                    0.0020023714478907426,
                    -0.019651414709194467,
                    0.014347187270445643,
                    -0.009024488801412084,
                    -0.03518110565177561,
                    -0.017554029301279085,
                    -0.026980956662559766,
                    -0.009538622537022679,
                    0.01667909452033838,
                    0.03551808403325186,
                    0.01938689802864083,
                    0.006501369866179119,
                    0.018248058143322044,
                    -0.02274439552003138,
                    -0.010451861839651716,
                    -0.0032565081416753634,
                    0.006480768384960003,
                    -0.0008496105756024719,
                    0.014233713789843393,
                    0.007013891773872737,
                    -0.0131408886351117,
                    -0.014689098738187322,
                    0.0037947339726143679,
                    -0.03025225623979859,
                    0.007507585800795288,
                    0.008819551983905166,
                    -0.0003463083017969549,
                    -0.014496621386491925,
                    -0.046847176126977727,
                    -0.014189125135887795,
                    -0.007419975864978584,
                    0.016469064432967006,
                    0.009213848266336372,
                    -0.015561267529927965,
                    -0.010233667103605684,
                    -0.021473047057762839,
                    -0.009842757460543478,
                    -0.012141798890090958,
                    -0.016127507227329878,
                    0.0002179588995240848,
                    0.02026161851504891,
                    -0.030749057101480395,
                    -0.009102355283177356,
                    -0.003972009486612256,
                    -0.008314890355370038,
                    0.01122940405534113,
                    0.026597340577744229,
                    0.018140408316009078,
                    0.018029090901452,
                    0.00894318615665017,
                    0.0011108795143055569,
                    -0.004661329325343935,
                    0.003302793539393213,
                    0.0020242200490906798,
                    -0.017089699213823044,
                    -0.042756214328795578,
                    -0.041460093452316357,
                    0.014391696891973963,
                    -0.013445610453616872,
                    0.010132591573174767,
                    0.021855963835416264,
                    -0.02370423482652983,
                    -0.016328959469635,
                    -0.01628827835665668,
                    0.00857108762336422,
                    -0.0064810324152993329,
                    -0.003420594976395515,
                    0.012743552909061993,
                    0.010089032802846659,
                    -0.007390902936299167,
                    -0.02249342877642784,
                    -0.0034805003498878095,
                    -0.014324627617227554,
                    -0.0066339231379309239,
                    0.030946692227565375,
                    0.04101242875659613,
                    -0.011544118779817904,
                    -0.009902515655734905,
                    -0.052319838594438557,
                    -0.01254861354079525,
                    0.0031039908580333399,
                    -0.013087341227537186,
                    0.0004491543283500599,
                    -0.03401826922094122,
                    0.002182290402832535,
                    -0.025551280032823619,
                    0.002503847868335735,
                    0.002530489419074781,
                    -0.0006281605986547757,
                    -0.010624396294648994,
                    -0.008154681922910259,
                    0.005744933454917254,
                    -0.0022098751735352198,
                    0.017531845932976955,
                    0.005010923014592214,
                    0.005078493175675996,
                    0.007645971796719077,
                    0.0002511163857362773,
                    -0.008020441968595695,
                    -0.00633467578092303,
                    -0.007521203344316357,
                    -0.016358332644862407,
                    -0.009892634414132434,
                    -0.0008703299780534466,
                    -0.014642052926326125,
                    0.0005459447543062439,
                    -0.009710229471916054,
                    0.015899160265457618,
                    0.007197847279755175,
                    -0.017370086038353793,
                    0.010879674457050222,
                    0.017288553163996753,
                    -0.005428679525655228,
                    -0.008618479373894902,
                    -0.019774642216647509,
                    -0.003440159849943516,
                    -0.028859724130203297,
                    -0.0015326753046140585,
                    -0.00701060248013038,
                    -0.023185857675375119,
                    -0.011102812383253983,
                    0.006214532087606414,
                    0.014044824236654019,
                    -0.005070238638484409,
                    -0.0010116733299491477,
                    -0.0023618305146460895,
                    -0.005953968607447522,
                    -0.0051356413410503808,
                    -0.00038449856308351074,
                    -0.0010890127851628559,
                    -0.007259399142548396,
                    -0.005341679555417231,
                    0.013864189848300997,
                    0.00410757389448073,
                    0.004075170908813677,
                    0.01200559508857201,
                    0.0032279498037414246,
                    0.025689487838929063,
                    -0.0072988290612602019,
                    -0.01741628689918346,
                    -0.042861403018793427,
                    -0.026581513449980114,
                    -0.007155885309849609,
                    -0.002110670341083377,
                    0.013957783860816694,
                    -0.008424083505290489,
                    -0.005177725719524266,
                    -0.019424480998664945,
                    0.0023137103328465535,
                    0.010762701106677563,
                    0.018105925075339047,
                    0.008653116104183269,
                    -0.006216299406876249,
                    -0.008592102430946082,
                    0.00263282813671148,
                    -0.0009824564231717464,
                    -0.0034278307542257057,
                    0.007483082745211887,
                    0.0005195460730260629,
                    -0.007847809986434133,
                    -0.0031259048342739514,
                    -0.0023908511188379928,
                    -0.001964152018270523,
                    -0.007358370215630711,
                    -0.0022504407398166459,
                    0.002108546525260936,
                    -0.00471660495708517,
                    -0.015854258739739569,
                    -0.004552948404828749,
                    0.0004959893086491913,
                    0.01476955880595597,
                    -0.005351724502295328,
                    -0.00606821432729156,
                    0.0004974636532457998,
                    -0.0004482333011056936,
                    -0.020334726031860648,
                    0.006236991281569366,
                    0.015726679505311353,
                    0.018293587592798874,
                    0.012087334190915518,
                    -0.001746563641917166,
                    -0.0018598688578016754,
                    0.00008629653040548214,
                    -0.00207322291190988,
                    -0.006671736476916887,
                    -0.000722534887104509,
                    0.0022098341303533927,
                    -0.014356155858707035,
                    -0.004157128925879234,
                    -0.0034516804999326267,
                    -0.0016165256871700414,
                    -0.002900651253032255,
                    0.0008522526879289625,
                    0.00018409913570018653,
                    -0.01289575679627604,
                    0.0007772930420384618,
                    0.018682145982141159,
                    0.025373306984280323,
                    0.021067700010172296,
                    0.0026325589993120505,
                    0.0012382804665903886,
                    0.005379339382962897,
                    -0.013370170023776902,
                    -0.01670052713179952,
                    -0.005384083671906053,
                    -0.0009264607412803774,
                    -0.007343112346860771,
                    0.009087961109396772,
                    -0.007222214953430412,
                    -0.0034933284418914008,
                    -0.005504220093215716,
                    -0.001527250279076128,
                    -0.002620998723171006,
                    -0.0005347140653041115,
                    0.006659688711269001,
                    0.002066012374891909,
                    -0.001393215905052962,
                    0.0025037216777479,
                    0.0053961587642209359,
                    -0.01938342456459277,
                    -0.002918224024650261,
                    -0.00816115465393553,
                    0.004524246321669254,
                    0.014781833478963693,
                    0.023686862585233297,
                    0.038155377965286927,
                    0.03994728487041875,
                    0.02729868166670704,
                    0.0049229943046863139,
                    0.0008533603712480365,
                    -0.023997458817938585,
                    -0.00839775206131301,
                    0.004770946791411029,
                    0.012879606912726716,
                    0.011276307846452685,
                    0.005784315113310094,
                    -0.0030290873178996315,
                    -0.003448714524758771,
                    -0.0012603382799987258,
                    -0.0016085458655194032,
                    0.0016243828364227956,
                    0.0005859508607207077,
                    0.003952152169969365,
                    0.004531551402994108,
                    -0.005135066521781679,
                    -0.005449375292501956,
                    0.004873175178591584,
                    0.011679963630592436,
                    0.010237446956182013,
                    0.005849239527567871,
                    0.009840715008023742,
                    0.018265395517345959,
                    0.019794734772332936,
                    0.03674761011995893,
                    0.04845414120142782,
                    0.04619565211485224,
                    0.018970167822289248,
                    0.01194581613398549,
                    0.00964409253025569,
                    0.0022787210973491316,
                    0.02308762008218461,
                    0.01407041542182797,
                    -0.0011020644447655728,
                    0.004821633708376485,
                    0.004548024215338167,
                    0.00521362079270762,
                    0.0007122008306636254,
                    0.00249340188191471,
                    0.002769821441944619,
                    0.002346702798701562,
                    0.008626468571496314,
                    -0.0033652495799342547,
                    -0.004651911406048278,
